{"version": "0.5.4", "metadata": {"date": {"year": 2025, "month": 12, "day": 1, "hour": 20, "minute": 20, "second": 38}, "loudness": -28.173601150512695, "gain": 0.7839697740519244, "name": null, "modeled_by": null, "gear_type": null, "gear_make": null, "gear_model": null, "tone_type": null, "input_level_dbu": null, "output_level_dbu": null, "training": {"settings": {"ignore_checks": false}, "data": {"latency": {"manual": null, "calibration": {"algorithm_version": 1, "delays": [4], "safety_factor": 1, "recommended": 3, "warnings": {"matches_lookahead": false, "disagreement_too_high": false, "not_detected": false}}}, "checks": {"version": 3, "passed": true}}, "validation_esr": 0.005503816393283256}}, "architecture": "WaveNet", "config": {"layers": [{"input_size": 1, "condition_size": 1, "head_size": 8, "channels": 16, "kernel_size": 3, "dilations": [1, 2, 4, 8, 16, 32, 64, 128, 256, 512], "activation": "Tanh", "gated": false, "head_bias": false}, {"input_size": 16, "condition_size": 1, "head_size": 1, "channels": 8, "kernel_size": 3, "dilations": [1, 2, 4, 8, 16, 32, 64, 128, 256, 512], "activation": "Tanh", "gated": false, "head_bias": true}], "head": null, "head_scale": 0.02}, "weights": [0.07968199253082275, 0.3988804817199707, -0.8928337693214417, -0.8002691864967346, -0.42933472990989685, 0.21435441076755524, -0.05428338050842285, 0.8556479811668396, -0.08175968378782272, 0.18201112747192383, -0.3292931616306305, 0.012740683741867542, -0.9143273830413818, -0.7217493653297424, -0.46962735056877136, 0.06260362267494202, 0.000175869747181423, 0.16709144413471222, -0.28157544136047363, -0.04225810989737511, 0.18717220425605774, 0.07786387205123901, -0.052744410932064056, -0.036424677819013596, 0.009596695192158222, -0.006433633156120777, -0.011066864244639874, -0.09787173569202423, -0.10163508355617523, -0.16963380575180054, -0.010312583297491074, 0.134336918592453, 0.04284937307238579, -0.12329170852899551, -0.07954182475805283, -0.25085315108299255, 0.034797701984643936, 0.14462144672870636, 0.20738252997398376, 0.03533921018242836, 0.022909948602318764, -0.18512053787708282, 0.12855997681617737, -0.12164270877838135, 0.030563920736312866, -0.13050314784049988, 0.07824886590242386, -0.05302733555436134, -0.014313134364783764, -0.02351096272468567, -0.05648310109972954, 0.18507245182991028, 0.0339631587266922, -0.1240634173154831, 0.130304753780365, -0.10470138490200043, -0.11585433781147003, -0.07375539094209671, -0.1129070296883583, -0.21154813468456268, 0.11183980107307434, 0.01144695095717907, -0.03292103856801987, -0.05494819954037666, -0.011915749870240688, -0.19182303547859192, 0.1679798662662506, -0.12276534736156464, -0.11430859565734863, 0.17104791104793549, 0.054270610213279724, 0.16499623656272888, 0.03824920952320099, 0.28434816002845764, 0.34188809990882874, 0.10618831217288971, 0.18529459834098816, 0.08676385134458542, -0.011974123306572437, -0.23347167670726776, -0.3411749005317688, 0.17502659559249878, 0.2010359764099121, 0.034943465143442154, -0.0955984890460968, -0.1889863759279251, -0.24175330996513367, -0.04707004874944687, 0.1798250526189804, 0.10881265252828598, -0.03331231325864792, -0.06703507900238037, -0.09794990718364716, 0.103785939514637, 0.0065558976493775845, 0.11462481319904327, 0.03131285682320595, 0.09590984135866165, 0.06677833199501038, -0.17734916508197784, 0.30034664273262024, 0.31404396891593933, -0.08264455944299698, 0.1261974424123764, 0.08003582060337067, -0.025688940659165382, 0.04752456769347191, 0.1023574024438858, -0.03763727843761444, -0.10343912243843079, -0.20326140522956848, 0.13380829989910126, -0.14552868902683258, 0.2217044085264206, -0.0835396870970726, -0.12785468995571136, 0.07096106559038162, -0.0666278675198555, 0.022125478833913803, -0.08361002057790756, 0.12371927499771118, 0.011972913518548012, -0.18595613539218903, 0.1382092982530594, -0.12562473118305206, -0.19388072192668915, 0.04157064110040665, -0.08707784116268158, 0.05670871585607529, -0.20768104493618011, 0.019682349637150764, -0.05511632189154625, 0.05448000505566597, -0.010894861072301865, 0.2204761505126953, -0.08341716229915619, 0.04334263503551483, -0.09661370515823364, 0.1583584100008011, 0.07659133523702621, 0.2399805784225464, 0.004556599073112011, 0.1509333848953247, -0.11942385882139206, -0.0451408289372921, -0.04970859736204147, 0.00019932400027755648, 0.07955019176006317, -0.07031146436929703, -0.22734884917736053, -0.06825170665979385, -0.11717753857374191, -0.14523568749427795, 0.15078499913215637, 0.0888674184679985, -0.25074371695518494, 0.16842880845069885, -0.18234479427337646, 0.019339842721819878, -0.18631665408611298, -0.010583354160189629, -0.16053903102874756, 0.018561603501439095, -0.1794491857290268, -0.19286060333251953, 0.023700200021266937, -0.004164223559200764, 0.23552027344703674, -0.1452941745519638, 0.04975495487451553, 0.3068283498287201, -0.07624861598014832, 0.18126562237739563, 0.2252526432275772, -0.1552167534828186, 0.04656364023685455, -0.1861068457365036, -0.026687778532505035, 0.1189269945025444, 0.025953523814678192, -0.08427853137254715, -0.0896473228931427, -0.077492356300354, 0.05698883533477783, 0.09411139041185379, 0.20126834511756897, -0.1066608652472496, -0.0733872726559639, -0.28176939487457275, 0.11651283502578735, 0.1622636765241623, 0.2700347900390625, -0.13514718413352966, 5.176339982426725e-05, 0.03352205827832222, -0.1466476172208786, -0.023269841447472572, 0.22918549180030823, -0.10117603838443756, 0.05498718097805977, 0.18579666316509247, 0.07363443821668625, -0.05651872977614403, 0.07650362700223923, -0.10955751687288284, 0.10957585275173187, -0.1722002923488617, 0.19007235765457153, 0.32586684823036194, -0.060543425381183624, -0.2437041997909546, 0.2606624662876129, -0.06179451197385788, -0.15163932740688324, -0.29986315965652466, 0.09489211440086365, -0.0013873794814571738, -0.37416359782218933, 0.19357943534851074, -0.003290937514975667, -0.29960528016090393, 0.2237669974565506, 0.17108286917209625, 0.2820187211036682, -0.19916795194149017, -0.06173522770404816, -0.3482370376586914, 0.03710923343896866, 0.15183809399604797, 0.2776775658130646, -0.07474275678396225, 0.006969889160245657, -0.24938936531543732, 0.20741897821426392, 0.2584451735019684, 0.18575994670391083, -0.002561293076723814, -0.22903458774089813, -0.3481067419052124, 0.12223032116889954, 0.1783745139837265, -0.11947409063577652, -0.009543162770569324, 0.13026130199432373, -0.22346121072769165, -0.06504777073860168, 0.2152918130159378, -0.4160923957824707, 0.07780978828668594, 0.09073507785797119, -0.3675103187561035, 0.09627857804298401, 0.24072763323783875, 0.21244852244853973, -0.13136370480060577, -0.1298927515745163, -0.09515286982059479, 0.209749236702919, -0.24047677218914032, -0.015148945152759552, 0.06253360956907272, 0.007291983347386122, -0.012453251518309116, -0.045282114297151566, 0.12148014456033707, -0.1352386772632599, -0.19510188698768616, 0.11427519470453262, 0.039410851895809174, -0.1101977750658989, 0.008867123164236546, 0.002662760205566883, 0.010043040849268436, -0.05920311063528061, -0.1120472103357315, -0.25320377945899963, 0.27529656887054443, -0.006676337216049433, 0.13930608332157135, -0.02911136858165264, -0.046581875532865524, -0.22645056247711182, 0.008033148013055325, 0.1851782351732254, 0.16632111370563507, 0.03184318542480469, -0.12347700446844101, -0.10482420027256012, 0.05402487516403198, -0.02155718393623829, -0.200392484664917, 0.1557808667421341, -0.042273107916116714, -0.15803943574428558, 0.036390215158462524, -0.17474187910556793, -0.05547519028186798, -0.03445739671587944, -0.0211422648280859, -0.20031946897506714, 0.009300935082137585, 0.050538867712020874, 0.04535491392016411, -0.07541461288928986, 0.08558709174394608, -0.010886970907449722, -0.11241163313388824, 0.09664715081453323, 0.12134706974029541, -0.13216659426689148, -0.15921591222286224, -0.0961214005947113, 0.15619459748268127, -0.0910957008600235, -0.01632191799581051, 0.20595110952854156, -0.10572012513875961, -0.06527143716812134, 0.17453491687774658, 0.037771668285131454, 0.07768552750349045, -0.10599378496408463, -0.12654846906661987, -0.04804334416985512, 0.2528402805328369, 0.16864551603794098, 0.15781883895397186, -0.08822228759527206, 0.05609527975320816, -0.11743367463350296, 0.03425689414143562, -0.09483598917722702, 0.21034958958625793, -0.029093632474541664, -0.12980063259601593, -0.010302389040589333, 0.2294817566871643, 0.11858140677213669, 0.06976336240768433, 0.2276373952627182, -0.07305698841810226, -0.12378795444965363, 0.22505323588848114, 0.042548902332782745, -0.16000717878341675, 0.23942823708057404, 0.03681545704603195, 0.008420986123383045, 0.024430641904473305, 0.0028115499299019575, -0.06939389556646347, -0.04153205081820488, 0.06761349737644196, 0.12627136707305908, -0.06536758691072464, 0.18986737728118896, 0.034649237990379333, 0.03891332447528839, -0.2289530634880066, -0.04821483790874481, -0.06277242302894592, -0.27307209372520447, -0.19880248606204987, 0.14687475562095642, -0.04880092293024063, 0.05325622484087944, 0.14972825348377228, -0.01829291321337223, -0.022762885317206383, -0.07081019133329391, -0.17273777723312378, 0.032977961003780365, -0.02894344925880432, 0.060126759111881256, -0.05656448006629944, -0.1146153137087822, 0.020423054695129395, 0.0440506711602211, 0.16487987339496613, 0.22553563117980957, 0.20960752665996552, -0.07726547867059708, -0.056389737874269485, 0.05074116587638855, 0.09158647060394287, 0.09191368520259857, -0.019087355583906174, 0.12176436185836792, -0.1805734783411026, -0.014304469339549541, 0.04919276759028435, -0.16431601345539093, -0.16600705683231354, -0.04816679283976555, -0.23777848482131958, 0.013908430933952332, 0.13801153004169464, 0.05347799137234688, -0.0380355529487133, 0.08621290326118469, 0.041584257036447525, 0.19857889413833618, -0.24094069004058838, 0.11449635773897171, 0.2543095052242279, -0.1725897192955017, 0.15133750438690186, -0.09708604216575623, 0.0040322523564100266, 0.09684927761554718, -0.2871205806732178, 0.03683950752019882, 0.14650440216064453, -0.19205527007579803, -0.03549667075276375, -0.07594961673021317, 0.1556553840637207, -0.10634030401706696, 0.07007623463869095, -0.04094969108700752, 0.14340996742248535, -0.10494209825992584, 0.21348047256469727, 0.011270366609096527, 0.11784359067678452, -0.3058599829673767, 0.08902505040168762, -0.13205750286579132, 0.12927226722240448, -0.02334083616733551, -0.0775260403752327, -0.1448175460100174, 0.1956055760383606, 0.03689463064074516, -0.24536782503128052, 0.03772856667637825, 0.04492056369781494, -0.3155645728111267, 0.12756860256195068, -0.11443807929754257, -0.3438839018344879, -0.07940683513879776, -0.006868977099657059, -0.10355551540851593, -0.06889336556196213, 0.06352858990430832, 0.08828166872262955, -0.044906195253133774, 0.18707512319087982, 0.004174273926764727, 0.23294445872306824, 0.23689459264278412, 0.2255961149930954, 0.18559756875038147, -0.26846861839294434, 0.02520062029361725, -0.11611493676900864, -0.10230644792318344, -0.208689346909523, -0.1632445901632309, -0.3106182813644409, -0.15199629962444305, -0.09035064280033112, 0.046128883957862854, 0.13944321870803833, 0.1852457970380783, -0.11025508493185043, -0.18805037438869476, -0.18789473176002502, 0.12767700850963593, 0.1582411378622055, 0.26399004459381104, -0.07739746570587158, -0.11523983627557755, -0.04589042812585831, 0.01129344291985035, -0.03429187834262848, 0.17226135730743408, -0.2440328598022461, -0.02084343507885933, -0.21215273439884186, -0.21009762585163116, -0.20352792739868164, 0.02619181014597416, -0.18484297394752502, 0.018493715673685074, -0.032328490167856216, -0.09124549478292465, -0.09056724607944489, -0.1656721979379654, -0.20123039186000824, -0.07797174155712128, -0.04805605858564377, 0.027783874422311783, 0.16338567435741425, 0.04738912731409073, -0.04358436539769173, -0.09865010529756546, 0.10691967606544495, 0.27435508370399475, -0.09742017090320587, 0.13889075815677643, -0.07757936418056488, 0.04312397167086601, 0.08249334990978241, -0.22536706924438477, 0.0049166143871843815, 0.020738812163472176, -0.17953556776046753, 0.016511516645550728, -0.07021866738796234, 0.2198725938796997, -0.009090007282793522, -0.02889651618897915, -0.05115539953112602, 0.05471597984433174, -0.05579567328095436, 0.1604153960943222, 0.12458635121583939, 0.023605983704328537, -0.06202498450875282, -0.03824501112103462, 0.05295819044113159, 0.026085328310728073, -0.05276154726743698, -0.044833969324827194, -0.00436219060793519, -0.07106012850999832, -0.027891123667359352, -0.18349957466125488, 0.10519000142812729, 0.09921521693468094, -0.25742897391319275, -0.15919101238250732, -0.14925359189510345, -0.1467934101819992, -0.07701654732227325, -0.13059590756893158, -0.19139088690280914, -0.007661508861929178, -0.10537862777709961, 0.09821031242609024, -0.048411160707473755, -0.031318530440330505, 0.0026622209697961807, 0.030132757499814034, -0.04291742667555809, -0.04230769723653793, -0.151406928896904, 0.12146562337875366, -0.08368583768606186, -0.030936984345316887, 0.16562969982624054, -0.040511604398489, 0.13251043856143951, 0.008814589120447636, 0.010166862979531288, 0.06445246189832687, 0.10220680385828018, -0.03380636125802994, -0.2404143065214157, -0.09017764031887054, -0.03283510357141495, 0.15861620008945465, -0.12983256578445435, 0.08565524220466614, -0.1380375623703003, -0.04641604796051979, 0.1346224844455719, 0.14955921471118927, 0.09360212832689285, 0.03917678818106651, -0.1432776153087616, -0.10558700561523438, 0.0329638347029686, 0.22041122615337372, -0.038650237023830414, -0.08419989049434662, 0.1651034653186798, 0.1670101135969162, 0.011640123091638088, -0.013156368397176266, -0.10779009759426117, 0.0857185497879982, 0.09436550736427307, -0.053676359355449677, 0.0732530876994133, 0.15585874021053314, 0.12663990259170532, 0.14660409092903137, -0.05678794905543327, -0.0869150310754776, -0.2596130073070526, 0.07966772466897964, 0.2502917945384979, -0.10964322090148926, -0.22150684893131256, 0.20559439063072205, 0.3131425380706787, 0.22884346544742584, -0.19061022996902466, 0.12237973511219025, -0.000720667012501508, 0.0665142610669136, 0.10470575839281082, 0.024886921048164368, -0.0016896279994398355, -0.22403492033481598, -0.16478419303894043, 0.07577837258577347, 0.11424452066421509, -0.03246256336569786, -0.019705453887581825, -0.24046804010868073, -0.047828104346990585, 0.1940501481294632, 0.211546391248703, 0.0990016907453537, 0.00036142137832939625, -0.14313006401062012, -0.16898584365844727, 0.21554093062877655, 0.20225180685520172, -0.045630667358636856, -0.1231158971786499, 0.06458248198032379, 0.2252901941537857, -0.10811826586723328, 0.045322485268116, 0.09177803993225098, 0.02364395000040531, 0.21334540843963623, 0.14535529911518097, -0.05725089833140373, 0.22218936681747437, 0.05940811708569527, -0.1353263109922409, -0.24727575480937958, -0.1715991497039795, 0.10596116632223129, 0.006638637278228998, -0.18990619480609894, 0.23368947207927704, 0.06836806237697601, -0.3192409873008728, 0.2046079784631729, -0.13815826177597046, 0.353562593460083, -0.17460957169532776, -0.09105831384658813, 0.31295454502105713, -0.12154494225978851, 0.05615259334445, 0.1260356605052948, -0.1912747174501419, 0.004756849259138107, -0.19746290147304535, 0.21486492455005646, -0.1688757836818695, 0.24772000312805176, -0.17770972847938538, 0.02522575482726097, -0.12826518714427948, -0.05111311376094818, -0.0743996873497963, 0.33459219336509705, -0.1381436437368393, 0.1778775304555893, -0.261901319026947, 0.1945326328277588, -0.206495463848114, 0.20460908114910126, -0.10209626704454422, -0.009677127003669739, 0.23816421627998352, 0.0029351895209401846, -0.07559232413768768, 0.22847098112106323, 0.03987700119614601, -0.09613475948572159, 0.36032840609550476, -0.1595381200313568, -0.07924814522266388, 0.2203376591205597, -0.006314731203019619, 0.21354369819164276, -0.20847246050834656, -0.01267411932349205, 0.11276593804359436, 0.054324910044670105, -0.1136578842997551, 0.015170594677329063, 0.1501924842596054, 0.09329336136579514, -0.09851272404193878, -0.19719481468200684, 0.13897819817066193, -0.21575097739696503, -0.02807658724486828, 0.06169688329100609, -0.16601862013339996, -0.002356603741645813, -0.0801088809967041, 0.12456811964511871, -0.03632040321826935, -0.07436567544937134, -0.037797097116708755, 0.0864730030298233, 0.043115004897117615, 0.20123612880706787, 0.04308132082223892, -0.10781048238277435, -0.19620315730571747, -0.1669280230998993, 0.23499621450901031, 0.058850716799497604, 0.06564447283744812, -0.013684618286788464, -0.0007421529153361917, 0.06762460619211197, 0.16981351375579834, -0.18015092611312866, -0.09085828810930252, -0.03856069594621658, -0.19234424829483032, -0.028266720473766327, 0.17299582064151764, -0.22267132997512817, 0.026332693174481392, -0.032638974487781525, -0.12859132885932922, 0.05856719985604286, 0.016668379306793213, 0.035575490444898605, -0.0726402997970581, 0.036125943064689636, -0.2447582185268402, -0.028590792790055275, 0.18022215366363525, -0.366042822599411, -0.06975521147251129, 0.05876168981194496, 0.38353589177131653, -0.08405904471874237, 0.02402745932340622, 0.3933221101760864, 0.05245160683989525, -0.12147552520036697, 0.24101249873638153, -0.09692363440990448, -0.1704021692276001, -0.24939557909965515, 0.15602421760559082, 0.18693377077579498, 0.23197266459465027, -0.02981124073266983, -0.17899218201637268, -0.15931490063667297, -0.01642651855945587, -0.05548781156539917, 0.2529241144657135, 0.022038888186216354, -0.23160648345947266, -0.11850288510322571, 0.09517225623130798, -0.03906017914414406, 0.2255350947380066, 0.07516557723283768, -0.1721935272216797, 0.18748009204864502, 0.03369443118572235, -0.20364762842655182, 0.3474334180355072, 0.03360291197896004, 0.04554205760359764, 0.1746472716331482, 0.10081250965595245, -0.13363958895206451, 0.4037872552871704, -0.18619735538959503, -0.18332530558109283, -0.1123272031545639, 0.08953173458576202, 0.0469023771584034, -0.13461394608020782, -0.2501176595687866, -0.08220788836479187, -0.1789507120847702, 0.059141725301742554, 0.10800701379776001, -0.013986892066895962, -0.00458149891346693, 0.10697519034147263, 0.39174380898475647, -0.07737851142883301, 0.05310703068971634, -0.03128455951809883, -0.08280639350414276, -0.04447197541594505, -0.011592742055654526, 0.42549940943717957, -0.42530059814453125, 0.7421550154685974, -0.6992937326431274, -0.0948244258761406, 0.8430668711662292, 0.8983423113822937, -0.6039896607398987, 0.13445419073104858, 0.24932119250297546, -0.41989102959632874, -0.37995511293411255, 0.32560813426971436, -0.6488526463508606, 0.13938073813915253, 0.4644521176815033, 0.12545058131217957, 0.2742004692554474, 0.17266108095645905, 0.1341649889945984, 0.28396689891815186, -0.007760543376207352, 0.30395662784576416, -0.4088439345359802, 0.0307905413210392, -0.15365809202194214, 0.185827374458313, -0.2501586675643921, 0.1351330727338791, -0.05846627056598663, 0.2718724012374878, -0.060937415808439255, -0.2013859897851944, -0.16058655083179474, -0.3584233522415161, 0.0727001503109932, -0.34624677896499634, -0.09714534878730774, -0.3272996246814728, -0.03117026947438717, -0.038998108357191086, 0.33328357338905334, -0.3103131651878357, 0.13074173033237457, 0.3079214096069336, -0.07028977572917938, -0.21655337512493134, 0.6147696375846863, -0.052327658981084824, 0.20678094029426575, -0.07287843525409698, 0.32841524481773376, -0.2704472243785858, -0.23109164834022522, -0.025182491168379784, -0.10720118135213852, -0.12513045966625214, -0.24976138770580292, 0.1034407913684845, -0.14168107509613037, 0.26935452222824097, 0.3992122411727905, -0.08215031027793884, 0.1934298723936081, 0.0767425149679184, -0.30245333909988403, -0.09743370115756989, -0.24211838841438293, -0.03381123021245003, 0.14095903933048248, -0.0766030102968216, -0.061778437346220016, -0.2066747397184372, 0.3272566497325897, -0.17086607217788696, 0.057098839432001114, 0.17759038507938385, 0.21050286293029785, -0.23234912753105164, 0.01252004411071539, -0.30164191126823425, -0.309785932302475, -0.3906259834766388, 0.21977151930332184, 0.07477506250143051, 0.1046326756477356, -0.06591663509607315, -0.17302149534225464, -0.04203415662050247, 0.3942418396472931, -0.25287771224975586, 0.2813695967197418, 0.09206593781709671, 0.2842036485671997, -0.2771478593349457, 0.19947504997253418, -0.20704397559165955, -0.14169545471668243, 0.12723495066165924, -0.04648853838443756, 0.27264726161956787, 0.3074676990509033, 0.25502803921699524, 0.03844038024544716, 0.2617884576320648, 0.09383025020360947, -0.18635831773281097, -0.10401346534490585, -0.02277725376188755, -0.26095449924468994, 0.15502771735191345, 0.00423221243545413, -0.049484167248010635, 0.19026651978492737, 0.07162605226039886, 0.21588510274887085, -0.5044570565223694, -0.34508803486824036, -0.06713089346885681, 0.23079435527324677, 0.0490494966506958, -0.38799768686294556, -0.32402724027633667, 0.2506445050239563, 0.1405869424343109, -0.15465958416461945, -0.10197599232196808, 0.02906951867043972, 0.3067097067832947, 0.038187868893146515, 0.39414113759994507, -0.3213229179382324, -0.24010080099105835, 0.25463834404945374, 0.3019759953022003, -0.1346132755279541, 0.26755812764167786, -0.23783788084983826, 0.1988561749458313, -0.3218131363391876, 0.10623470693826675, -0.3295486867427826, -0.03826117888092995, 0.038598597049713135, -0.029698282480239868, -0.0023371372371912003, -0.23242680728435516, -0.19796817004680634, -0.015600182116031647, -0.07466943562030792, -0.11642351746559143, -0.05736137181520462, -0.24313609302043915, -0.18223688006401062, 0.22460077702999115, 0.0038555513601750135, -0.022380730137228966, -0.05916854366660118, 0.08014556020498276, 0.14900432527065277, -0.31551143527030945, -0.17156437039375305, 0.09736332297325134, -0.3369724452495575, -0.31957560777664185, 0.06561778485774994, 0.012590661644935608, -0.18213942646980286, 0.07473953813314438, 0.4192429780960083, -0.17468398809432983, 0.1869501769542694, 0.3817932903766632, 0.11444497853517532, -0.324243426322937, 0.20214518904685974, -0.019224612042307854, 0.3842535614967346, -0.38832661509513855, 0.29336559772491455, -0.3411731719970703, -0.36756786704063416, -0.1352040320634842, -0.15519937872886658, -0.10037042945623398, -0.31091707944869995, -0.34004122018814087, 0.08385062217712402, 0.10135526210069656, 0.31462547183036804, -0.18949319422245026, 0.49888235330581665, 0.12173770368099213, 0.06384862959384918, 0.2282584309577942, 0.04447724297642708, 0.001495078206062317, -0.08968140929937363, 0.08478096127510071, -0.13593997061252594, 0.027186362072825432, -0.40870141983032227, 0.005353486631065607, -0.28069207072257996, -0.07270324230194092, 0.12655813992023468, -0.14613573253154755, -0.12847481667995453, 0.0629061907529831, -0.04628092795610428, 0.22673091292381287, 0.023464346304535866, 0.10425427556037903, -0.026927363127470016, 0.14890693128108978, -0.03655329346656799, 0.25237688422203064, -0.01105330791324377, -0.01993808150291443, -0.029467061161994934, 0.2099757194519043, -0.24119628965854645, 0.0043139285407960415, 0.2478387951850891, -0.06789880245923996, -0.0707060769200325, -0.21125170588493347, 0.2069406509399414, -0.3820168673992157, 0.003917965106666088, 0.08975320309400558, 0.17032301425933838, -0.06889788061380386, -0.3083855211734772, -0.07419315725564957, 0.1113412082195282, -0.22124511003494263, 0.0156659334897995, -0.3120277523994446, 0.2695409655570984, -0.21362216770648956, 0.32222092151641846, -0.15109463036060333, -0.05767355114221573, 0.04589259251952171, -0.03780927136540413, 0.0857161432504654, 0.17265844345092773, -0.29237836599349976, 0.0686841681599617, -0.043648507446050644, -0.053960639983415604, 0.13790138065814972, 0.28975924849510193, -0.26182007789611816, 0.04552258923649788, 0.2606392204761505, -0.03978449106216431, 0.3265230357646942, -0.24550238251686096, 0.04183535277843475, 0.38683414459228516, 0.21872998774051666, 0.12109554558992386, 0.08481490612030029, 0.0001221254060510546, 0.06797634065151215, -0.3690817952156067, 0.02275485172867775, -0.06139754503965378, 0.1696818321943283, -0.061583273112773895, 0.2161981165409088, -0.20146562159061432, 0.2432323545217514, -0.22003738582134247, -0.22160248458385468, -0.1386502981185913, 0.17670486867427826, 0.042497530579566956, 0.04871338978409767, -0.26789072155952454, 0.15062154829502106, 0.18933440744876862, -0.007130976766347885, 0.23437783122062683, 0.07882585376501083, 0.05140716955065727, 0.3976510465145111, -0.0792575255036354, -0.0522591806948185, -0.207700714468956, -0.07861796766519547, 0.1848340630531311, -0.29870301485061646, 0.18332375586032867, 0.12252427637577057, -0.15902648866176605, 0.04451264441013336, -0.13194486498832703, -0.28000715374946594, 0.027635589241981506, 0.11455662548542023, 0.30131903290748596, -0.3525533080101013, -0.07380443066358566, -0.43260180950164795, 2.3750633772579022e-05, 0.12086883932352066, 0.13680341839790344, -0.42869600653648376, -0.26089760661125183, -0.27286747097969055, 0.23825380206108093, -0.01752667874097824, -0.37939563393592834, -0.3057921826839447, -0.03985109180212021, -0.35724514722824097, 0.18672746419906616, 0.17868340015411377, -0.20659205317497253, 0.3227171301841736, 0.07064563781023026, -0.5996725559234619, -0.06681831926107407, -0.05415564775466919, -0.42247846722602844, 0.19933265447616577, -0.03276199474930763, -0.3430328071117401, 0.26926231384277344, 0.08591364324092865, 0.33906933665275574, -0.3503340482711792, -0.1725606471300125, -0.23884569108486176, -0.07530533522367477, -0.056769102811813354, 0.03846125304698944, 0.040671393275260925, -0.006094636395573616, 0.04968561232089996, -0.07676857709884644, 0.06890401244163513, 0.20449356734752655, 0.29261666536331177, 0.5129647254943848, 0.33281201124191284, 0.16224992275238037, 0.4413573741912842, -0.26109635829925537, -0.08110201358795166, 0.02131403423845768, 0.20577579736709595, -0.22778843343257904, -0.17013609409332275, -0.04878085106611252, -0.07794862985610962, -0.12036163359880447, -0.026284165680408478, -0.06575728952884674, -0.1500225067138672, 0.3016437888145447, 0.15460583567619324, -0.05459728091955185, 0.2005770206451416, 0.012147217988967896, -0.0723421648144722, -0.41456350684165955, -0.3892705738544464, -0.03419415280222893, 0.2852434515953064, 0.0554865300655365, 0.2605728209018707, 0.0805731862783432, -0.03004397451877594, 0.005496826488524675, 0.0740656703710556, -0.09251285344362259, -0.05520550534129143, 0.12144957482814789, 0.3241310715675354, -0.024526851251721382, -0.1555657982826233, -0.20891427993774414, -0.24176864326000214, 0.11850972473621368, 0.15203532576560974, -0.014027360826730728, -0.026102004572749138, -0.07878535240888596, 0.09010519832372665, 0.3090745806694031, 0.3472261130809784, 0.36253026127815247, 0.38664084672927856, 0.1398419737815857, 0.43353426456451416, -0.05751161649823189, 0.1776205599308014, 0.07836677134037018, 0.0861738994717598, -0.24278806149959564, -0.07002054154872894, -0.19024182856082916, -0.010135173797607422, -0.017542097717523575, 0.013283011503517628, -0.18742118775844574, 0.0005009511951357126, -0.20822741091251373, 0.32886889576911926, 0.004883099347352982, -0.14319650828838348, -0.2717401087284088, 0.08680350333452225, 0.2419310212135315, -0.21325978636741638, 0.10200667381286621, -0.03888234496116638, 0.1912931352853775, 0.15959493815898895, 0.012153808027505875, -0.130837544798851, 0.11966896802186966, -0.07193409651517868, -0.049694668501615524, 0.1598832756280899, -0.2059420794248581, 0.24475274980068207, 0.05596457049250603, -0.11851687729358673, -0.09118905663490295, 0.09998084604740143, -0.17837299406528473, 0.03222602605819702, 0.06563085317611694, 0.20306359231472015, -0.15762203931808472, -0.0910036563873291, 0.18254970014095306, 0.10153012722730637, -0.2452421933412552, -0.06888632476329803, -0.2991566061973572, -0.2757067382335663, -0.18072152137756348, 0.16814041137695312, -0.06447502970695496, 0.15079759061336517, 0.15152615308761597, 0.09094148129224777, -0.2749340832233429, 0.20030753314495087, 0.13143280148506165, 0.18133646249771118, -0.23569227755069733, 0.054341137409210205, -0.24692028760910034, -0.08277525752782822, -0.016840849071741104, 0.21513672173023224, -0.15084950625896454, 0.07025661319494247, 0.30502447485923767, 0.17334027588367462, 0.33562159538269043, 0.16172762215137482, 0.3435407280921936, -0.10067275911569595, 0.1685120016336441, -0.2063777595758438, -0.14428865909576416, 0.07500135898590088, -0.14671722054481506, 0.10514223575592041, 0.03968249633908272, 0.21873070299625397, 0.18054653704166412, -0.2126479297876358, 0.02935672737658024, 0.0004367383080534637, 0.08924221992492676, 0.11840829998254776, 0.025661952793598175, -0.05222426727414131, -0.047358132898807526, 0.020131032913923264, -0.15000760555267334, 0.1887921690940857, -0.008599363267421722, -0.10130541026592255, -0.0793393924832344, -0.13197971880435944, -0.09715786576271057, 0.2084445357322693, -0.13171201944351196, 0.17178204655647278, -0.19234009087085724, 0.1119353175163269, 0.06628566980361938, 0.2666289806365967, 0.04442755505442619, 0.11576084047555923, -0.05289270356297493, 0.028994213789701462, -0.14100071787834167, 0.017679456621408463, -0.09170885384082794, 0.12898632884025574, -0.17733030021190643, 0.042112309485673904, -0.14371278882026672, -0.1613207459449768, 0.21238206326961517, -0.09597112983465195, -0.18438993394374847, 0.05484775826334953, 0.05892613157629967, -0.15443506836891174, 0.06648387759923935, -0.04765189066529274, -0.2428673505783081, -0.051640503108501434, 0.12755925953388214, 0.1452326774597168, -0.10017955303192139, -0.036034371703863144, -0.12933458387851715, -0.23109927773475647, -0.04630161449313164, 0.1131816878914833, -0.0618402361869812, -0.18755139410495758, 0.08705075085163116, -0.09967143088579178, 0.4163680970668793, 0.43393900990486145, 0.5100982785224915, 0.05892942100763321, 0.4427601993083954, 0.12082222104072571, 0.18174868822097778, -0.25336143374443054, 0.05643503740429878, -0.08863209187984467, -0.18992118537425995, -0.20686903595924377, 0.16718126833438873, -0.47979971766471863, 0.12530463933944702, 0.008954502642154694, 0.24203869700431824, -0.12131351977586746, 0.6792851686477661, -0.10440829396247864, 0.07169675827026367, -0.01660219579935074, 0.18906262516975403, 0.008613759651780128, -0.20180338621139526, -0.020585665479302406, -0.19207826256752014, -0.14375953376293182, -0.26540133357048035, 0.11254043877124786, -0.23207582533359528, -0.05474274605512619, 0.013215631246566772, -0.13972818851470947, 0.32997527718544006, -0.22906534373760223, 0.05761457979679108, -0.31128767132759094, 0.0941469818353653, 0.04260725528001785, 0.16161854565143585, 0.11136221885681152, 0.0979403629899025, 0.11272048950195312, -0.20595577359199524, 0.14971043169498444, -0.05531784147024155, 0.1211862564086914, 0.06675411015748978, -0.06607302278280258, -0.1084437295794487, -0.09524758160114288, -0.034950487315654755, -0.14057599008083344, -0.026216190308332443, 0.10131054371595383, 0.14764317870140076, 0.215971440076828, -0.11369693279266357, 0.01630392111837864, -0.17180640995502472, 0.18311722576618195, 0.05743899196386337, 0.09673214703798294, -0.16732658445835114, -0.22175832092761993, -0.1733250468969345, -0.0303326603025198, -0.13451045751571655, 0.2671787440776825, -0.0658421739935875, 0.020825762301683426, 0.11206302046775818, 0.1181800365447998, 0.16579404473304749, 0.10347079485654831, 0.20626740157604218, 0.08779625594615936, 0.044404201209545135, -0.017725009471178055, -0.22618402540683746, 0.03582315519452095, -0.04394012317061424, -0.07818123698234558, -0.06327052414417267, 0.15610139071941376, 0.09497929364442825, -0.122953400015831, 0.05717824772000313, 0.023513032123446465, 0.05885583534836769, -0.11853919178247452, 0.07156814634799957, -0.2862105369567871, -0.014995028264820576, 0.3552244305610657, 1.2664853556998423e-06, -0.026951489970088005, -0.2166983187198639, -0.2564581036567688, -0.2401927411556244, -0.06950981914997101, 0.2966204881668091, -0.11496848613023758, -0.323691725730896, -0.12439917027950287, -0.07836165279150009, 0.270590215921402, 0.2919880151748657, -0.1129336729645729, -0.28035837411880493, -0.1054999902844429, -0.07969530671834946, 0.4054545760154724, 0.26593902707099915, -0.18039044737815857, -0.2348087728023529, -0.0681389719247818, -0.12720400094985962, 0.24250319600105286, -0.301871120929718, 0.03856368735432625, 0.38468798995018005, -0.016196204349398613, -0.0009719952358864248, 0.11896561831235886, -0.3014816343784332, -0.03267933800816536, 0.08137192577123642, -0.1455547958612442, 0.04008238762617111, 0.3534475266933441, 0.210536390542984, 0.026486825197935104, -0.16301597654819489, 0.2132452428340912, 0.2381107211112976, 0.05645545944571495, -0.08769559115171432, -0.2758890688419342, -0.17525973916053772, 0.21627680957317352, 0.12185577303171158, 0.16239622235298157, -0.044786613434553146, -0.17764294147491455, -0.30785036087036133, 0.0380738265812397, -0.02247045375406742, -0.07629122585058212, -0.14105039834976196, 0.07244257628917694, 0.03113296627998352, 0.10693333297967911, 0.022568121552467346, -0.011985336430370808, -0.09938596189022064, -0.10907265543937683, 0.15546537935733795, -0.023346086964011192, -0.13119091093540192, 0.07695256918668747, 0.0650976225733757, -0.06408419460058212, -0.2484782636165619, 0.11678414046764374, -0.03511298820376396, -0.078200563788414, 0.04388938844203949, 0.1855439692735672, 0.20990289747714996, -0.00228676269762218, 0.0871184840798378, -0.11306169629096985, -0.022323859855532646, -0.06293366104364395, -0.15476500988006592, 0.04843436926603317, -0.07138936966657639, -0.014136203564703465, -0.03646739944815636, -0.1017678901553154, -0.09977144002914429, -0.14058387279510498, -0.0660601481795311, -0.18509364128112793, 0.17921924591064453, 0.08177605271339417, 0.1262015700340271, -0.032607268542051315, -0.037021879106760025, -0.09016720950603485, 0.16642388701438904, 0.3642255961894989, 0.510316014289856, 0.3331185281276703, 0.1306091547012329, 0.15024834871292114, -0.16186866164207458, -0.006656563840806484, 0.1222132220864296, 0.12389465421438217, -0.0866844579577446, -0.002264347393065691, -0.2193393111228943, -0.004806205164641142, 0.11154111474752426, 0.05621133744716644, 0.09673990309238434, -0.058519043028354645, 0.1986328363418579, 0.0620415173470974, 0.19950096309185028, 0.04931701719760895, 0.006162033416330814, 0.06571060419082642, -0.19107134640216827, -0.2431619018316269, -0.2567117512226105, 0.19033558666706085, 0.10311616957187653, -0.06879845261573792, -0.05305036902427673, 0.02554508112370968, -0.02853529155254364, 0.016923362389206886, -0.171091690659523, 0.009363430552184582, -0.09306170791387558, 0.04010532796382904, -0.036271560937166214, -0.0060487305745482445, 0.3530898094177246, 0.08985000103712082, -0.09071198105812073, -0.11699772626161575, -0.10956517606973648, -0.027488602325320244, -0.1313835084438324, 0.15063460171222687, -0.38614600896835327, -0.24076785147190094, -0.496176540851593, -0.16358697414398193, -0.10654295235872269, -0.21623949706554413, 0.050188157707452774, 0.14498476684093475, -0.09746192395687103, -0.0396428219974041, -0.021881625056266785, 0.19931116700172424, 0.10934306681156158, 0.21245743334293365, 0.08673911541700363, -0.06293917447328568, -0.10674326121807098, 0.18903748691082, 0.012137865647673607, -0.3595353960990906, -0.15897880494594574, 0.06632350385189056, -0.1859988123178482, -0.036766551434993744, 0.0561058409512043, -0.0004719476564787328, 0.009240122511982918, 0.16561603546142578, -0.13158904016017914, 0.024778414517641068, 0.06485283374786377, -0.14082008600234985, 0.10414508730173111, 0.008548327721655369, -0.055268578231334686, 0.03397340700030327, 0.09473098069429398, -0.02821621671319008, 0.014074987731873989, 0.23816290497779846, 0.026595721021294594, -0.1411542445421219, -0.20023086667060852, -0.052968524396419525, -0.09454251080751419, -0.3218499720096588, 0.04781342297792435, 0.25508400797843933, 0.029033858329057693, 0.042560115456581116, -0.13279426097869873, -0.0952422097325325, -0.0036082505248486996, 0.055155735462903976, 0.1905381828546524, 0.14030903577804565, -0.22201359272003174, -0.2835383713245392, -0.14424483478069305, 0.23254534602165222, 0.3332303464412689, 0.18925143778324127, -0.20720064640045166, -0.08226045221090317, -0.176418274641037, 0.09105075895786285, -0.23246538639068604, 0.06251908093690872, -0.40400373935699463, -0.30903464555740356, -0.024313820526003838, 0.11101166158914566, -0.1346188485622406, 0.11374212801456451, 0.3057224452495575, -0.09349579364061356, 0.06926999241113663, 0.1828513741493225, -0.08660560101270676, -0.05003374442458153, 0.0595695860683918, -0.1695646047592163, -0.08286912739276886, 0.030919572338461876, 0.13275711238384247, 0.11711376160383224, -0.05401741713285446, 0.025111839175224304, 0.17484813928604126, 0.0279548279941082, 0.1384098082780838, -0.025416497141122818, -0.06787768006324768, 0.16835957765579224, 0.13015542924404144, -0.008378224447369576, -0.2034275382757187, -0.24109424650669098, -0.30306726694107056, -0.10884685814380646, -0.35550829768180847, -0.3498813509941101, -0.07504121959209442, -0.08254437893629074, 0.14020955562591553, 0.07805441319942474, -0.02982870116829872, 0.03150249645113945, -0.038705553859472275, 0.004946636036038399, 0.1087147518992424, -0.04360056668519974, 0.09967292100191116, 0.1220916286110878, -0.07850545644760132, -0.15015973150730133, -0.29633334279060364, 0.18562841415405273, 0.1590886265039444, 0.07611393183469772, 0.11018849909305573, -0.12135574966669083, 0.0540345273911953, -0.007319427095353603, -0.24462532997131348, -0.20788352191448212, -0.0032804980874061584, -0.027537230402231216, -0.08117344975471497, 0.0965435579419136, -0.1067044660449028, -0.0332479402422905, 0.07645145803689957, 0.12489107251167297, -0.051753606647253036, 0.08417818695306778, -0.025205165147781372, 0.24470743536949158, -0.04746627435088158, 0.10068584978580475, -0.05633052438497543, 0.13076016306877136, -0.013667013496160507, -0.005067780148237944, -0.22289171814918518, -0.25084933638572693, -0.15917371213436127, -0.17322833836078644, -0.10333643853664398, -0.02739805169403553, -0.08935614675283432, -0.041104186326265335, 0.030268395319581032, 0.017800990492105484, 0.15998025238513947, -0.08429756760597229, 0.137135848402977, 0.012343441136181355, 0.13902883231639862, 0.007722363341599703, -0.006436504889279604, -0.017321787774562836, 0.031180771067738533, -0.2420143038034439, 0.02673305943608284, 0.021287014707922935, 0.11786405742168427, -0.14071354269981384, 0.11737781018018723, 0.21131235361099243, -0.1539555788040161, -0.0667528286576271, -0.0765889585018158, -0.18585442006587982, 0.09188297390937805, 0.1618826985359192, -0.2140793353319168, -0.02925455942749977, 0.023279668763279915, -0.22065244615077972, -0.031803082674741745, -0.12414661049842834, 0.15033267438411713, 0.015951037406921387, -0.1950731873512268, -0.03757626935839653, -0.23308297991752625, 0.38627803325653076, -0.04122712463140488, -0.11092296987771988, 0.35948508977890015, -0.1867750585079193, 0.06510276347398758, 0.10586557537317276, -0.05753621459007263, -0.09272312372922897, 0.2754717171192169, -0.24373367428779602, 0.1915266066789627, -0.301431804895401, 0.17172272503376007, -0.07670325040817261, 0.2651291787624359, -0.07560757547616959, -0.04544328898191452, -0.29271748661994934, 0.20152458548545837, 0.01139905396848917, 0.08702920377254486, -0.2596701681613922, -0.36067622900009155, 0.015612682327628136, 0.5440821051597595, -0.06586825102567673, 0.3717871308326721, -0.044794660061597824, 0.2166709303855896, 0.22855183482170105, -0.3726820945739746, -0.007699389476329088, 0.04890141636133194, -0.055429477244615555, -0.06657418608665466, 0.21187952160835266, -0.22492615878582, -0.16218411922454834, 0.2591651976108551, -0.3569869101047516, 0.1466611623764038, -0.30405598878860474, 0.27297574281692505, -0.08556926250457764, 0.01146925613284111, -0.18268945813179016, 0.0712820440530777, 0.03907207027077675, 0.02115728333592415, 0.043859291821718216, 0.0805889368057251, -0.025288050994277, 0.2809826135635376, 0.3491494357585907, 0.3517867624759674, 0.1344340592622757, 0.13680008053779602, 0.16624271869659424, -0.05367410555481911, -0.1283596009016037, 0.10294952988624573, -0.03816412761807442, 0.019507085904479027, -0.3637702465057373, 0.0018613877473399043, -0.19350244104862213, -0.0670139342546463, -0.1286410391330719, -0.07256925106048584, -0.13223734498023987, 0.08284813165664673, 0.2767639458179474, 0.40152648091316223, 0.006995435804128647, 0.10519081354141235, -0.20038744807243347, -0.09899923205375671, -0.09119065850973129, -0.2515425384044647, -0.05343879386782646, 0.026216596364974976, 0.07512715458869934, 0.039042048156261444, 0.15221941471099854, -0.15657618641853333, 0.08771767467260361, -0.04501305893063545, -0.032790657132864, 0.006047098897397518, 0.132441908121109, 0.19823811948299408, 0.014514967799186707, 0.06262081861495972, -0.08281853049993515, 0.08978020399808884, -0.12895143032073975, -0.00031997315818443894, 0.07364842295646667, 0.09734129905700684, -0.03119506500661373, -0.14647935330867767, 0.22115813195705414, 0.008745772764086723, 0.15740519762039185, 0.05448490008711815, 0.055786218494176865, -0.13025309145450592, -0.4422786235809326, 0.01832812838256359, 0.07441584765911102, -0.45409297943115234, 0.11549368500709534, -0.8109560012817383, -0.32731401920318604, -0.6365594863891602, 0.9476340413093567, -0.962479829788208, -0.4550248682498932, -1.217050552368164, 0.32262176275253296, -0.5525305271148682, 0.7371700406074524, -0.7155250310897827, -0.37452229857444763, 0.0011871351161971688, 0.02766316570341587, 0.3646310567855835, 0.14640051126480103, 0.11411558091640472, 0.07631520926952362, -0.14457638561725616, 0.0841570571064949, 0.10509836673736572, -0.014476942829787731, -0.006164612714201212, 0.15108506381511688, 0.10272141546010971, 0.22675934433937073, 0.14761580526828766, 0.3703712522983551, -0.16830487549304962, 0.05977906659245491, -0.24858756363391876, -0.5011253952980042, 0.4095926284790039, -0.18766692280769348, -0.16427826881408691, 0.002646909561008215, -0.20540526509284973, 0.10657449811697006, 0.2889624536037445, -0.20969480276107788, 0.10138314962387085, 0.4534265995025635, 0.412627249956131, -0.0696168765425682, -0.2583114206790924, -0.0626569539308548, 0.017872601747512817, 0.10855138301849365, 0.15076933801174164, -0.10444008558988571, 0.034137409180402756, -0.13293322920799255, 0.02278980240225792, -0.1458023339509964, -0.03572796285152435, -0.09795047342777252, 0.09756040573120117, 0.23114348948001862, -0.025278910994529724, 0.37091368436813354, -0.017025237902998924, -0.16972625255584717, -0.17847265303134918, -0.19129818677902222, 0.07523389160633087, -0.04425258934497833, 0.09030796587467194, 0.0736619308590889, -0.08258722722530365, 0.11388493329286575, 0.27496346831321716, 0.08606314659118652, 0.09704601764678955, 0.07674244791269302, 0.15506243705749512, 0.3347562551498413, -0.05723867937922478, -0.19651027023792267, -0.261796772480011, 0.20356307923793793, 0.17002244293689728, -0.16863475739955902, 0.5068283677101135, -0.1136530339717865, -0.08217015862464905, 0.09559248387813568, 0.4721273183822632, -0.2466754913330078, -0.2019769251346588, -0.13369712233543396, -0.28281113505363464, -0.27695801854133606, -0.2785548269748688, 0.14331771433353424, -0.2741476595401764, 0.0625736191868782, -0.09791047126054764, -0.3142322599887848, 0.1354249268770218, -0.43569910526275635, -0.13864749670028687, 0.15283288061618805, 0.011108762584626675, -0.5807308554649353, -0.30405154824256897, 0.06502536684274673, -0.10660047084093094, 0.24735745787620544, 0.1984577476978302, 0.28732994198799133, -0.13144107162952423, -0.03824954479932785, 0.3182719051837921, -0.09736316651105881, -0.11848219484090805, 0.07734134793281555, 0.17623576521873474, -0.0922589898109436, 0.19480909407138824, -0.05589309334754944, 0.05018823221325874, -0.18281018733978271, 0.3728390336036682, -0.01011191587895155, 0.13559184968471527, -0.13648837804794312, 0.10946615040302277, 0.008316004648804665, 0.0532480888068676, 0.03821103647351265, -0.3416999280452728, 0.11911790072917938, 0.41940388083457947, -0.4359983503818512, -0.16472278535366058, 0.04751890152692795, 0.23647433519363403, 0.5670807361602783, 0.2561293840408325, -0.11113270372152328, 0.3259598910808563, -0.23749098181724548, 0.2113526314496994, -0.2162834256887436, -0.17329993844032288, 0.2885592579841614, -0.29702723026275635, 0.2272711545228958, 0.08860855549573898, 0.15856847167015076, -0.34580332040786743, 0.23081384599208832, 0.2531476318836212, 0.1831401139497757, 0.35080957412719727, -0.14844290912151337, 0.008013223297894001, 0.09027186781167984, -0.04805576801300049, 0.16554056107997894, -0.07849663496017456, -0.04285150021314621, 0.1170031875371933, -0.15355809032917023, -0.08720748871564865, 0.33199095726013184, 0.1629645824432373, -0.16890005767345428, -0.16618311405181885, -0.11071627587080002, -0.2001686841249466, 0.10201545059680939, -0.09154606610536575, -0.17936451733112335, -0.02099449373781681, -0.027062077075242996, 0.04956064000725746, -0.13629697263240814, 0.08176729083061218, 0.09473773837089539, 0.2210252583026886, -0.14517506957054138, 0.22593636810779572, 0.01412535086274147, 0.10848843306303024, 0.12912124395370483, 0.008083531633019447, 0.30375295877456665, 0.34029722213745117, -0.3271273672580719, -0.1644987016916275, -0.2646712362766266, 0.047469716519117355, -0.06264737993478775, 0.3374583423137665, 0.0325065515935421, 0.33997562527656555, 0.038780614733695984, 0.09656733274459839, 0.23831360042095184, -0.04900463670492172, -0.15826155245304108, -0.0683765709400177, -0.1408042460680008, -0.3065219223499298, -0.09052642434835434, -0.1256454885005951, 0.13847236335277557, -0.12769652903079987, -0.20416565239429474, 0.012479683384299278, -0.18609696626663208, -0.17748138308525085, -0.1339290887117386, -0.20785002410411835, -0.008762353099882603, -0.20755647122859955, -0.153141587972641, -0.23908856511116028, 0.07095544040203094, 0.18881146609783173, -0.32022151350975037, 0.6191703677177429, -0.2532597780227661, 0.11626370251178741, 0.28929781913757324, -0.14300255477428436, 0.4590238034725189, 0.41077059507369995, -0.09265381097793579, -0.133701354265213, 0.5149286389350891, 0.42473381757736206, 0.002863598056137562, 0.13179953396320343, -0.042089927941560745, 0.15666499733924866, -0.008879806846380234, -0.15663112699985504, -0.14334237575531006, -0.11959806084632874, 0.08484181761741638, -0.10277881473302841, -0.10830751061439514, 0.06971685588359833, -0.0991927906870842, 0.0031191392336040735, -0.019298775121569633, 0.12703846395015717, 0.21949060261249542, 0.17090024054050446, 0.5028506517410278, -0.2676860988140106, -0.3763607442378998, -0.43475696444511414, -0.41750141978263855, 0.3974355161190033, -0.4127041697502136, 0.03745253384113312, 0.14608706533908844, -0.09164678305387497, -0.011158484034240246, -0.12484829872846603, 0.01239689625799656, 0.28200143575668335, 0.2950286269187927, -0.1056419089436531, 0.03976928070187569, -0.1239599883556366, 0.057547904551029205, -0.06559699028730392, -0.04884439334273338, -0.13773246109485626, -0.022929614409804344, 0.16216722130775452, 0.0657777413725853, -0.06374586373567581, 0.12461825460195541, -0.06265731155872345, 0.06495831161737442, -0.13921673595905304, -0.10772029310464859, -0.05457364395260811, 0.18816697597503662, -0.0641281008720398, -0.2081066071987152, -0.12279592454433441, -0.08805666863918304, 0.06861594319343567, -0.12894393503665924, -0.06483196467161179, 0.07931725680828094, -0.009660592302680016, 0.0036419823300093412, -0.20242857933044434, 0.17543047666549683, 0.0194198340177536, -0.21289384365081787, 0.19724814593791962, 0.03375199809670448, -0.2160591334104538, -0.20019516348838806, -0.020858487114310265, 0.18376845121383667, 0.15298807621002197, 0.09664542227983475, -0.16230036318302155, -0.2135746330022812, 0.12109480798244476, 0.16974903643131256, 0.17209236323833466, 0.005192595534026623, -0.1761149913072586, -0.2602599561214447, 0.0003377311513759196, 0.09951738268136978, -0.18941663205623627, 0.06867780536413193, 0.19649909436702728, 0.09031788259744644, -0.2620618939399719, 0.046223532408475876, -0.21327021718025208, 0.1054416373372078, 0.12165635824203491, -0.04756701737642288, 0.07183089852333069, 0.034623585641384125, 0.26773372292518616, 0.1607384979724884, 0.05791954696178436, 0.043380338698625565, -0.047313425689935684, 0.14344866573810577, -0.033638011664152145, 0.1286068558692932, -0.10471561551094055, 0.2664638161659241, 0.18456916511058807, 0.137518510222435, -0.18136639893054962, -0.04118357226252556, -0.06078595295548439, 0.045652881264686584, 0.051559776067733765, 0.12040795385837555, -0.12452086806297302, 0.05030793696641922, 0.05645264685153961, 0.1568419188261032, -0.11553119868040085, -0.0017258625011891127, -0.15812765061855316, -0.24815446138381958, -0.06479146331548691, 0.14348271489143372, -0.0710168331861496, -0.2696591913700104, 0.012349503114819527, 0.14064136147499084, 0.20690836012363434, 0.27945923805236816, 0.07731859385967255, -0.09914134442806244, -0.0456073135137558, -0.10913163423538208, -0.27311965823173523, 0.07379502803087234, 0.2229662984609604, -0.012004741467535496, 0.07538241147994995, -0.03510713204741478, -0.277519553899765, 0.09724882990121841, 0.1420564502477646, 0.06126527115702629, -0.0049865953624248505, 0.07110805064439774, -0.0016517628682777286, 0.04868302494287491, -0.06370877474546432, -0.057037707418203354, 0.10233557969331741, -0.0819365605711937, -0.126448854804039, 0.08763246983289719, 0.0373423807322979, 0.18689599633216858, 0.01769687607884407, 0.06554005295038223, -0.024858159944415092, -0.009187218733131886, -0.060045111924409866, -0.021401414647698402, 0.10999559611082077, 0.04260566085577011, -0.16903677582740784, -0.007966349832713604, 0.07712529599666595, 0.10412290692329407, 0.040791526436805725, 0.024450425058603287, -0.00847180001437664, 0.026394931599497795, -0.015141863375902176, 0.11457791179418564, 0.03251088783144951, 0.13705669343471527, -0.18718719482421875, -0.24712243676185608, 0.041966188699007034, 0.05678967759013176, -0.0822862833738327, -0.03611940145492554, 0.13935554027557373, 0.2739853262901306, 0.11154620349407196, 0.3413381576538086, -0.06400410085916519, -0.0373157374560833, 0.20679451525211334, 0.039202842861413956, -0.15164965391159058, -0.016849657520651817, 0.20070862770080566, -0.09218905866146088, 0.11837755888700485, -0.29474905133247375, -0.12395582348108292, 0.2990019619464874, 0.1136648878455162, 0.061496302485466, -0.03475039452314377, 0.17833518981933594, 0.11682005226612091, -0.25843343138694763, 0.21871858835220337, 0.060901906341314316, -0.08265488594770432, -0.11327571421861649, 0.07282997667789459, -0.09124570339918137, -0.15337148308753967, -0.019583454355597496, 0.2648887038230896, 0.29725000262260437, -0.017365701496601105, -0.2514572739601135, -0.0009900173172354698, 0.037717804312705994, 0.40151315927505493, 0.16195394098758698, 0.019427549093961716, -0.05626525729894638, -0.2238391786813736, -0.021146535873413086, -0.020174860954284668, 0.12276836484670639, 0.009175678715109825, -0.19349028170108795, 0.3189806640148163, -0.022836795076727867, -0.1701064109802246, -0.12558141350746155, -0.017726780846714973, -0.01744544506072998, 0.26210930943489075, -0.08863508701324463, -0.06358141452074051, 0.11781824380159378, -0.14049015939235687, -0.07586382329463959, -0.07895787805318832, 0.19892151653766632, 0.4109148681163788, 0.2841271758079529, -0.10109727829694748, -0.1819683015346527, -0.2459401935338974, -0.0818764716386795, 0.2574954926967621, -0.1330081820487976, 0.05395118147134781, 0.19045160710811615, 0.06901413202285767, 0.2569279074668884, -0.0061585488729178905, 0.20415052771568298, 0.1542966216802597, -0.23513078689575195, 0.1948222517967224, 0.12152382731437683, -0.27795934677124023, -0.34965255856513977, -0.12142179906368256, 0.30605176091194153, -0.008287533186376095, -0.3044293224811554, -0.06827965378761292, -0.22321663796901703, -0.19134078919887543, 0.2982424199581146, 0.2766644060611725, 0.12632203102111816, -0.1811193823814392, -0.22525839507579803, -0.03301487863063812, 0.36819177865982056, -0.21525968611240387, 0.04357383772730827, 0.07584554702043533, -0.03495527058839798, -0.16023091971874237, -0.03226836770772934, -0.2624165117740631, -0.10847580432891846, 0.39699026942253113, -0.18882574141025543, -0.12168938666582108, 0.4442531168460846, 0.3204454481601715, -0.45378538966178894, 0.1244267150759697, 0.09103124588727951, -0.056203220039606094, -0.19627246260643005, 0.03842708095908165, 0.05435056611895561, 0.05415944382548332, -0.18526078760623932, -0.1106838658452034, -0.07674109190702438, 0.04083188623189926, -0.2105669379234314, 0.04903418570756912, 0.08267462253570557, -0.23572252690792084, -0.030394183471798897, 0.04681836813688278, -0.10858136415481567, -0.057219237089157104, -0.2507450580596924, 0.1288306564092636, 0.1501021832227707, 0.07877662777900696, 0.0637320950627327, 0.033915143460035324, -0.07111706584692001, 0.07514140754938126, -0.035793498158454895, -0.004958558827638626, -0.10000161826610565, -0.10648079216480255, -0.15152505040168762, 0.0008415555348619819, 0.08059835433959961, -0.1462843120098114, 0.010513126850128174, 0.148152694106102, 0.39459946751594543, 0.17370547354221344, -0.16467158496379852, -0.1768711656332016, 0.09327273070812225, 0.20087917149066925, -0.1443176418542862, -0.0009309164015576243, -0.053409233689308167, 0.4731866121292114, 0.19354774057865143, 0.003159542568027973, -0.09048418700695038, -0.05622316896915436, -0.04068297520279884, 0.21168182790279388, 0.08787424117326736, 0.04403127357363701, 0.34683993458747864, 0.08613289892673492, -0.11314710229635239, 0.017366381362080574, 0.1474177986383438, 0.3136078715324402, 0.02007695473730564, -0.05218393728137016, 0.3538266122341156, -0.17310550808906555, 0.06603211909532547, 0.18745467066764832, 0.07391069829463959, 0.060308948159217834, -0.1655394285917282, -0.06035850942134857, -0.01548035629093647, -0.30313438177108765, -0.01961611583828926, 0.05542730167508125, -0.015412330627441406, -0.08146829158067703, 0.0973149985074997, 0.11069375276565552, 0.049936238676309586, 0.11872759461402893, -0.18843786418437958, -0.006617127452045679, -0.12491926550865173, -0.1997668743133545, 0.20985762774944305, -0.01949850656092167, -0.32893773913383484, 0.06970683485269547, -0.05086454004049301, -0.19553107023239136, 0.02227669581770897, 0.1562921404838562, 0.05332357808947563, 0.05494069680571556, -0.12351702153682709, -0.027309242635965347, -0.12050329148769379, -0.044289033859968185, -0.11871609091758728, 0.18146590888500214, 0.14518868923187256, 0.10161156952381134, -0.07281705737113953, 0.11926176398992538, -0.11182047426700592, -0.02033262327313423, 0.08274897187948227, 0.03443580120801926, -0.13552093505859375, 0.16843150556087494, -0.0782623216509819, -0.02354617975652218, 0.10041783004999161, -0.03323521837592125, -0.08003224432468414, -0.09504595398902893, 0.007871526293456554, -0.10763616859912872, -0.16144101321697235, -0.18270182609558105, 0.010054360143840313, 0.04209050536155701, -0.0714312195777893, -0.1193666160106659, 0.21555934846401215, -0.10247401893138885, 0.05314286798238754, -0.15083134174346924, -0.05098062381148338, -0.04251457005739212, -0.1034570038318634, -0.16054752469062805, 0.15550370514392853, 0.22328785061836243, 0.0882953554391861, -0.043755438178777695, -0.11368950456380844, 0.059450335800647736, 0.058232519775629044, -0.0638393759727478, -0.0927736833691597, -0.04309673607349396, -0.04869559407234192, 0.0357595831155777, -0.09162941575050354, -0.14539919793605804, -0.0013133813627064228, 0.26867082715034485, 0.19563573598861694, 0.18745042383670807, 0.11469918489456177, 0.19071868062019348, -0.08268483728170395, -0.09324104338884354, 0.1567930430173874, 0.29052916169166565, -0.06754456460475922, 0.012142010033130646, 0.2546887993812561, 0.005718945991247892, -0.06738293915987015, 0.07299737632274628, 0.15928883850574493, 0.062178269028663635, -0.0368645116686821, -0.07254238426685333, -0.07848606258630753, -0.047520507127046585, 0.04483940824866295, -0.07715964317321777, -0.09787555783987045, 0.02354838326573372, 0.016473224386572838, 0.19531983137130737, 0.17775358259677887, 0.11171003431081772, -0.13936930894851685, 0.01900050975382328, 0.07025238126516342, -0.1990893930196762, -0.3681976795196533, -0.08856917172670364, -0.11075878888368607, 0.08127715438604355, 0.029745539650321007, 0.021100541576743126, 0.17472021281719208, 0.17546473443508148, -0.09342218935489655, -0.25975754857063293, 0.20037324726581573, 0.08159701526165009, -0.22804825007915497, -0.3895213007926941, -0.16251644492149353, 0.0479748398065567, 0.4938630759716034, -0.05258810892701149, -0.0235238466411829, 0.18078233301639557, -0.03662966936826706, 0.33240997791290283, 0.3632042109966278, -0.25150513648986816, 0.5513412356376648, 0.1010875329375267, -0.06251741945743561, 0.14419591426849365, -0.19388408958911896, 0.07105042785406113, -0.2696436643600464, 0.2073197215795517, -0.3283401131629944, -0.6578947305679321, -0.252727746963501, -0.11877179145812988, -0.24776002764701843, 0.020260196179151535, 0.027123332023620605, 0.4005202651023865, -0.37743860483169556, 0.06919457763433456, 0.08038228005170822, 0.22726349532604218, -0.11991197615861893, -0.23495452105998993, 0.4188401699066162, -0.2016269564628601, 0.21107608079910278, -0.08848612755537033, -0.11399458348751068, -0.26796016097068787, 0.08548520505428314, -0.035132285207509995, -0.19842888414859772, 0.3362268805503845, -0.1740451455116272, -0.16019123792648315, 1.1216561794281006, -0.7668431401252747, -0.14592404663562775, -0.1290479302406311, 0.10752531886100769, 0.10296938568353653, 0.2212839126586914, 0.07015794515609741, 0.1175447404384613, 0.13948531448841095, -0.034634336829185486, 0.0009021664154715836, 0.17432016134262085, -0.17134873569011688, 0.11599945276975632, -0.08040434122085571, -0.07807529717683792, -0.055354587733745575, -0.04087131842970848, 0.09372850507497787, 0.1509859561920166, 0.20863617956638336, -0.24201150238513947, -0.023890294134616852, 0.08548542857170105, 0.24446755647659302, 0.08849172294139862, 0.15770074725151062, -0.07831428200006485, -0.09261162579059601, -0.058322109282016754, 0.13194528222084045, 0.14804919064044952, 0.05414212495088577, -0.09632023423910141, 0.1758245974779129, -0.0238717682659626, -0.032240379601716995, 0.10423197597265244, 0.0985926166176796, -0.2052547037601471, 0.1916816532611847, -0.09759372472763062, -0.18952500820159912, -0.015337157994508743, 0.16780318319797516, -0.27919551730155945, -0.3586694300174713, 0.3771600127220154, -0.14035233855247498, 0.17938238382339478, -0.03688660264015198, 0.0440470352768898, -0.14050160348415375, -0.06976093351840973, 0.10569645464420319, -0.08787228167057037, -0.04052509739995003, 0.18410977721214294, -0.21018509566783905, -0.030230171978473663, -0.2052861601114273, 0.16712062060832977, -0.14532038569450378, -0.22618547081947327, 0.044106919318437576, -0.14054103195667267, -0.13507559895515442, -0.17747963964939117, 0.1059606596827507, 0.19739359617233276, 0.28578898310661316, 0.05162859335541725, 0.00809219479560852, -0.2870554029941559, 0.07783132046461105, -0.007392087951302528, -0.013643193058669567, -0.1313510686159134, -0.26006728410720825, -0.21757298707962036, -0.0863838866353035, 0.06119769066572189, -0.05305317044258118, -0.06858589500188828, 0.16181668639183044, 0.032064199447631836, -0.15300247073173523, -0.1317736804485321, -0.2525261342525482, -0.05630714073777199, 0.29002711176872253, -0.20734024047851562, -0.11613454669713974, 0.2472284734249115, 0.1735842078924179, -0.049050938338041306, -0.1739785224199295, -0.2898963689804077, 0.28183841705322266, 0.29801449179649353, 0.31109464168548584, -0.3602929413318634, -0.17650507390499115, 0.0693695917725563, -0.33335167169570923, 0.01730443723499775, 0.28252875804901123, -0.4761013686656952, -0.1869761198759079, 0.23418793082237244, 0.06134044751524925, -0.08573875576257706, -0.24603144824504852, 0.15849336981773376, -0.10515928268432617, 0.09126438945531845, -0.09644586592912674, -0.04843497276306152, -0.11052151769399643, 0.010779025964438915, 0.2628120183944702, 0.1665191650390625, -0.2739344537258148, 0.13066020607948303, -0.17617487907409668, 0.43029552698135376, 0.04433726519346237, 0.16886165738105774, -0.044109392911195755, -0.0404583215713501, 0.2608596086502075, -0.20059248805046082, 0.19122835993766785, -0.5184103846549988, -0.16481275856494904, -0.2517057955265045, 0.18707355856895447, -0.1123955175280571, 0.031056731939315796, 0.15234637260437012, -0.15859118103981018, -0.13517579436302185, 0.7134360671043396, -1.0717601776123047, 0.9392651319503784, -0.11479392647743225, -0.04016362875699997, 0.08049968630075455, 0.2864522337913513, -0.05609093979001045, -0.1262759268283844, 0.225834459066391, 0.07269202172756195, -0.20345449447631836, -0.02625430002808571, 0.13489612936973572, 0.1845356673002243, -0.11851051449775696, 0.3270317316055298, 0.17594069242477417, -0.17519821226596832, -0.026660507544875145, 0.04213913902640343, 0.13762027025222778, -0.038011081516742706, -0.14234283566474915, -0.19029535353183746, -0.17862503230571747, -0.08180693536996841, 0.12618392705917358, -0.005110631231218576, -0.11488083004951477, -0.04893020540475845, 0.028038831427693367, 0.26451849937438965, 0.15363819897174835, 0.02138301357626915, -0.25028717517852783, 0.07163749635219574, 0.04991060122847557, -0.08586569130420685, -0.005741561762988567, 0.18447205424308777, 0.14366091787815094, 0.19053542613983154, 0.08505693078041077, -0.2183866798877716, 0.0787595584988594, -0.030530229210853577, -0.11863499879837036, -0.2868342101573944, 0.03685944154858589, 0.018795954063534737, -0.030782600864768028, 0.08967523276805878, -0.018360376358032227, -0.12169963866472244, -0.06775650382041931, -0.01501928549259901, -0.1428687572479248, -0.11425799876451492, 0.06779269129037857, -0.1605709195137024, -0.2290443778038025, -0.0012125325156375766, -0.09029300510883331, -0.1883118599653244, -0.18149803578853607, 0.08008288592100143, -0.08954598009586334, -0.28134188055992126, -0.10432406514883041, -0.016577431932091713, -0.030883194878697395, 0.09300531446933746, 0.06334742158651352, -0.10921232402324677, 0.039855390787124634, -0.0670275017619133, 0.14170688390731812, 0.09178343415260315, -0.022729327902197838, -0.09126590937376022, -0.19800575077533722, -0.048584602773189545, 0.09186666458845139, -0.041356347501277924, 0.14699572324752808, 0.10640387237071991, -0.10661432147026062, -0.25001728534698486, -0.08301645517349243, -0.09641749411821365, -0.11469496041536331, 0.13600780069828033, -0.09318360686302185, -0.1635998785495758, 0.014210445806384087, 0.026720844209194183, 0.05500239506363869, 0.03172723203897476, 0.042535729706287384, 0.2337946891784668, -0.2949286699295044, -0.14202319085597992, -0.03973138704895973, 0.3767256438732147, -0.12633460760116577, 0.00877769198268652, 0.33032265305519104, -0.08172208070755005, -0.2116507738828659, 1.3377923965454102, 0.33691930770874023, -0.002206849865615368, 0.9974771738052368, 0.1882074624300003, 0.07112036645412445, -0.19936546683311462, 0.022395703941583633, -0.07267186790704727, 0.27706268429756165, -0.0005485030706040561, 0.23771211504936218, -0.6335338354110718, -0.1293705403804779, -0.13382159173488617, -0.016938328742980957, -0.005163588561117649, 0.0742330402135849, -0.05480363219976425, -0.1125532016158104, -0.2307579219341278, 0.28975585103034973, -0.24369244277477264, -0.07312678545713425, 0.19509583711624146, 0.0038264307659119368, 0.12919150292873383, -0.21787381172180176, -0.1813613921403885, -0.00987657904624939, -0.005618161987513304, 0.06273753196001053, -0.12417297065258026, 0.15323218703269958, 0.11516478657722473, -0.7049480676651001, 0.38216307759284973, 0.05005425214767456, -0.007834628224372864, 0.03556792065501213, 0.002460481133311987, 0.0027704539243131876, -0.06838379800319672, -0.00898433942347765, -0.09392358362674713, -0.046004768460989, -0.003617860609665513, 0.04867888242006302, -0.012789580971002579, -0.017313431948423386, 0.051463689655065536, 0.04902070388197899, 0.04386192187666893, -0.2672646641731262, -0.5525797605514526, 0.7701675295829773, 0.4539913237094879, -0.6149641871452332, 0.16551290452480316, -0.3714795410633087, -0.09849853068590164, 0.4215034246444702, -0.598343551158905, 1.0764987468719482, 0.6877564191818237, 0.11386149376630783, -0.4421716332435608, 0.1836274117231369, -0.8539291024208069, 0.37426042556762695, -0.051176074892282486, 0.060028914362192154, -0.11569175124168396, 0.05122179538011551, 0.32235947251319885, 0.17778578400611877, -0.0033837619703263044, 0.11438700556755066, 0.4256829619407654, 0.4899803400039673, 0.3790000379085541, -0.11600220203399658, -0.2151954621076584, -0.18091639876365662, -0.2439729869365692, 0.30687999725341797, -0.0275125689804554, -0.04163424298167229, -0.28910160064697266, 0.7277241349220276, 0.20388637483119965, -0.01512928493320942, -0.22130633890628815, -0.19712746143341064, 0.03613637015223503, -0.1291845589876175, 0.10253416746854782, -0.08890653401613235, 0.03704924136400223, 0.12420909851789474, 0.01554575189948082, 0.21756121516227722, -0.3774586021900177, 0.13466398417949677, -0.47890356183052063, 0.652398407459259, 0.28430718183517456, -0.10236933082342148, -0.08170118927955627, -0.15345211327075958, 0.10467398166656494, -0.3387089967727661, 0.5067924857139587, -0.03244457393884659, -0.6959071159362793, -0.13476154208183289, -0.00993930920958519, 0.33931273221969604, -0.14764782786369324, 0.1857256144285202, -0.07430359721183777, 0.44975945353507996, -0.05172028765082359, -0.28054070472717285, 0.2566336989402771, 0.26680031418800354, -0.09999921917915344, 0.07246539741754532, 0.5104721188545227, 0.07517950981855392, -0.17673391103744507, 0.16841839253902435, -0.07395376265048981, 0.3277027904987335, -0.4194805324077606, 0.3166254162788391, -0.4385163486003876, 0.7283511161804199, 0.30582284927368164, -0.05044161155819893, 0.04864303022623062, 0.05234936997294426, -0.12919273972511292, -0.3695608973503113, 0.6163507699966431, -0.26438969373703003, -0.5276310443878174, 0.15231965482234955, 0.5100518465042114, 0.06460809707641602, -0.31021252274513245, 0.04001982510089874, -0.06360553205013275, 0.05622207000851631, 0.11252565681934357, 0.10684461891651154, 0.3863143026828766, -0.41133174300193787, -0.3286443054676056, -0.25401026010513306, 0.035218626260757446, 0.054295964539051056, 0.07940894365310669, 0.502981960773468, 0.09598740935325623, 0.09460645169019699, 0.12745791673660278, -0.36385902762413025, -0.23708248138427734, 0.5435907244682312, -0.08498984575271606, 0.348886102437973, -0.13905592262744904, -0.23239894211292267, 0.3154430687427521, 0.0702604427933693, -0.10360365360975266, -0.129965141415596, 0.09784595668315887, 0.010400253348052502, 0.10038294643163681, 0.4100373685359955, -0.14160004258155823, 0.019119758158922195, -0.18114101886749268, 0.6490587592124939, -0.13183170557022095, -0.24626582860946655, 0.008182026445865631, 0.048440463840961456, 0.6152123808860779, -0.04501624032855034, 0.5196865200996399, -0.3579573333263397, -0.1389775425195694, 0.1685713678598404, -0.4442394971847534, -0.13639721274375916, 0.22612495720386505, -0.04249313473701477, 0.1160576194524765, 0.5111261010169983, -0.16752052307128906, -0.20295868813991547, -0.04708314314484596, -0.06110263988375664, 0.0698901042342186, -0.06729429960250854, 0.2434525191783905, -0.29225149750709534, 0.030005890876054764, 0.027835605666041374, -0.14143997430801392, 0.25185343623161316, -0.33538466691970825, -0.14807182550430298, -0.12368665635585785, 0.3107721209526062, 0.14836332201957703, -0.15962322056293488, -0.18827411532402039, -0.14496108889579773, 0.22402794659137726, -0.014000172726809978, 0.08141272515058517, -0.30527183413505554, -0.29732978343963623, 0.39365917444229126, 0.15855583548545837, 0.42563101649284363, 0.006876005791127682, -0.029866529628634453, -0.4052070677280426, 0.529234766960144, -0.01460728794336319, 0.10931453853845596, 0.07299663126468658, 0.28238722681999207, -0.24168352782726288, -0.25332602858543396, 0.21296998858451843, 0.028377855196595192, -0.2907440662384033, 0.006169829983264208, 0.43252599239349365, 0.17964807152748108, -0.12623381614685059, 0.20199882984161377, -0.09471418708562851, 0.03480159863829613, 0.5192018747329712, 0.06501742452383041, 0.1348346471786499, -0.07741854339838028, -0.11056911945343018, -0.1474522054195404, 0.4708772897720337, -0.3257249593734741, -0.5525311231613159, -0.13117721676826477, 0.07963043451309204, 0.2327832281589508, -0.10786960273981094, -0.04668235033750534, -0.10201279073953629, 0.41212671995162964, -0.11146402359008789, 0.10394563525915146, -0.1524268239736557, 0.28726014494895935, -0.15393857657909393, -0.1499592512845993, 0.31508660316467285, 0.42847660183906555, -0.3584442734718323, -0.16692709922790527, 0.12145102769136429, -0.35069334506988525, 0.5144060254096985, -0.2119644433259964, 0.039602529257535934, -0.16196034848690033, -0.2699551582336426, 0.14202719926834106, -0.21104244887828827, 0.13902758061885834, -0.07684385776519775, 0.20053856074810028, -0.3641592264175415, 0.11290303617715836, 0.3360133767127991, -0.2282676100730896, 0.024538878351449966, 0.1309228092432022, 0.04833914712071419, 0.06329470872879028, -0.09516783803701401, -0.08286254107952118, 0.10906734317541122, -0.28958621621131897, -0.11376024037599564, 0.10910506546497345, 0.3143637180328369, 0.07311470806598663, 0.29680123925209045, -0.23752236366271973, -0.017426718026399612, 0.16610026359558105, -0.3177943825721741, -0.3206630349159241, 0.04167966544628143, -0.3068470358848572, 0.03769530728459358, -0.5202541351318359, -0.3157677948474884, 0.030383838340640068, -0.5278465747833252, 0.20570306479930878, 0.10150448977947235, 0.5110647082328796, 0.06326042115688324, -0.07940673828125, 0.12225969135761261, -0.15362296998500824, -0.07561421394348145, 0.059919025748968124, -0.04796464368700981, 0.06715778261423111, 0.028126686811447144, 0.02995811216533184, -0.05326131731271744, -0.01997298002243042, -0.031089236959815025, -0.09194864332675934, -0.09293816238641739, 0.11148570477962494, 0.09626998752355576, 0.05224129557609558, 0.1560719907283783, 0.032709285616874695, -0.029081549495458603, -0.27281948924064636, -0.036350782960653305, -0.17752915620803833, 0.03761423006653786, -0.562839686870575, 0.18187446892261505, 0.07357833534479141, -0.5106574296951294, -0.08363919705152512, -0.33167558908462524, -0.24820540845394135, 0.2700468897819519, -0.20964285731315613, -0.7126994132995605, -0.045796483755111694, -0.16568529605865479, -0.07751237601041794, 0.2361043393611908, 0.24740400910377502, -0.24097657203674316, -0.198882058262825, -0.43638837337493896, 0.07040978968143463, 0.12868274748325348, 0.24736641347408295, -0.12481417506933212, -0.16021007299423218, -0.26587530970573425, -0.07822960615158081, -0.00042250374099239707, 0.1416802704334259, -0.4042712450027466, 0.07796386629343033, 0.11541319638490677, -0.45564836263656616, -0.2138441801071167, -0.5176386833190918, -0.22899776697158813, -0.15280406177043915, 0.3182947039604187, 0.12161809206008911, -0.2096826434135437, 0.15065954625606537, 0.03410446643829346, -0.16785979270935059, 0.4537677466869354, 0.15013492107391357, 0.02091207727789879, -0.09447836875915527, 0.20073336362838745, -0.011040902696549892, 0.1786736398935318, -0.05917421355843544, -0.13695168495178223, 0.14725200831890106, -0.07864365726709366, -0.04704106226563454, -0.18055912852287292, 0.12861260771751404, 0.38953936100006104, -0.13073261082172394, -0.1040826141834259, 0.44760558009147644, -0.06564987450838089, -0.2023889422416687, 0.19433139264583588, -0.04138598591089249, 0.16569118201732635, -0.13238342106342316, -0.13986049592494965, -0.15698479115962982, 0.049789559096097946, 0.1810714602470398, 0.18772774934768677, -0.26614370942115784, -0.17676253616809845, 0.0071143112145364285, 0.3037017583847046, 0.08065193891525269, 0.1834041327238083, -0.13126839697360992, 0.31291595101356506, 0.07130969315767288, -0.20521430671215057, -0.1603430211544037, -0.12254717946052551, 0.021307025104761124, 0.010768258944153786, 0.18800611793994904, -0.32673054933547974, 0.2287491112947464, 0.18716838955879211, -0.17411907017230988, 0.017158010974526405, 0.1429419219493866, -0.21026740968227386, -0.378916472196579, -0.0015139315510168672, 0.16556106507778168, 0.1361059695482254, 0.11751782894134521, -0.28516343235969543, -0.04232722893357277, 0.04718979820609093, -0.12957464158535004, -0.19925278425216675, 0.07477413862943649, 0.23390771448612213, -0.043444059789180756, -0.11699027568101883, -0.03561028838157654, -0.3611580729484558, -0.2026393562555313, 0.23945283889770508, 0.1686495691537857, 0.1795472353696823, -0.3172611594200134, -0.08069278299808502, -0.04277881979942322, 0.43637508153915405, 0.16935645043849945, 0.1382790207862854, -0.103202685713768, -0.15055586397647858, -0.1010088175535202, 0.18610872328281403, 0.11540387570858002, 0.11113951355218887, -0.3528137803077698, 0.0272720605134964, -0.08251162618398666, -0.32273069024086, -0.0735725611448288, -0.07595033198595047, 0.23656679689884186, 0.14939583837985992, 0.04457780346274376, -0.23589707911014557, 0.2980085015296936, -0.06532705575227737, -0.2664874196052551, 0.1379791647195816, 0.21721161901950836, -0.06866756826639175, 0.06124117597937584, 0.3623902499675751, 0.29357007145881653, -0.1012830063700676, -0.041117485612630844, -0.16820083558559418, 0.20796795189380646, 0.033402059227228165, -0.16787004470825195, -0.1240745335817337, 0.11392902582883835, 0.11182459443807602, -0.08909028768539429, -0.07396978884935379, 0.13813365995883942, -0.1978745460510254, -0.14826737344264984, 0.24712374806404114, 0.18669933080673218, -0.013087906874716282, -0.13848918676376343, -0.029823049902915955, 0.006448264233767986, 0.2936651408672333, 0.18321196734905243, -0.07248418778181076, -0.2783295214176178, -0.29467594623565674, -0.08853574097156525, 0.2739633321762085, 0.0912061557173729, 0.14110544323921204, -0.20599325001239777, 0.13790322840213776, 0.21618089079856873, -0.004199599381536245, 0.12591852247714996, 0.10617408156394958, -0.01631578989326954, 0.2119307816028595, 0.09628459066152573, -0.31716763973236084, 0.04533848911523819, 0.06729521602392197, -0.28712210059165955, 0.031293660402297974, 0.11773562431335449, -0.2838127911090851, 0.01277904212474823, -0.39851778745651245, -0.164436474442482, 0.14109288156032562, -0.11876049637794495, 0.39721909165382385, 0.03616895154118538, 0.12728549540042877, 0.026368698105216026, -0.051292747259140015, -0.053596559911966324, 0.06924095749855042, 0.05321290343999863, -0.1059073805809021, -0.12332034111022949, -0.25399836897850037, 0.21904262900352478, 0.13449330627918243, 0.029702018946409225, -0.12360410392284393, 0.16019032895565033, -0.06515827029943466, -0.019094793125987053, 0.011372588574886322, -0.008355524390935898, 0.022777503356337547, 0.07148363441228867, -0.2523916959762573, -0.04734059423208237, 0.011519701220095158, 0.2579224109649658, 0.010388163849711418, 0.07413186877965927, 0.008006174117326736, -0.2757394015789032, -0.18025009334087372, 0.11583851277828217, 0.346338152885437, -0.012924605049192905, 0.019575288519263268, -0.06334749609231949, -0.0814988985657692, 0.02036931924521923, -0.12173046916723251, -0.018423831090331078, 0.21506935358047485, -0.20680832862854004, 0.14168530702590942, -0.3244849443435669, 0.24052642285823822, -0.4612383246421814, -0.16983357071876526, -0.04649098590016365, -0.5267249941825867, 0.11706002056598663, 0.29342564940452576, -0.06731395423412323, -0.07894371449947357, -0.016247911378741264, -0.2649504244327545, 0.050186727195978165, -0.09118489176034927, -0.2586698830127716, -0.16448341310024261, -0.1970253586769104, 0.16355669498443604, 0.06110934913158417, 0.16080620884895325, -0.1227184534072876, 0.23166236281394958, -0.003086305223405361, -0.26724621653556824, -0.04684095457196236, 0.1390962302684784, -0.2768227756023407, -0.09035319089889526, 0.02240690588951111, -0.08929584920406342, -0.060125332325696945, 0.020067410543560982, -0.28177160024642944, 0.13536496460437775, 0.06898947805166245, -0.13026557862758636, 0.06900195777416229, 0.11665056645870209, 0.1453840583562851, 0.021362602710723877, 0.004041039384901524, -0.1642274409532547, 0.13339337706565857, 0.07558956742286682, -0.26760271191596985, 0.056781038641929626, 0.24439187347888947, 0.08307293802499771, 0.24400582909584045, 0.1740676462650299, -0.09853390604257584, -0.08671649545431137, 0.019855475053191185, -0.08035723865032196, -0.012464029714465141, 0.13856928050518036, -0.030784551054239273, -0.06742855906486511, -0.056932441890239716, -0.26191797852516174, 0.04538393393158913, 0.1065581813454628, -0.3031025826931, 0.01227358914911747, -0.12317640334367752, -0.23100557923316956, -0.1525830775499344, -0.016957076266407967, 0.013060699217021465, 0.233900249004364, 0.07663489878177643, 0.016051681712269783, -0.293622761964798, 0.10577737540006638, 0.23923121392726898, 0.166107639670372, 0.05175791308283806, -0.18127180635929108, 0.013247929513454437, 0.027660317718982697, 0.10690070688724518, -0.12495557963848114, -0.11236140877008438, -0.06304709613323212, 0.4759906828403473, -0.06165279448032379, 0.3031902313232422, -0.24568790197372437, 0.05153404548764229, 0.1664869338274002, -0.16890421509742737, 0.23391591012477875, 0.33634334802627563, -0.08506737649440765, -0.019048472866415977, -0.04924491047859192, -0.14121145009994507, -0.6019681692123413, 0.3079909086227417, 0.02157476544380188, -0.3708619177341461, 0.03493466228246689, -0.15833556652069092, -0.5085346698760986, 0.08483423292636871, -0.366988867521286, 0.010095713660120964, 0.045247260481119156, -0.23812595009803772, -0.00028800690779462457, 0.050817232578992844, -0.22540518641471863, 0.016440847888588905, -0.0273449569940567, 0.044069018214941025, -0.3559514880180359, -0.014210652559995651, -0.45318344235420227, -0.4550686776638031, -0.1402273327112198, 0.19190606474876404, -0.24113093316555023, -0.03987481817603111, -0.2962465286254883, -0.17153437435626984, 0.09038648754358292, 0.0817636176943779, -0.2727413773536682, -0.1985558122396469, -0.039383742958307266, -0.35408806800842285, 0.10790730267763138, 0.16194963455200195, 0.21311092376708984, -0.10441143065690994, 0.3183867037296295, -0.1259279102087021, -0.1097644567489624, 0.09247677773237228, -0.2205098420381546, -0.06512071192264557, 0.16357272863388062, -0.03728748857975006, 0.006935475394129753, -0.22261109948158264, -0.02179720811545849, -0.12170545756816864, 0.27100539207458496, 0.009342890232801437, -0.09641305357217789, 0.20171234011650085, -0.044422999024391174, -0.17834706604480743, -0.21003833413124084, 0.0725521519780159, 0.09893732517957687, -0.2804098129272461, 0.06443634629249573, 0.1635676473379135, -0.25939223170280457, 0.038096364587545395, 0.24297378957271576, 0.14313898980617523, -0.00899161584675312, -0.2462809532880783, -0.21875116229057312, -0.19078640639781952, -0.20883026719093323, 0.24782410264015198, 0.06584881246089935, -0.39499250054359436, -0.1086089015007019, 0.06514064222574234, 0.1043192595243454, 0.28693103790283203, 0.01887146383523941, -0.2857043743133545, 0.3224644958972931, 0.06050359830260277, -0.3687313199043274, 0.0705442950129509, -0.15406496822834015, -0.3414797782897949, 0.16040393710136414, 0.18944358825683594, -0.23775261640548706, 0.34811967611312866, 0.14879553020000458, -0.2873077392578125, 0.15528857707977295, -0.1967269480228424, 0.16725201904773712, -0.5317370295524597, 0.49874624609947205, -0.2540048658847809, -0.18593598902225494, 0.21604353189468384, -0.11860141158103943, -0.1123170480132103, 0.4291634261608124, -0.015108649618923664, -0.06074824556708336, 0.19012996554374695, 0.0744413509964943, -0.2983088195323944, 0.2547420859336853, 0.037647444754838943, -0.010474145412445068, -0.06716082245111465, -0.0022949641570448875, -0.09283534437417984, 0.12639997899532318, 0.05117158219218254, -0.18632254004478455, 0.3306220471858978, 0.1484678089618683, -0.043846894055604935, 0.2580413520336151, -0.0733819380402565, -0.15723253786563873, 0.10912200808525085, 0.021527620032429695, -0.328504741191864, 0.396545946598053, -0.10944999009370804, -0.267306923866272, 0.1330488920211792, -0.23220203816890717, 0.017262017354369164, 0.02149333618581295, 0.19593574106693268, -0.1090673878788948, 0.06237640976905823, -0.11409194767475128, 0.07809226959943771, 0.17094732820987701, -0.1770707070827484, 0.11858710646629333, -0.18161195516586304, -0.04171520099043846, 0.1682407259941101, -0.13090018928050995, -0.1438988596200943, -0.059292443096637726, -0.2955361008644104, 0.07887917757034302, -0.2543352544307709, -0.0911874920129776, 0.20042787492275238, 0.11165035516023636, -0.05303865671157837, -0.2049490362405777, -0.005129031836986542, -0.08102858811616898, -0.18342773616313934, 0.24069727957248688, 0.16805218160152435, -0.09099643677473068, -0.01395848672837019, -0.07496290653944016, -0.07130119949579239, 0.08293145149946213, 0.07722867280244827, -0.15723107755184174, -0.15380145609378815, -0.1177743524312973, 0.14504431188106537, 0.1900901198387146, 0.1885446161031723, -0.12986472249031067, -0.07908111810684204, -0.07464156299829483, 0.08558834344148636, -0.15945129096508026, 0.022326800972223282, -0.12038160115480423, 0.033759597688913345, 0.03792662173509598, 0.4614364504814148, -0.09802515059709549, -0.14406006038188934, 0.19575272500514984, -0.18662184476852417, -0.006635620258748531, 0.14025862514972687, 0.10720210522413254, 0.009198016487061977, 0.17002984881401062, 0.0015593545977026224, -0.1281476467847824, 0.11477694660425186, 0.10220936685800552, 0.03994175046682358, -0.15709979832172394, 0.10811088979244232, 0.15400907397270203, -0.04345898702740669, -0.20006904006004333, 0.19320125877857208, 0.02825469896197319, -0.17473189532756805, 0.010272283107042313, 0.10323850065469742, -0.17026419937610626, -0.047570981085300446, 0.11225907504558563, 0.14402790367603302, -0.07978232949972153, -0.22416678071022034, 0.05638646334409714, -0.007273751311004162, 0.198574498295784, 0.05139905586838722, -0.05786244198679924, -0.10709816217422485, -0.20728188753128052, 0.1184614971280098, 0.22643321752548218, 0.2942321002483368, -0.09143107384443283, -0.09684029966592789, 0.13193894922733307, 0.06698562949895859, -0.141399085521698, 0.4048091769218445, 0.2701214551925659, -0.31734439730644226, 0.3298618197441101, -0.08580661565065384, -0.07441812008619308, 0.004427785985171795, -0.07331076264381409, -0.22235418856143951, 0.2378121167421341, -0.3410508930683136, 0.16952316462993622, 0.16652408242225647, 0.04861415922641754, 0.17068549990653992, -0.18125677108764648, -0.1123567447066307, -0.007202544249594212, 0.205174520611763, -0.0831134095788002, 0.026712771505117416, -0.21908926963806152, -0.17209495604038239, -0.3202246427536011, 0.11638860404491425, 0.037878911942243576, 0.07644658535718918, 0.06637001782655716, -0.14083336293697357, -0.06097223982214928, -0.16250471770763397, 0.15680140256881714, -0.054582443088293076, 0.05364055931568146, -0.030515585094690323, 0.03736739978194237, -0.1742629110813141, 0.1073453351855278, -0.15774928033351898, -0.06531491130590439, 0.006975688971579075, 0.13769285380840302, 0.026183459907770157, 0.09614025056362152, -0.0408339761197567, -0.06194384768605232, 0.062481194734573364, 0.03171716630458832, 0.23527207970619202, -0.06390798091888428, 0.3056102693080902, 0.1818927824497223, 0.10704216361045837, 0.014050677418708801, 0.018002843484282494, 0.06088925153017044, -0.13645459711551666, 0.001828360022045672, 0.23389580845832825, -0.0466325543820858, 0.35849106311798096, 0.00572474580258131, -0.2585482597351074, -0.04872959852218628, 0.1610388606786728, 0.6626724004745483, -0.2463427186012268, 0.05929809808731079, 0.6127640604972839, 0.25501176714897156, 0.13641376793384552, 0.3687340021133423, 0.2821914553642273, 0.08311440050601959, 0.5996881723403931, 0.2537267804145813, 0.1456267237663269, -0.09429726004600525, -0.3053307831287384, 0.05375203490257263, 0.4340759813785553, 0.2109045535326004, 0.3583071827888489, 0.018852587789297104, -0.21209248900413513, 0.01978393644094467, 0.34515729546546936, 0.21092814207077026, -0.033897675573825836, -0.021862700581550598, -0.09726729243993759, -0.06045415624976158, 0.5742647051811218, -0.092867411673069, 0.015930436551570892, 0.3791932761669159, -0.010272561572492123, -0.008993194438517094, 0.38305923342704773, -0.27832940220832825, -0.14509141445159912, 0.23414430022239685, -0.20981651544570923, -0.07463722676038742, 0.2300509214401245, -0.2356916069984436, -0.12749415636062622, 0.025408519431948662, 0.2841663360595703, -0.061043184250593185, 0.020226068794727325, -0.11679060757160187, -0.08708533644676208, 0.01485072448849678, -0.06093025207519531, -0.035861384123563766, 0.10049085319042206, 0.06836606562137604, -0.08886604756116867, 0.014241651631891727, 0.08215029537677765, -0.02811731956899166, -0.2337026447057724, 0.2939552664756775, -0.07755064964294434, -0.1886170506477356, -0.05366424843668938, -0.13672222197055817, 0.13929526507854462, 0.05699893832206726, 0.04675404727458954, -0.07982061058282852, -0.2444896101951599, 0.020844578742980957, 0.22544412314891815, 0.03485141322016716, 0.12416598200798035, -0.13104383647441864, -0.14082536101341248, -0.14536093175411224, 0.1529243439435959, 0.04901902750134468, -0.2498502880334854, -0.06554954499006271, -0.11720875650644302, 0.22143636643886566, 0.2603534758090973, -0.24218693375587463, 0.13844899833202362, 0.140193372964859, -0.25988295674324036, -0.08395279943943024, -0.000666887266561389, -0.2026490420103073, -0.037597302347421646, -0.030366074293851852, -0.5185412168502808, 0.4076976776123047, 0.23266418278217316, -0.05434929579496384, 0.21791650354862213, 0.048136550933122635, -0.08294810354709625, 0.029246965423226357, -0.1433105766773224, 0.003115651896223426, 0.11467279493808746, 0.28926321864128113, -0.2146831750869751, 0.28656521439552307, 0.22240303456783295, -0.2550933063030243, -0.1018105000257492, 0.18741337954998016, 0.11263888329267502, 0.09327159821987152, -0.13214170932769775, -0.21221818029880524, 0.1382376104593277, 0.032278209924697876, 0.30748578906059265, 0.025200990960001945, -0.09675685316324234, -0.2842426896095276, 0.03750322014093399, 0.3262416422367096, -0.01928475871682167, 0.17208287119865417, -0.23946775496006012, 0.05630143731832504, -0.04219265654683113, -0.1150752604007721, -0.2172149270772934, -0.1808021366596222, -0.12415668368339539, 0.04152817651629448, -0.0019489823607727885, -0.11277853697538376, 0.22770392894744873, 0.13931991159915924, 0.02001049742102623, 0.033015888184309006, -0.0038655968382954597, -0.020027058199048042, -0.02232678420841694, 0.026066578924655914, 0.04193552955985069, -0.03874881938099861, 0.06763865798711777, 0.0820874571800232, 0.00036123624886386096, -0.046587638556957245, -0.008070400916039944, 0.06624213606119156, 0.032727714627981186, -0.031285978853702545, -0.034832343459129333, 0.030150027945637703, 0.04502270743250847, -0.0004769293300341815, 0.9012414813041687, 0.39444297552108765, 0.7304614186286926, -0.8371263146400452, -0.2820277810096741, 0.1989324688911438, 0.22774772346019745, -0.009315187111496925, 0.49372148513793945, 0.1683482825756073, -0.9349848031997681, 0.46822401881217957, 0.08406826108694077, -0.8575411438941956, 0.05905772000551224, -0.3725735545158386, -0.11886289715766907, -0.3741511106491089, 0.19431361556053162, -0.9637753367424011, -0.230366513133049, 0.10777109861373901, -0.08362091332674026, -0.15856610238552094, -0.37492290139198303, 0.07358904927968979, -0.01845080778002739, -0.3484162390232086, -0.10076641291379929, -0.21994073688983917, 0.36266231536865234, 0.05454467982053757, 0.18358755111694336, -0.6358880996704102, 0.006437815260142088, -0.5032948851585388, -0.02700056880712509, -0.005124854389578104, 0.22971117496490479, 0.21734464168548584, -0.3178672194480896, 0.1565157175064087, -0.05917901545763016, 0.0682431310415268, -0.2182951420545578, 0.38267645239830017, 0.09720694273710251, 0.0073600937612354755, 0.06962110102176666, -0.05352373421192169, -0.0882909744977951, -0.24771368503570557, -0.0033690393902361393, -0.016524864360690117, -0.031485795974731445, 0.22327423095703125, 0.07225961238145828, -0.25626903772354126, 0.054175104945898056, -0.13387338817119598, -0.05763545259833336, 0.27930164337158203, -0.16469596326351166, 0.18316961824893951, 0.16261449456214905, -0.006621374748647213, -0.25458449125289917, -0.06965459138154984, -0.16587607562541962, 0.2327239215373993, 0.3641244173049927, 0.2950940430164337, -0.19875380396842957, -0.0727858617901802, -0.13536038994789124, -0.18447034060955048, 0.29877716302871704, 0.11368808150291443, 0.38802728056907654, -0.6158151030540466, 0.48415908217430115, -0.2512723207473755, -0.10092093050479889, -0.1430450975894928, -0.32509860396385193, 0.08654802292585373, -0.001408203737810254, -0.06579551100730896, 0.3989850580692291, 0.06808748096227646, 0.45545434951782227, 0.15291433036327362, -0.3849640190601349, -0.2544752359390259, -0.2645493149757385, -0.19083282351493835, -0.1320706307888031, 0.7120972871780396, 0.5265322327613831, 0.9730086326599121, -0.06606811285018921, 0.2315814197063446, 0.04100489616394043, -0.14933893084526062, 0.38448524475097656, 0.05184203386306763, -0.27193063497543335, 0.3322453200817108, 0.09316276013851166, -0.2089148312807083, -0.5428911447525024, 0.4046238362789154, -0.03930208459496498, -0.11460214853286743, -0.19663025438785553, -0.32277464866638184, -0.15803317725658417, -0.18223319947719574, 0.12699231505393982, 0.33466291427612305, -0.17866261303424835, -0.4316675066947937, 0.225032240152359, -0.20828740298748016, -0.0010948795825242996, 0.16823305189609528, 0.04304550588130951, -0.15011416375637054, 0.1925724595785141, 0.14450937509536743, -0.028760001063346863, 0.18027453124523163, 0.27927684783935547, -0.2409241795539856, 0.007258974015712738, 0.3573722541332245, 0.03048916906118393, 0.0745900422334671, -0.07071440666913986, 0.22075222432613373, -0.06065642461180687, -0.024701472371816635, 0.05786135792732239, -0.010021587833762169, -0.05657701939344406, -0.10595893859863281, 0.16764691472053528, 0.04790964722633362, -0.03581111878156662, 0.2667970359325409, -0.2628573477268219, -0.13318271934986115, -0.31373295187950134, -0.2795468270778656, 0.348837286233902, -0.3141557574272156, 0.1979074627161026, 0.301027774810791, 0.23702630400657654, 0.08692926168441772, 0.10804720968008041, 0.4425046145915985, 0.14506004750728607, 0.34245967864990234, -0.2424919307231903, -0.0018039185088127851, -0.17469199001789093, 0.020858706906437874, -0.024507297202944756, -0.13071082532405853, -0.1925053894519806, -0.12431685626506805, 0.09807991236448288, -0.12095673382282257, -0.05309448763728142, 0.10520392656326294, -0.04952600598335266, 0.022495457902550697, -0.5146239995956421, -0.46969014406204224, -0.46575498580932617, 0.18564939498901367, -0.051218703389167786, -0.32631543278694153, 0.2887057363986969, 0.11269611120223999, -0.037925757467746735, -0.27422893047332764, -0.28936561942100525, 0.23790660500526428, 0.37488168478012085, -0.05237636715173721, 0.08912090212106705, -0.11572781950235367, -0.2651587128639221, -0.6606045961380005, -0.05168378725647926, 0.06876342743635178, -0.05118105560541153, 0.2275269627571106, -0.2707614600658417, 0.10604745894670486, 0.35046523809432983, 0.049291130155324936, -0.19539810717105865, 0.6052194237709045, -0.2016051858663559, -0.18710212409496307, 0.39733758568763733, 0.30282941460609436, 0.42637914419174194, 0.2748468816280365, 0.3673282265663147, 0.18151356279850006, -0.27255871891975403, 0.23597414791584015, 0.8059689998626709, -0.24923501908779144, -0.5595383644104004, 0.18362779915332794, -0.09485994279384613, -0.050593212246894836, -0.1550854742527008, -0.22860097885131836, -0.2250993251800537, 0.02381259761750698, -0.022532839328050613, 0.2411084771156311, -0.24479936063289642, 0.13902832567691803, -0.1635187417268753, -0.15702341496944427, -0.19184628129005432, 0.3617171049118042, 0.23881317675113678, -0.3054075539112091, -0.29820987582206726, -0.018832780420780182, -0.05940517410635948, 0.29299208521842957, -0.1254989206790924, -0.11798965930938721, 0.30936992168426514, 0.38704875111579895, 0.049470897763967514, -0.3066715896129608, -0.12385838478803635, 0.2875101566314697, -0.4750696122646332, -0.12537750601768494, -0.1342485249042511, -0.002210290404036641, 0.0855458676815033, 0.16290141642093658, -0.03558017313480377, -0.04357440397143364, -0.2611774504184723, -0.09625708311796188, -0.3054070770740509, -0.5812447667121887, -0.34213268756866455, -0.15774357318878174, 0.49645015597343445, -0.3313078284263611, -0.45695215463638306, 0.14509522914886475, -0.2839718461036682, -0.3198621869087219, 0.128187358379364, -0.11801397800445557, 0.23091812431812286, 0.1800558865070343, -0.08984723687171936, 0.021381884813308716, 0.05223137140274048, -0.020119432359933853, 0.014857162721455097, 0.0035216035321354866, 0.0022914395667612553, 0.06684734672307968, -0.03998845815658569, 0.017161935567855835, -0.03064894489943981, 0.00038636536919511855, 0.03783465921878815, -0.11515197157859802, -0.0009379650000482798, -0.028232835233211517, 0.09519050270318985, -0.26651063561439514, 0.023960009217262268, -0.5281410813331604, -0.4230024814605713, -0.8716781139373779, 0.04055798053741455, 0.01248132437467575, -0.27235713601112366, -0.09105227887630463, 0.2428414523601532, -0.022055480629205704, -0.06680047512054443, 0.12757302820682526, -0.2319665551185608, 0.06539203971624374, -0.08599165827035904, 0.15680085122585297, -0.21443241834640503, -0.2873384356498718, -0.12122223526239395, 0.3265308737754822, 0.21156147122383118, 0.0053744264878332615, 0.11622429639101028, -0.2244006097316742, 0.17485298216342926, 0.11026664078235626, 0.025890173390507698, 0.32322660088539124, 0.15091277658939362, 0.003570672357454896, -0.29905909299850464, 0.1355433315038681, -0.013362991623580456, -0.3189631700515747, -0.11868274211883545, 0.03914780914783478, 0.06864136457443237, 0.09376927465200424, -0.2692030966281891, 0.06743571162223816, 0.13511762022972107, -0.1599462926387787, 0.2518737018108368, 0.2118876427412033, 0.05444607138633728, 0.015646997839212418, -0.09663260728120804, -0.14265653491020203, 0.2897129952907562, 0.00020389696874190122, -0.23584696650505066, 0.3777189552783966, -0.19924385845661163, -0.26517248153686523, 0.31584253907203674, -0.04167792946100235, 0.016921961680054665, 0.3264332711696625, 0.04636619612574577, 0.03673272952437401, -0.1530528962612152, 0.11275513470172882, 0.10397324711084366, -0.33962294459342957, -0.1960601955652237, -0.06655430048704147, 0.35699528455734253, -0.01557307131588459, -0.17119750380516052, -0.18042540550231934, -0.12707099318504333, 0.026366090402007103, 0.3646030128002167, 0.1000906378030777, 0.20303525030612946, -0.17539094388484955, -0.02288319543004036, -0.23119501769542694, 0.3018413484096527, -0.23141252994537354, -0.23203617334365845, 0.3796159029006958, -0.012140006758272648, -0.1359020173549652, -0.22887690365314484, -0.15010422468185425, -0.21561406552791595, 0.1786419004201889, 0.14164090156555176, -0.16494238376617432, 0.1145145371556282, -0.09977034479379654, -0.17267537117004395, 0.08531509339809418, -0.19619661569595337, -0.20998762547969818, -0.5586380362510681, 0.016530537977814674, -0.045847129076719284, -0.062016963958740234, -0.13223475217819214, -0.0515088252723217, 0.01722344011068344, -0.12931524217128754, -0.34268319606781006, 0.20558758080005646, -0.016727624461054802, -0.14148740470409393, 0.19738639891147614, -0.13262203335762024, 0.17275811731815338, 0.34297627210617065, 0.0286799818277359, 0.010668892413377762, -0.1682131439447403, 0.03698526322841644, 0.12178100645542145, -0.09136917442083359, 0.0834677591919899, -0.08523823320865631, -0.24404175579547882, -0.08631610125303268, -0.03691858425736427, 0.1446423977613449, 0.09143340587615967, 0.04092272371053696, 0.007322770543396473, -0.02989058382809162, 0.04399682953953743, 0.048675648868083954, 0.17870542407035828, 0.18921945989131927, 0.4487110376358032, 0.17874322831630707, 0.02155653014779091, -0.12503249943256378, 0.12141387909650803, 0.016710476949810982, -0.16983720660209656, -0.023276958614587784, -0.15440794825553894, -0.3336113393306732, -0.14774231612682343, -0.15566787123680115, -0.2926594913005829, -0.04988434910774231, -0.0024469615891575813, -0.4723517596721649, -0.05054786056280136, 0.08851252496242523, -0.23638272285461426, -0.10072862356901169, -0.15872564911842346, -0.3535363972187042, 0.06105363741517067, -0.043446868658065796, 0.2916553318500519, -0.11239785701036453, 0.03320678696036339, 0.35038891434669495, 0.11064021289348602, -0.09671638906002045, -0.08186560124158859, -0.005761867854744196, 0.061281561851501465, -0.4457956850528717, 0.12125099450349808, 0.033826153725385666, -0.3259510397911072, -0.3052584230899811, 0.01927345059812069, 0.07794708758592606, 0.03732084855437279, 0.004045989364385605, -0.17829686403274536, -0.17948494851589203, -0.18875247240066528, -0.25349506735801697, 0.12695370614528656, 0.18005244433879852, 0.31520140171051025, 0.1310424655675888, 0.1472315788269043, -0.2949359118938446, 0.1836411952972412, 0.10551739484071732, -0.301867812871933, 0.046836066991090775, -0.04582977667450905, -0.2773752212524414, 0.2157910317182541, 0.5970709323883057, 0.021624794229865074, -0.011532570235431194, 0.0867757499217987, 0.04224603250622749, -0.09753521531820297, 0.05249211937189102, 0.16302940249443054, 0.6564723253250122, -0.5326141715049744, 0.18043550848960876, 0.06270948052406311, -0.15927234292030334, 0.22674879431724548, -0.06332637369632721, -0.1236431747674942, -0.08568554371595383, 0.12691572308540344, 0.009109919890761375, -0.12383753061294556, -0.053138889372348785, -0.0903378427028656, 0.16918091475963593, -0.06359688192605972, 0.10737187415361404, -0.003512370167300105, 0.04106390103697777, 0.0759759321808815, 0.10869570821523666, -0.04212842136621475, 0.18329529464244843, -0.08027230203151703, 0.26167863607406616, 0.14314621686935425, 0.0025466971565037966, -0.3237229585647583, -0.17072001099586487, -0.02728300541639328, -0.0711192712187767, 0.2847476601600647, 0.015018546022474766, -0.16210441291332245, 0.09228816628456116, 0.03432648628950119, 0.1988285481929779, 0.3717738687992096, 0.07476500421762466, -0.09342816472053528, -0.19517597556114197, 0.005452659446746111, -0.04338020458817482, -0.012513083405792713, 0.16763204336166382, 0.06252627819776535, -0.104231096804142, 0.1659434288740158, 0.03610045090317726, 0.006052015349268913, 0.0246902983635664, -0.23306865990161896, 0.02029680646955967, -0.015943467617034912, -0.08046850562095642, 0.14966359734535217, -0.036201439797878265, 0.091692715883255, -0.11761949956417084, 0.10548674315214157, 0.07343368977308273, 0.09216245263814926, 0.07788488268852234, -0.023764099925756454, -0.07088739424943924, 0.18659746646881104, -0.0785694420337677, 0.24639269709587097, -0.294644832611084, 0.1940395087003708, -0.13012832403182983, 0.15937502682209015, -0.19469623267650604, 0.16793392598628998, 0.13284152746200562, 0.12985609471797943, -0.09727824479341507, -0.18906532227993011, -0.09285943955183029, -0.19514386355876923, 0.06437219679355621, -0.049507103860378265, 0.06100587174296379, 0.14498098194599152, 0.1804274618625641, -0.10789863020181656, -0.04367051646113396, -0.25852730870246887, -0.617163896560669, 0.011375387199223042, -0.1001526489853859, -0.2703923285007477, 0.005335988476872444, 0.070153146982193, -0.22034311294555664, 0.18138045072555542, -0.3049509823322296, 0.1001167967915535, -0.05260340869426727, -0.039403632283210754, 0.49380141496658325, -0.2512314021587372, 0.2103075236082077, 0.37888288497924805, 0.06203535199165344, 0.03670627251267433, -0.09872271865606308, 0.22576722502708435, -0.11694423109292984, -0.08671427518129349, 