{"version": "0.5.2", "metadata": {"date": {"year": 2024, "month": 1, "day": 6, "hour": 15, "minute": 36, "second": 56}, "loudness": -21.909086227416992, "gain": 0.8387017386638892, "name": null, "modeled_by": null, "gear_type": null, "gear_make": null, "gear_model": null, "tone_type": null}, "architecture": "WaveNet", "config": {"layers": [{"input_size": 1, "condition_size": 1, "head_size": 8, "channels": 16, "kernel_size": 3, "dilations": [1, 2, 4, 8, 16, 32, 64, 128, 256, 512], "activation": "Tanh", "gated": false, "head_bias": false}, {"input_size": 16, "condition_size": 1, "head_size": 1, "channels": 8, "kernel_size": 3, "dilations": [1, 2, 4, 8, 16, 32, 64, 128, 256, 512], "activation": "Tanh", "gated": false, "head_bias": true}], "head": null, "head_scale": 0.02}, "weights": [-0.05324159562587738, 0.4866386353969574, -0.8565360903739929, -0.7876560688018799, -0.3348698914051056, 0.19525878131389618, 0.0005550245987251401, 0.7861170172691345, -0.1293504685163498, 0.31956812739372253, -0.3723641335964203, -0.17223244905471802, -0.8977687358856201, -0.759652316570282, -0.43969422578811646, 0.02507893368601799, 0.153690904378891, 0.039867550134658813, 0.027166996151208878, -0.2653031349182129, 0.054976679384708405, 0.03855160251259804, 0.1797288954257965, 0.1082332506775856, 0.06678295880556107, 0.22807128727436066, 0.1352953165769577, -0.04303964972496033, 0.09746148437261581, -0.05507783964276314, 0.015863850712776184, -0.054116662591695786, -0.06675213575363159, -0.12249618023633957, 0.020819010213017464, -0.14396631717681885, 0.01083690021187067, -0.08773001283407211, 0.060130469501018524, -0.020286396145820618, 0.17491963505744934, -0.11165741086006165, 0.06365711987018585, -0.3252566158771515, -0.08838730305433273, -0.13888667523860931, 0.28507718443870544, 0.07336819916963577, 0.008550410158932209, 0.16733218729496002, 0.0633356049656868, 0.19234968721866608, 0.2698529064655304, 0.024830646812915802, 0.1878393143415451, 0.12510228157043457, 0.028555862605571747, -0.024324147030711174, 0.10155784338712692, -0.0792693942785263, 0.1459033340215683, -0.13108062744140625, -0.09671711921691895, -0.03999195247888565, -0.06875697523355484, 0.14021216332912445, -0.2034834772348404, 0.26256251335144043, -0.12197170406579971, 0.30821657180786133, -0.3456386923789978, 0.16113848984241486, -0.11836215108633041, -0.11760040372610092, 0.3381527364253998, -0.04994513839483261, -0.19842465221881866, 0.08953274041414261, -0.15501923859119415, 0.1334717869758606, -0.3383868932723999, 0.2946280837059021, 0.02585889771580696, -0.05645812302827835, -0.07800755649805069, 0.20965099334716797, -0.23569996654987335, 0.10790802538394928, -0.1681191474199295, 0.13106286525726318, -0.11252297461032867, 0.3006975054740906, -0.11360061913728714, 0.2211683690547943, -0.3711819648742676, 0.12309304624795914, -0.0986798107624054, -0.18688103556632996, 0.09908179938793182, -0.24249540269374847, -0.09756546467542648, 0.3077801465988159, -0.23663462698459625, -0.27204957604408264, 0.07683088630437851, -0.1774347573518753, -0.34318292140960693, 0.09990498423576355, -0.18222106993198395, 0.15777602791786194, -0.16551443934440613, 0.23425427079200745, 0.02941528894007206, 0.07431185990571976, 0.09735359251499176, -0.17490991950035095, 0.11499888449907303, -0.03586863353848457, 0.06754110008478165, -0.1223771721124649, 0.08716952055692673, 0.05527183786034584, -0.22874943912029266, 0.10152973234653473, -0.07361488044261932, -0.22171704471111298, 0.014403937384486198, -0.14109447598457336, 0.0746762678027153, -0.1839384287595749, -0.010543342679738998, -0.02588418684899807, -0.12360616773366928, -0.05460326746106148, 0.26075002551078796, -0.048628389835357666, 0.10423685610294342, -0.11184106767177582, 0.12993745505809784, 0.02208561636507511, 0.2725845277309418, 0.027159331366419792, 0.2037457376718521, -0.14834202826023102, -0.07305175065994263, 0.012493934482336044, -0.023896360769867897, 0.07588589191436768, -0.026424042880535126, -0.269920289516449, -0.10304513573646545, -0.07207303494215012, -0.18571428954601288, 0.11613331735134125, 0.13557761907577515, -0.2872563600540161, 0.13602390885353088, -0.13432973623275757, 0.004249748308211565, -0.1442316472530365, -0.12568500638008118, -0.0979505255818367, -0.16966724395751953, -0.16807733476161957, -0.1058993935585022, 0.030694179236888885, -0.01609492115676403, 0.14349153637886047, -0.15070784091949463, 0.04205610230565071, 0.21913865208625793, -0.07945778220891953, 0.1623971313238144, 0.12180963158607483, -0.16782142221927643, 0.06634631007909775, -0.07845798879861832, -0.014852886088192463, 0.05788372829556465, -0.22525160014629364, -0.03319886326789856, -0.08019597083330154, 0.011408669874072075, 0.06189391762018204, 0.0705832839012146, 0.08609753847122192, -0.11572643369436264, -0.05801420286297798, -0.18479573726654053, 0.12892615795135498, 0.14394250512123108, 0.17038564383983612, -0.14747723937034607, 0.020254764705896378, -0.04597419500350952, -0.1425284892320633, -0.032446324825286865, 0.14261607825756073, -0.10536648333072662, 0.04501665011048317, 0.09541770070791245, 0.06803041696548462, -0.06881792098283768, -0.01750921830534935, -0.11662465333938599, 0.06345843523740768, -0.08165828138589859, 0.1763504594564438, -0.012465878389775753, 0.009379541501402855, -0.013711411505937576, -0.12633714079856873, -0.15310180187225342, 0.017980078235268593, 0.10618043690919876, 0.19828985631465912, -0.15263724327087402, 0.03200014680624008, 0.297139972448349, -0.15829575061798096, 0.07649942487478256, 0.3001653254032135, -0.009086274541914463, -0.07380655407905579, -0.2702063024044037, 0.1419750154018402, -0.026288548484444618, 0.05011853203177452, 0.07200207561254501, -0.12643064558506012, -0.1780516505241394, 0.16192296147346497, 0.07463553547859192, 0.24882224202156067, -0.011696419678628445, -0.1744217872619629, -0.09040850400924683, -0.030360009521245956, 0.02738731913268566, 0.20408004522323608, -0.015283152461051941, 0.17711958289146423, 0.09640727937221527, -0.08185842633247375, 0.18046905100345612, 0.04174394533038139, 0.0635492205619812, -0.014948004856705666, 0.18070068955421448, -0.07017715275287628, 0.019550904631614685, 0.18785463273525238, 0.06466607749462128, -0.09312156587839127, -0.09743641316890717, 0.048042431473731995, -0.009985378012061119, -0.022158632054924965, -0.057371918112039566, -0.17698712646961212, 0.10562772303819656, 0.0732792317867279, 0.1525806039571762, -0.08195412158966064, 0.05090881139039993, 0.0270822886377573, -0.23693977296352386, 0.04461166635155678, 0.21110489964485168, -0.13447831571102142, -0.05236874148249626, -0.16520336270332336, 0.026756517589092255, -0.004499204456806183, 0.010986335575580597, -0.1220167949795723, 0.19604536890983582, -0.1691235899925232, 0.17864373326301575, 0.03990890830755234, 0.13191556930541992, -0.23928235471248627, -0.041613321751356125, 0.018140429630875587, 0.1991712599992752, 0.0866171270608902, 0.047606728971004486, -0.1336965411901474, -0.007039342075586319, 0.10212033987045288, -0.24755947291851044, 0.09684959053993225, 0.11899413168430328, -0.19953560829162598, -0.032830335199832916, -0.01086790207773447, -0.09496667236089706, -0.10271008312702179, 0.1448812484741211, -0.23505455255508423, -0.05530114844441414, -0.028901925310492516, -0.02964296191930771, -0.07058656215667725, 0.06152625381946564, -0.2400449961423874, 0.06018282100558281, 0.11058471351861954, 0.2378765046596527, -0.16155275702476501, -0.17812922596931458, -0.2086465060710907, 0.18023894727230072, -0.11099039763212204, -0.13417769968509674, 0.23266689479351044, -0.113625667989254, -0.16317270696163177, 0.20706018805503845, 0.03764001280069351, 0.1633521020412445, -0.1518528163433075, -0.11310787498950958, -0.051549091935157776, 0.17978711426258087, 0.1873258352279663, 0.271561861038208, -0.11646296083927155, 0.06866580992937088, -0.20314234495162964, 0.0931895449757576, -0.09215167909860611, 0.3099789023399353, -0.07890209555625916, -0.13826993107795715, -0.11308778822422028, 0.269478440284729, 0.12628339231014252, -0.025332344695925713, 0.2927725613117218, -0.09166999161243439, -0.23917023837566376, 0.2520800828933716, 0.025235582143068314, -0.2735428214073181, 0.26940613985061646, 0.023045631125569344, -0.10006482899188995, 0.05728094279766083, 0.03221237286925316, -0.04950392618775368, -0.10977731645107269, 0.04719555750489235, 0.10675637423992157, 0.02791130170226097, 0.14827226102352142, 0.037646856158971786, 0.148374542593956, -0.1943703144788742, -0.057930152863264084, -0.1872653216123581, -0.23777766525745392, -0.21081101894378662, 0.024453438818454742, 0.0018841515993699431, 0.06251047551631927, 0.044560011476278305, -0.05730787292122841, -0.02841743640601635, 0.03471847623586655, -0.12278075516223907, 0.05308905988931656, -0.19471481442451477, 0.023987039923667908, -0.044975459575653076, 0.006688999477773905, 0.07124418020248413, 0.07305555045604706, 0.07620269805192947, 0.18522103130817413, 0.2016223967075348, 0.021366270259022713, -0.01312500610947609, 0.05309884622693062, -0.018044115975499153, 0.08508630096912384, 0.012120446190237999, 0.045756302773952484, -0.14632417261600494, -0.026830384507775307, -0.07326540350914001, -0.12706007063388824, -0.17402483522891998, -0.1670810878276825, -0.19635187089443207, 0.010459929704666138, 0.02444508485496044, -0.007961726747453213, -0.08638741821050644, 0.09685655683279037, 0.18462136387825012, 0.0001490589347667992, -0.10350368171930313, 0.1268654763698578, 0.18786856532096863, -0.044323649257421494, 0.13723228871822357, -0.025393614545464516, -0.131622314453125, 0.08076522499322891, -0.21782246232032776, -0.09892724454402924, 0.13923627138137817, -0.1093161478638649, -0.15992605686187744, -0.07390734553337097, 0.06385946273803711, 0.010809975676238537, 0.022502411156892776, 0.10358505696058273, -0.02911026030778885, -0.08889266848564148, 0.14336055517196655, 0.14481741189956665, 0.12212496995925903, -0.21194522082805634, -0.03714439645409584, -0.12714387476444244, 0.054451484233140945, 0.09891883283853531, -0.08543162792921066, -0.06547896564006805, 0.06604830920696259, 0.04454215243458748, -0.19573146104812622, -0.0804954469203949, 0.02942543290555477, -0.24791239202022552, -0.005130043253302574, -0.1290324628353119, -0.273285835981369, -0.21357771754264832, -0.01912899687886238, -0.028485506772994995, -0.19954100251197815, 0.17268018424510956, 0.01342388242483139, 0.08609221130609512, -0.003001031232997775, -0.1002870500087738, 0.10789556056261063, 0.2363084852695465, 0.21440696716308594, 0.06085716187953949, -0.26092153787612915, 0.04564196988940239, 0.010282104834914207, -0.09923425316810608, -0.19488410651683807, -0.03765001893043518, -0.2883817255496979, -0.11228084564208984, 0.04965988174080849, 0.021494325250387192, 0.09258928149938583, 0.0401303693652153, 0.08914513140916824, 0.06391407549381256, 0.00810636393725872, 0.12166094779968262, 0.1416826695203781, 0.13840758800506592, -0.02800062485039234, -0.04004581272602081, 0.11966301500797272, 0.0019840439781546593, -0.06812568008899689, 0.033508386462926865, -0.22639548778533936, 0.010642294771969318, -0.07538909465074539, -0.19533683359622955, -0.15992164611816406, 0.1252174973487854, -0.18230660259723663, 0.031284015625715256, 0.09176137298345566, -0.08486253023147583, -0.07150022685527802, -0.0370032899081707, -0.18779940903186798, -0.05029022693634033, 0.08677200973033905, 0.012965036556124687, 0.14235278964042664, -0.056822068989276886, -0.14002321660518646, -0.007409888319671154, 0.03413889557123184, 0.27608829736709595, -0.08534090965986252, 0.11031606048345566, -0.08192799240350723, 0.028285840526223183, 0.10448534786701202, -0.23375269770622253, -0.012128143571317196, 0.04053152725100517, -0.1752004325389862, 0.013440992683172226, -0.03788870945572853, 0.21636302769184113, -0.011428331956267357, -0.06071406602859497, 0.04338793084025383, 0.14540177583694458, -0.13381990790367126, 0.16616615653038025, 0.1412433534860611, 0.001882653683423996, -0.0626080334186554, -0.03732902556657791, 0.08201202005147934, 0.02635081112384796, -0.051353175193071365, -0.08282151818275452, -0.003558486234396696, -0.07829447090625763, 0.0016131631564348936, -0.18597838282585144, 0.12203224748373032, 0.16151490807533264, -0.26297053694725037, -0.17600181698799133, -0.12757864594459534, -0.15345969796180725, -0.09248879551887512, -0.10788058489561081, -0.19579917192459106, -0.019701631739735603, -0.08103281259536743, 0.16846749186515808, -0.032304905354976654, -0.026742001995444298, -0.23212909698486328, 0.2640327215194702, -0.01781160570681095, 0.33746224641799927, -0.19685013592243195, -0.07655937224626541, -0.4629736840724945, 0.009241640567779541, 0.37931761145591736, -0.41986915469169617, 0.17613548040390015, 0.21629925072193146, -0.37287524342536926, 0.09708794951438904, 0.30484309792518616, 0.34861651062965393, -0.2568202614784241, -0.26954546570777893, -0.21766488254070282, 0.12017142027616501, -0.21975260972976685, 0.4640290439128876, -0.1767401546239853, -0.2541322112083435, -0.25876882672309875, 0.17555291950702667, 0.278665155172348, 0.43110501766204834, -0.1749512404203415, -0.2949669659137726, -0.3545645475387573, 0.24904750287532806, 0.16293096542358398, -0.48076605796813965, 0.1775778979063034, 0.3246024250984192, -0.36559078097343445, 0.028348317369818687, 0.09861061722040176, -0.296461820602417, 0.13379864394664764, 0.15435709059238434, -0.30776554346084595, 0.19395354390144348, 0.3333987891674042, 0.2569340765476227, -0.07999512553215027, -0.13840608298778534, -0.14363068342208862, 0.03453955054283142, 0.12292897701263428, 0.21056832373142242, 0.07943835109472275, -0.03893403336405754, -0.02293155901134014, -0.0820436105132103, 0.040211472660303116, -0.2140488177537918, -0.31346559524536133, 0.3009210526943207, -0.1981562077999115, -0.25540122389793396, 0.25750732421875, 0.05919736251235008, 0.10542406141757965, -0.2048589438199997, -0.040873073041439056, -0.19851060211658478, 0.13865670561790466, 0.093069888651371, 0.2626217305660248, -0.04022114351391792, -0.03092818334698677, -0.13447916507720947, 0.34707632660865784, 0.15085916221141815, 0.12083016335964203, -0.059381578117609024, -0.10455913096666336, -0.3319818377494812, 0.1468382179737091, -0.21546442806720734, -0.047828879207372665, 0.179896280169487, -0.2893713712692261, -0.22264716029167175, 0.2538040280342102, -0.11808633804321289, -0.1653202325105667, 0.1830841600894928, -0.09377540647983551, -0.23860301077365875, 0.11830923706293106, -0.0317324735224247, -0.039897266775369644, -0.1019582450389862, -0.1597573161125183, -0.00731160631403327, 0.06226399168372154, -0.018611961975693703, -0.1851184070110321, 0.08936132490634918, -0.04932210594415665, 0.21514391899108887, -0.054834816604852676, 8.362318476429209e-05, 0.1763574481010437, -0.0002237933367723599, 0.1392257958650589, -0.021576788276433945, -0.08053483068943024, -0.07497075200080872, -0.04586542025208473, 0.10647347569465637, 0.001547373947687447, 0.14315631985664368, 0.08409775793552399, -0.0661265179514885, 0.007124750409275293, -0.17055931687355042, 0.0019566058181226254, 0.1815357506275177, -0.019673820585012436, 0.09515810012817383, -0.12411265075206757, 0.08312777429819107, -0.12194013595581055, 0.06092671677470207, 0.013602779246866703, 0.044932037591934204, 0.11916018277406693, 0.12400318682193756, 0.015086071565747261, 0.09500665962696075, 0.15887871384620667, -0.006317876745015383, 0.22332952916622162, -0.039916031062603, 0.009247994981706142, 0.08094801008701324, 0.1110086515545845, 0.07990657538175583, -0.04128790646791458, -0.1240626722574234, -0.09339150041341782, -0.00984709057956934, -0.0696847066283226, 0.16808059811592102, 0.17392106354236603, 0.14738668501377106, -0.25495198369026184, -0.22075499594211578, 0.07477016001939774, -0.3741006851196289, -0.05278383195400238, -0.0002957450342364609, -0.3128868043422699, -0.014916066080331802, -0.13448171317577362, 0.2629120945930481, -0.03873220458626747, -0.033061470836400986, -0.12859150767326355, 0.042962100356817245, -0.16236737370491028, 0.3571361005306244, 0.06815759837627411, -0.047317977994680405, -0.3395920693874359, -0.1636342853307724, 0.18620409071445465, 0.21021327376365662, 0.07623177021741867, 0.03101983107626438, -0.15036065876483917, 0.053947340697050095, 0.11509624868631363, -0.32699158787727356, -0.07154811173677444, -0.055071987211704254, -0.3481505215167999, -0.05455151945352554, 0.11321161687374115, -0.3800727128982544, 0.002754088258370757, -0.09306865185499191, -0.2834905683994293, 0.03797825053334236, -0.04133022576570511, 0.11266756802797318, -0.20524448156356812, -0.008742693811655045, 0.032547637820243835, 0.014344854280352592, 0.09155401587486267, -0.04636409878730774, -0.21368131041526794, 0.05108777433633804, 0.05231118202209473, 0.05665423348546028, 0.014280514791607857, 0.06174403429031372, 0.19216491281986237, -0.1256457269191742, -0.06561850011348724, 0.06078626960515976, -0.15680517256259918, 0.043746791779994965, 0.0006030146032571793, 0.14524804055690765, 0.07039971649646759, 0.10751025378704071, 0.012047497555613518, 0.1704251766204834, -0.15577834844589233, -0.05070962756872177, -0.011198396794497967, 0.2061130255460739, -0.14098882675170898, 0.17973996698856354, -0.054321952164173126, -0.06927399337291718, -0.08500710874795914, 0.22793938219547272, -0.15281060338020325, -0.07822859287261963, 0.15863582491874695, -0.14267565310001373, 0.01597108505666256, 0.16854135692119598, 0.03830190375447273, -0.15211188793182373, 0.24185487627983093, -0.13331884145736694, 0.08888181298971176, -0.03738447651267052, -0.17002393305301666, 0.09118736535310745, -0.07042887061834335, -0.08565376698970795, -0.09978443384170532, -0.06881650537252426, -0.08167392760515213, -0.012922394089400768, 0.0939282476902008, -0.0047621834091842175, -0.01672161929309368, -0.03576499596238136, 0.08217012137174606, 0.09683763980865479, -0.10473594814538956, -0.04263300821185112, -0.18128439784049988, -0.07573867589235306, 0.00013579061487689614, 0.0033601648174226284, 0.3414965271949768, -0.2490476667881012, 0.7800672650337219, -0.6959312558174133, 0.030743364244699478, 0.9144095182418823, 0.8760221600532532, -0.4743407368659973, 0.27019354701042175, 0.12964065372943878, -0.4391515851020813, -0.590775728225708, 0.12026097625494003, -0.7696049213409424, 0.20328333973884583, 0.4914220869541168, -0.09442143887281418, 0.4253522455692291, -0.17382605373859406, 0.20621909201145172, 0.19355876743793488, -0.34194228053092957, 0.07805383205413818, -0.007463419809937477, -0.2567801773548126, -0.07284483313560486, 0.18977053463459015, 0.7983126640319824, 0.15390807390213013, 0.17508892714977264, 0.34670180082321167, -0.031418830156326294, -0.07319728285074234, 0.27645939588546753, -0.2978721261024475, 0.08198221027851105, 0.11927151679992676, -0.1886570006608963, -0.16488860547542572, 0.160587340593338, -0.11582441627979279, 0.15334008634090424, 0.11282716691493988, 0.3098822832107544, 0.06176503002643585, -0.0010243706637993455, 0.15876029431819916, 0.1839573234319687, 0.11488598585128784, -0.3649913966655731, -0.06841524690389633, 0.21671058237552643, -0.037873275578022, -0.2992691695690155, 0.025225048884749413, -0.20705236494541168, -0.13596153259277344, -0.22394302487373352, 0.01968470774590969, -0.03895152732729912, 0.12457438558340073, 0.3583994209766388, -0.00801948644220829, -0.13146279752254486, 0.2862741947174072, 0.1363821029663086, -0.1749148815870285, -0.03756829723715782, 0.09174608439207077, -0.11343846470117569, -0.075815349817276, 0.10978860408067703, -0.36973050236701965, -0.15744565427303314, -0.011422667652368546, 0.1839756816625595, 0.10230927914381027, 0.3997625410556793, -0.413362979888916, -0.11354473233222961, -0.1910991072654724, -0.40102946758270264, -0.21460048854351044, 0.0653454065322876, 0.021736277267336845, 0.014400201849639416, 0.27393069863319397, -0.05790748447179794, 0.06097262725234032, 0.35090014338493347, -0.17840363085269928, 0.6174212098121643, 0.13309065997600555, 0.13151733577251434, -0.022426828742027283, -0.1355266124010086, -0.22657401859760284, -0.10716886073350906, 0.11290409415960312, 0.04187346249818802, 0.19060291349887848, 0.2686883211135864, 0.2351781576871872, -0.01907784678041935, 0.22655363380908966, 0.05449876934289932, -0.3082129955291748, -0.1605818122625351, -0.048910874873399734, -0.21606072783470154, 0.2111813873052597, 0.13015349209308624, -0.03893449530005455, 0.2632473409175873, 0.16910938918590546, 0.10550490021705627, -0.4139133393764496, -0.4204702377319336, 0.22357039153575897, 0.23308996856212616, -0.12955744564533234, -0.24159963428974152, 0.11813449114561081, 0.8522003293037415, 0.43677541613578796, -0.0014360015047714114, 0.20519961416721344, -0.15324729681015015, 0.2794969975948334, -0.22080273926258087, 0.35292986035346985, -0.2172715961933136, -0.3103024959564209, 0.1841496378183365, 0.32578378915786743, -0.03347150236368179, 0.1409599483013153, -0.2396450787782669, 0.038438521325588226, -0.4674372673034668, 0.16837619245052338, -0.13570241630077362, -0.09375802427530289, -0.30755746364593506, -0.02300206385552883, 0.05089741572737694, -0.41762804985046387, -0.14955326914787292, 0.26015979051589966, -0.23760521411895752, -0.3087114989757538, -0.03541642799973488, -0.3159123659133911, -0.33201614022254944, 0.1150076687335968, 0.3276345431804657, -0.08978132903575897, 0.023699674755334854, -0.13349232077598572, 0.05879000946879387, -0.2651054859161377, 0.2489631175994873, 0.34816136956214905, -0.2976814806461334, -0.45828381180763245, 0.0985388457775116, 0.3022659420967102, 0.09622756391763687, 0.06127631291747093, 0.20904339849948883, 0.3505168855190277, -0.09967459738254547, 0.4642532765865326, 0.12479770928621292, -0.05719900131225586, 0.06883928179740906, 0.23977720737457275, 0.044799912720918655, -0.4342648386955261, 0.2643873393535614, 0.17682206630706787, -0.36598315834999084, -0.16823112964630127, -0.192067489027977, -0.10446178168058395, -0.31823083758354187, -0.29411718249320984, 0.08822652697563171, -0.309979110956192, 0.28660786151885986, -0.15311236679553986, 0.08932241052389145, 0.21240133047103882, -0.059059254825115204, 0.10695488005876541, 0.13425998389720917, 0.20809271931648254, -0.1200961321592331, -0.1254131942987442, -0.16391892731189728, -0.06870005279779434, -0.37642696499824524, -0.16061173379421234, -0.19608855247497559, -0.16117078065872192, 0.18785971403121948, -0.4078393578529358, -0.04107659310102463, 0.03599417209625244, -0.08619364351034164, 0.07924776524305344, 0.07674343138933182, 0.19372563064098358, -0.01008689310401678, -0.04536382481455803, 0.020759638398885727, 0.34292033314704895, -0.07804355025291443, -0.20375420153141022, -0.13938499987125397, 0.055512573570013046, -0.2644902169704437, -0.32845935225486755, 0.11936648190021515, 0.23033550381660461, -0.30727505683898926, -0.37394779920578003, 0.32620397210121155, 0.16859619319438934, -0.1299351006746292, -0.018340006470680237, -0.10009483247995377, -0.2831661105155945, -0.3604283332824707, -0.21071824431419373, 0.2352570742368698, -0.3119911551475525, 0.2294025719165802, -0.4582180678844452, -0.18678385019302368, -0.02681877836585045, 0.0686703473329544, -0.18518824875354767, -0.04418862983584404, 0.1857071965932846, -0.1355883926153183, 0.07802695035934448, 0.0519353412091732, -0.34984827041625977, 0.040808357298374176, -0.12025472521781921, 0.11489905416965485, 0.08680350333452225, 0.3020194470882416, -0.31832921504974365, -0.013949249871075153, 0.25919094681739807, -0.18363571166992188, 0.32075026631355286, -0.06504751741886139, -0.13437113165855408, 0.23306231200695038, 0.1552247554063797, 0.024133550003170967, -0.12738902866840363, -0.19302380084991455, -0.16395699977874756, -0.367967814207077, 0.12056728452444077, 0.17631764709949493, 0.08152195066213608, -0.09097391366958618, 0.1270364373922348, -0.03260646015405655, 0.6412148475646973, -0.5151157975196838, -0.06737959384918213, 0.21348837018013, 0.1751575917005539, 0.14040416479110718, 0.04759346321225166, -0.30928167700767517, 0.18990208208560944, -0.2795047461986542, -0.12119049578905106, 0.0021105327177792788, 0.18398137390613556, 0.17419932782649994, 0.2420651614665985, -0.09907367080450058, -0.0030260265339165926, 0.23679327964782715, -0.14923186600208282, 0.15712958574295044, 0.1370871514081955, 0.3391185998916626, 0.49113017320632935, -1.0968862771987915, -0.7011907696723938, -0.5336021184921265, -0.22658850252628326, -0.03485159948468208, -0.061229318380355835, 0.7639150619506836, 0.4403294324874878, 0.4035574197769165, 0.325027734041214, -0.2988806962966919, -0.14915308356285095, 0.29423367977142334, 0.13305731117725372, -0.08110987395048141, -0.23826991021633148, 0.013129464350640774, -0.07297968119382858, -0.07341595739126205, -0.12876038253307343, -0.3190527856349945, -0.28757694363594055, -0.014817486517131329, 0.14248789846897125, -0.9246783256530762, -0.4255949854850769, -0.14203131198883057, -0.5489311814308167, -0.14304879307746887, -0.0822959840297699, -0.30798885226249695, 0.0848609134554863, 0.007050924934446812, -0.128342404961586, 0.22070983052253723, 0.1974373310804367, 0.21070143580436707, 0.4410426616668701, 0.023352082818746567, -0.13084030151367188, 0.3410221040248871, 0.24982228875160217, -0.21275849640369415, 0.027014395222067833, 0.013141125440597534, -0.1693717986345291, 0.10165894776582718, 0.3203771710395813, -0.3011634349822998, 0.10285400599241257, 0.11621807515621185, -0.16852110624313354, -0.13561581075191498, 0.42439407110214233, 0.07577812671661377, -0.2608310580253601, -0.2820708751678467, 0.2198788821697235, 0.6021658778190613, -0.11302171647548676, 0.41581493616104126, -0.24458232522010803, -0.36818188428878784, -0.36168837547302246, 0.07564625889062881, 0.29016536474227905, 0.2463586926460266, 0.08401336520910263, -0.32801946997642517, -0.16477258503437042, 0.09668970108032227, 0.3258754312992096, -0.33190613985061646, -0.1794753223657608, 0.48006895184516907, -0.39395299553871155, -0.06427943706512451, 0.4607665240764618, -0.24059151113033295, 0.0478932224214077, 0.4152069687843323, -0.4543633460998535, -0.028280707076191902, 0.21220874786376953, 0.3209495544433594, 0.09807980805635452, -0.08703692257404327, 0.21185579895973206, -0.07687760889530182, 0.03433777019381523, 0.39112040400505066, 0.17798417806625366, -0.044229891151189804, 0.06736592203378677, 0.006973623763769865, 0.09416615962982178, 0.18691855669021606, -0.16516897082328796, -0.0642974004149437, -0.19884075224399567, 0.03850925341248512, 0.1615566611289978, -0.13277959823608398, 0.2963409423828125, 0.06813698261976242, -0.00378632009960711, 0.0915011540055275, 0.010707734152674675, -0.20714645087718964, 0.13937616348266602, 0.09838128089904785, 0.14690753817558289, -0.3352088928222656, 0.022160440683364868, -0.19579799473285675, 0.2737065851688385, -0.13892900943756104, 0.022617720067501068, -0.3760754466056824, 0.1277858465909958, 0.18410007655620575, -0.2647261619567871, 0.1091156154870987, 0.15085192024707794, -0.2142658680677414, -0.008628662675619125, 0.08727376163005829, -0.2300984114408493, 0.10291179269552231, 0.03796202689409256, -0.13960881531238556, 0.08360303193330765, -0.3595775067806244, 0.19494681060314178, 0.06860475987195969, -0.19417159259319305, -0.3315151333808899, -0.0858583152294159, -0.16295543313026428, 0.03788502514362335, -0.11450514197349548, -0.08543873578310013, -0.45526254177093506, -0.3418901562690735, 0.33449700474739075, 0.15878751873970032, 0.014711238443851471, 0.20975323021411896, 0.16463564336299896, 0.17858949303627014, -0.22283771634101868, 0.1730383336544037, -0.11003521084785461, -0.10240784287452698, 0.036585696041584015, 0.4719034731388092, -0.21340671181678772, 0.24747277796268463, 0.0893828347325325, 0.16859175264835358, -0.3158699572086334, -0.026441678404808044, 0.1735871583223343, 0.0698634684085846, 0.3358299732208252, 0.0951378345489502, -0.34757283329963684, -0.17645250260829926, 0.22675390541553497, 0.15574119985103607, 0.17876610159873962, 0.24200834333896637, 0.06810565292835236, 0.02080305851995945, 0.15098652243614197, -0.2829614579677582, -0.24346452951431274, 0.10113512724637985, -0.20222993195056915, 0.16017258167266846, -0.10641703754663467, 0.07869032025337219, 0.09334273636341095, 0.2884451150894165, -0.007131584454327822, -0.021608242765069008, 0.17892949283123016, 0.0284728966653347, 0.030905278399586678, 0.045288488268852234, 0.12113332748413086, -0.02641509845852852, -0.09580247104167938, 0.0151726845651865, 0.1043996512889862, -0.06819814443588257, 0.011840113438665867, -0.4147260785102844, -0.1460818350315094, 0.1630239337682724, -0.09635815024375916, 0.2274346798658371, 0.023619741201400757, -0.10030166804790497, -0.1019534170627594, 0.17056529223918915, 0.10719712823629379, 0.13763725757598877, -0.05497865751385689, 0.010526987724006176, -0.08742588758468628, -0.020964158698916435, -0.06696202605962753, 0.17773570120334625, -0.11798272281885147, 0.0681319460272789, -0.1372242271900177, -0.03195345401763916, 0.17458601295948029, -0.16973040997982025, -0.18517030775547028, 0.13997040688991547, 0.012035093270242214, -0.11731188744306564, 0.06371235847473145, 0.09326013177633286, -0.19433656334877014, -0.17644871771335602, 0.03382604196667671, 0.1495760828256607, 0.0018372335471212864, -0.0988265797495842, 0.1479998677968979, -0.11865922063589096, -0.042083024978637695, 0.3755679130554199, -0.13783679902553558, -0.07166459411382675, -0.1011345237493515, -0.04852106049656868, 0.10551615059375763, 0.10109645873308182, -0.02746571972966194, -0.27950185537338257, -0.036041587591171265, 0.16065798699855804, -0.004222874995321035, -0.12099140882492065, 0.13407592475414276, -0.19696971774101257, -0.06588933616876602, -0.011937656439840794, -0.011938946321606636, -0.21930554509162903, 0.2721155285835266, 0.2940363883972168, 0.18418800830841064, -0.19624872505664825, -0.04540671780705452, -0.0822913646697998, 0.056006498634815216, 0.25530797243118286, 0.09891745448112488, -0.07188834249973297, 0.42635560035705566, -0.08159463852643967, -0.09809113293886185, 0.15571144223213196, -0.041286855936050415, -0.0987694263458252, 0.10909353196620941, -0.14348569512367249, -0.048205677419900894, 0.06843096762895584, 0.1904122680425644, -0.13042567670345306, -0.1325463056564331, -0.25658273696899414, 0.22343480587005615, -0.0372476764023304, -0.1298191100358963, -0.11875744163990021, -0.22907456755638123, -0.35087519884109497, 0.01844617910683155, 0.02073415368795395, 0.029144365340471268, 0.2035975605249405, 0.10248586535453796, -0.006320277228951454, 0.08426658064126968, 0.20282743871212006, 0.4346548616886139, -0.03246485814452171, 0.19312915205955505, 0.19041654467582703, 0.06913862377405167, 0.06677768379449844, 0.16752521693706512, -0.4155685603618622, 0.015918994322419167, 0.22624291479587555, -0.06477894634008408, -0.07045388221740723, -0.2346545308828354, -0.0044839815236628056, 0.1386408656835556, 0.17479948699474335, -0.12258154153823853, 0.0061442237347364426, -0.21535640954971313, 0.14458882808685303, -0.05627189949154854, -0.011708536185324192, 0.2575589716434479, 0.25343817472457886, 0.31761112809181213, 0.3857308030128479, -0.05800887569785118, 0.04206450283527374, 0.03444897383451462, -0.2280585616827011, -0.07674931734800339, -0.07069715112447739, 0.05206558108329773, 0.2784486711025238, -0.10048037022352219, -0.04021766036748886, -0.08524251729249954, 0.0581551194190979, 0.3447495102882385, -0.072806216776371, -0.29046013951301575, -0.11502600461244583, 0.11031946539878845, 0.3734302222728729, -0.36755427718162537, -0.24864685535430908, -0.0509062334895134, -0.07596408575773239, -0.02954242378473282, 0.3485308885574341, 0.39664825797080994, 0.10532259196043015, -0.09761563688516617, 0.18763333559036255, -0.16514535248279572, 0.4762739837169647, 0.1668914556503296, 0.04448208957910538, -0.1334061175584793, -0.08988673239946365, -0.1798425167798996, 0.1991855651140213, 0.2219434231519699, 0.10241982340812683, -0.06080547720193863, -0.04058462753891945, -0.14086982607841492, 0.0962824672460556, -0.5075870156288147, -0.23180697858333588, 0.018324902281165123, -0.391412615776062, -0.039629627019166946, 0.2091042399406433, -0.28473174571990967, -0.03257189318537712, 0.011736273765563965, -0.034874312579631805, 0.053702279925346375, 0.29114124178886414, -0.12628623843193054, 0.14461229741573334, 0.1496332585811615, 0.3971978425979614, 0.06796223670244217, 0.035423487424850464, -0.03226472809910774, -0.37316444516181946, -0.25295642018318176, -0.05149253085255623, 0.022941328585147858, 0.2298073172569275, -0.04269007220864296, -0.10137224197387695, -0.17248179018497467, 0.2441970407962799, -0.020716967061161995, 0.06999128311872482, 0.09080701321363449, 0.21880532801151276, 0.06166836991906166, 0.4522746801376343, -0.05480128154158592, 0.1851310431957245, 0.07203243672847748, 0.04651495814323425, 0.14865541458129883, -0.1620374321937561, -0.17286282777786255, 0.07641124725341797, 0.08312058448791504, 0.1329864263534546, -0.09516652673482895, -0.25161659717559814, -0.1994457095861435, -0.14544591307640076, -0.2500239908695221, -0.16249845921993256, 0.07053911685943604, -0.20796965062618256, 0.13906170427799225, 0.142386794090271, -0.13140806555747986, -0.0725429579615593, -0.1384676843881607, -0.08180800080299377, -0.048946965485811234, 0.06255686283111572, -0.013897591270506382, 0.04019801318645477, -0.1031002327799797, 0.06003222614526749, 0.6452820301055908, -0.28378573060035706, 0.06782274693250656, 0.428769052028656, -0.20740363001823425, -0.3051333427429199, 0.015491094440221786, 0.005010571796447039, -0.19597138464450836, 0.23827168345451355, -0.013714028522372246, 0.05817752704024315, 0.14493688941001892, -0.06629714369773865, 0.0697520524263382, -0.27464187145233154, 0.07440686970949173, 0.09959451109170914, 0.2055608332157135, -0.30411961674690247, 0.009492971934378147, -0.26389527320861816, 0.11068413406610489, -0.19980794191360474, 0.30975472927093506, -0.03528205305337906, 0.008615134283900261, -0.15390007197856903, -0.011705203913152218, -0.25133752822875977, 0.15916603803634644, 0.1365376114845276, -0.10101247578859329, -0.006482712458819151, 0.086280457675457, -0.21318025887012482, -0.049322906881570816, 0.0887707769870758, -0.2832762897014618, 0.11640915274620056, 0.05997331067919731, -0.3465594947338104, -0.008108113892376423, 0.06544249504804611, -0.04703439399600029, -0.4259270131587982, 0.11514086276292801, -0.23401373624801636, -0.010014022700488567, -0.21851177513599396, -0.19938421249389648, -0.23581798374652863, -0.2569139003753662, 0.2594238817691803, 0.2307966649532318, 0.2968745529651642, -0.16679447889328003, -0.2066590040922165, -0.1935444176197052, -0.07158569246530533, 0.2540034055709839, -0.0998915284872055, 0.04567834362387657, 0.19102390110492706, 0.2372094839811325, -0.3481011688709259, 0.38265901803970337, 0.2219070941209793, -0.11943869292736053, 0.15367169678211212, 0.22419220209121704, 0.09713239222764969, -0.11608130484819412, -0.00990818627178669, -0.3912399113178253, -0.154053196310997, -0.0632823258638382, 0.32091107964515686, -0.10044356435537338, -0.18667161464691162, 0.28418663144111633, -0.09946582466363907, -0.276510089635849, 0.2784440219402313, 0.021463241428136826, -0.01822657696902752, 0.2605634927749634, -0.1283583641052246, -0.02033536694943905, 0.17501315474510193, 0.13678449392318726, 0.022703440859913826, 0.05478084459900856, 0.0847420021891594, 0.31505295634269714, 0.10691608488559723, -0.3249029815196991, -0.14067760109901428, -0.2961058020591736, -0.2671317160129547, -0.3140008747577667, 0.19694784283638, 0.10167495906352997, 0.02933936007320881, 0.21821722388267517, -0.08109413087368011, -0.1432923972606659, 0.12764954566955566, 0.07929975539445877, -0.08342581242322922, -0.31407877802848816, 0.3282654285430908, 0.16374972462654114, -0.24077332019805908, -0.20742514729499817, 0.20802569389343262, -0.174503356218338, 0.3632834851741791, 0.19246096909046173, 0.4403837323188782, -0.2970486879348755, -0.1964019238948822, -0.530734121799469, 0.06941213458776474, 0.001552133122459054, 0.31058430671691895, -0.1137641966342926, -0.22012384235858917, 0.2745410203933716, 0.01886683888733387, -0.2041991502046585, 0.32310715317726135, -0.12563380599021912, -0.05246732756495476, 0.4295082092285156, -0.0673329085111618, -0.20010119676589966, 0.4427565634250641, -0.12953083217144012, -0.1900101751089096, -0.2464447319507599, 0.2149411141872406, 0.1638093888759613, 0.10006415843963623, 0.29122406244277954, 0.07835850864648819, 0.023020636290311813, 0.1642644852399826, -0.17393270134925842, 0.3504137396812439, 0.31332841515541077, 0.07957708090543747, -0.11442316323518753, -0.11895281076431274, -0.3276972472667694, 0.2531837224960327, -0.030942197889089584, 0.17205563187599182, -0.047641295939683914, -0.08818650990724564, 0.3727071285247803, 0.020670445635914803, -0.21498531103134155, 0.1605425924062729, -0.14898470044136047, -0.18771754205226898, 0.13146375119686127, -0.032140739262104034, 0.18511468172073364, -0.027429599314928055, -0.2596278786659241, -0.2848568558692932, -0.14971061050891876, 0.19469189643859863, 0.2684033215045929, -0.09287350624799728, 0.1408231407403946, -0.2151826173067093, -0.3790181279182434, 0.12388533353805542, -0.10008062422275543, -0.04232407361268997, 0.10833440721035004, 0.08381937444210052, -0.16328835487365723, 0.24830737709999084, 0.09010354429483414, 0.06680069118738174, -0.0026450487785041332, -0.0849929228425026, 0.03815809264779091, -0.33394932746887207, -0.12921839952468872, -0.11410301178693771, -0.2946315109729767, -0.05059734359383583, -0.04300369694828987, -0.1088208258152008, -0.2001160979270935, 0.1285352110862732, -0.1392352432012558, -0.0152377774938941, 0.0944889560341835, 0.033734362572431564, 0.01248764619231224, -0.2417016476392746, 0.12621960043907166, 0.10698024183511734, -0.16604788601398468, -0.2986949682235718, 0.11762656271457672, -0.019625138491392136, 0.381465345621109, 0.16427560150623322, -0.0315825417637825, -0.1863338053226471, -0.11739333719015121, 0.15992972254753113, 0.21233995258808136, -0.029422186315059662, 0.0806729719042778, -0.2705775797367096, -0.11446439474821091, 0.0046627698466181755, -0.1687309592962265, -0.03126167505979538, 0.06261271238327026, -0.10964691638946533, -0.011875380761921406, 0.1488814651966095, -0.05636071786284447, 0.06795170903205872, -0.03917764499783516, -0.21501800417900085, -0.06421814113855362, -0.11206873506307602, 0.16371950507164001, -0.027325890958309174, 0.012031828053295612, -0.24151761829853058, -0.34142500162124634, 0.00970956590026617, 0.2565343677997589, -0.17424282431602478, -0.36893409490585327, -0.10664865374565125, -0.03686438128352165, 0.11923915147781372, 0.015586534515023232, -0.1435401439666748, 0.12091462314128876, -0.11644018441438675, 0.16512329876422882, 0.6074932217597961, 0.12001064419746399, 0.07741586863994598, -0.1468350887298584, -0.2902098298072815, 0.024500707164406776, 0.38268837332725525, -0.042582135647535324, 0.18998567759990692, -0.21714913845062256, 0.10361835360527039, -0.3065747022628784, 0.0013985850382596254, -0.21601320803165436, 0.025409961119294167, 0.12579530477523804, 0.1041971743106842, -0.04719255492091179, 0.16306275129318237, 0.2630901038646698, -0.05571729689836502, -0.04612256959080696, 0.06836621463298798, -0.04336762800812721, 0.2067924588918686, 0.005573712754994631, -0.1736586093902588, 0.0512160062789917, -0.2173662632703781, -0.16911581158638, 0.11004035174846649, 0.024997342377901077, 0.316667377948761, 0.0540325865149498, -0.3281082808971405, 0.11114002019166946, -0.06289106607437134, -0.14568516612052917, -0.038758885115385056, -0.26025140285491943, 0.003220447339117527, -0.0037086266092956066, 0.0503549799323082, 0.14892913401126862, 0.13537834584712982, -0.08558224141597748, 0.23737646639347076, -0.02709963731467724, 0.360941082239151, -0.0537966787815094, -0.16462425887584686, 0.00825597159564495, -0.20251424610614777, -0.01716923899948597, 0.0028705343138426542, 0.06138361990451813, -0.18649426102638245, -0.15098360180854797, -0.09514836221933365, -0.0038089114241302013, -0.037721212953329086, -0.18181996047496796, 0.08160828799009323, 0.22021469473838806, 0.05001894384622574, 0.1525135636329651, -0.1357049196958542, 0.12327425926923752, 0.04335580766201019, -0.06809132546186447, 0.015117351897060871, -0.08419826626777649, 0.0862412229180336, 0.09905616194009781, 0.1475619077682495, -0.13098083436489105, -0.010981658473610878, -0.09431342035531998, 0.10265769809484482, 0.16567502915859222, 0.1519777625799179, 0.213988795876503, 0.6619156002998352, 0.09665833413600922, -0.008013999089598656, -0.1150047779083252, -0.07678910344839096, 0.0895226001739502, 0.1154753789305687, 0.2800518274307251, 0.0036976991686969995, -0.04622877761721611, 0.2642776072025299, 0.10737164318561554, 0.36852240562438965, 0.020124420523643494, 0.07406801730394363, -0.09299151599407196, -0.32559534907341003, -0.30998316407203674, 0.42563435435295105, -0.6730453968048096, 0.31199368834495544, -0.7467721700668335, -0.2185891717672348, -0.9006980061531067, 0.6708971261978149, -1.1126599311828613, -0.6320949196815491, -0.6493932604789734, 0.06604848057031631, -0.8483170866966248, -0.10384460538625717, -0.9806274175643921, 0.13129228353500366, -0.16171906888484955, -0.03187686204910278, 0.30608218908309937, -0.02036440558731556, -0.13432343304157257, -0.15743643045425415, 0.1519426703453064, -0.14652086794376373, 0.014666404575109482, -0.0381038673222065, 0.10684565454721451, -0.017726965248584747, 0.24391090869903564, 0.016670240089297295, -0.05926848575472832, -0.23918037116527557, 0.09253671020269394, -0.09729703515768051, -0.13435521721839905, -0.21011696755886078, 0.13164794445037842, -0.2662229835987091, -0.3592444062232971, 0.19342289865016937, -0.21284648776054382, 0.1536339968442917, 0.3228115141391754, 0.017359260469675064, -0.11394689977169037, 0.12203101813793182, 0.2741575539112091, -0.32723143696784973, -0.27262091636657715, 0.12042302638292313, 0.31936168670654297, -0.04071914777159691, 0.19084186851978302, -0.03646954521536827, 0.01084994524717331, 0.029759805649518967, -0.07799042016267776, -0.28686296939849854, -0.13122595846652985, -0.080474853515625, 0.1134851723909378, 0.1621178835630417, 0.13050825893878937, 0.05968242138624191, 0.18662498891353607, -0.17346294224262238, -0.267935574054718, 0.11738523840904236, -0.05092222988605499, -0.042141083627939224, -0.14384527504444122, -0.1513737291097641, 0.13264471292495728, 0.26783880591392517, 0.28514304757118225, 0.31565994024276733, -0.25198373198509216, -0.13476598262786865, 0.029288694262504578, 0.46664538979530334, -0.09892836213111877, -0.10666041821241379, -0.0708041563630104, 0.03960789740085602, -0.07926179468631744, 0.0043820664286613464, 0.33697521686553955, 0.09739949554204941, -0.013735737651586533, -0.3498871624469757, 0.06336307525634766, -0.4539514183998108, 0.11602509021759033, -0.016436927020549774, -0.1911531388759613, -0.013551191426813602, -0.06461861729621887, -0.3522112965583801, -0.07099743187427521, -0.04102599248290062, -0.32540395855903625, -0.059532031416893005, 0.07789101451635361, 0.17787335813045502, 0.18951231241226196, -0.2189381867647171, -0.2979142665863037, -0.3696199953556061, 0.14014597237110138, -0.09869694709777832, -0.1062600165605545, -0.017770525068044662, -0.423276424407959, -0.3758150041103363, -0.31800898909568787, -0.1974651962518692, 0.2146337479352951, -0.4141402244567871, -0.23286405205726624, 0.059430476278066635, 0.1036701500415802, -0.2784704566001892, 0.13811762630939484, 0.21554982662200928, -0.09113607555627823, -0.25269076228141785, 0.3227156400680542, 0.13584423065185547, 0.2837052643299103, -0.27303728461265564, -0.041821710765361786, 0.016258882358670235, -0.07666388154029846, -0.21705785393714905, 0.08774259686470032, -0.14945106208324432, 0.4116157293319702, -0.2396567314863205, -0.006991808768361807, -0.201515793800354, 0.018103349953889847, -0.08849353343248367, 0.12223596125841141, -0.1623232513666153, 0.15602177381515503, -0.17487624287605286, -0.036012906581163406, 0.0009909170912578702, -0.15600211918354034, 0.06202997639775276, -0.04231667518615723, 0.03561297431588173, -0.028519632294774055, 0.24941149353981018, -0.15105828642845154, -0.10590241849422455, 0.14181818068027496, 0.021428225561976433, 0.24823416769504547, -3.650286089396104e-05, 0.06382457911968231, -0.007318076211959124, -0.0309438519179821, 0.007132920436561108, 0.035510048270225525, -0.06735124439001083, -0.2959025800228119, -0.2359778732061386, 0.12276989221572876, 0.2641982436180115, 0.3313250243663788, 0.3412405848503113, -0.20023104548454285, 0.023072322830557823, 0.04755721986293793, -0.3585336208343506, -0.23281607031822205, -0.05626374110579491, 0.13895191252231598, 0.24913524091243744, -0.11191590875387192, 0.09519150108098984, -0.028301633894443512, 0.30408215522766113, 0.15215322375297546, -0.11477385461330414, 0.11523450911045074, 0.13642942905426025, 0.0947692021727562, -0.13223707675933838, 0.028247226029634476, 0.08937440067529678, 0.033876072615385056, -0.22532795369625092, -0.18351733684539795, -0.03917432203888893, -0.10326991230249405, 0.030082538723945618, 0.20097655057907104, -0.22666987776756287, 0.1930849701166153, 0.2852092683315277, -0.19285404682159424, 0.21147364377975464, -0.16378842294216156, 0.27076420187950134, -0.0656813234090805, -0.1715187132358551, -0.2089264690876007, -0.2865477502346039, -0.034029457718133926, 0.03337649255990982, 0.055503614246845245, -0.10541751235723495, -0.019294025376439095, -0.24337199330329895, -0.029217615723609924, -0.02787330187857151, -0.12489194422960281, 0.41138628125190735, -0.34440624713897705, 0.14356699585914612, -0.024325689300894737, 0.14519675076007843, 0.10588724166154861, -0.32540401816368103, -0.0004955669865012169, -0.04098351299762726, -0.13452927768230438, 0.0566936656832695, 0.20272454619407654, 0.3301866054534912, 0.4029667377471924, 0.0615769624710083, -0.2107550948858261, 0.167494997382164, 0.3343184292316437, 0.032250888645648956, -0.01944955810904503, 0.5043047666549683, 0.5030485987663269, 0.052627887576818466, -0.006166595499962568, 0.13762865960597992, -0.26504799723625183, 0.27537885308265686, 0.22715146839618683, 0.03037400171160698, 0.11036180704832077, -0.3323490023612976, -0.449404776096344, -0.3474527597427368, 0.338871568441391, -0.16065613925457, -0.13061070442199707, 0.05826949700713158, -0.3371473550796509, 0.00988172646611929, 0.288987934589386, -0.06655927002429962, -0.03398146852850914, -0.06959616392850876, 0.07391548901796341, 0.19597364962100983, -0.23241984844207764, 0.016593802720308304, 0.17012979090213776, -0.2953048348426819, 0.37241849303245544, -0.23153914511203766, -0.2770153284072876, 0.07513142377138138, 0.04428057000041008, 0.5052647590637207, -0.33048421144485474, -0.008539720438420773, 0.3430182933807373, 0.2035059928894043, 0.3156014382839203, 0.09007178246974945, -0.07988987118005753, 0.2219054102897644, -0.39191582798957825, -0.07711542397737503, -0.3291769325733185, 0.013181749731302261, 0.27779537439346313, 0.2053869664669037, -0.09134958684444427, -0.18984480202198029, -0.14569298923015594, -0.24658355116844177, -0.08621999621391296, 0.11029186844825745, -0.1573946624994278, -0.3188856542110443, 0.025768905878067017, 0.02936420775949955, -0.04210818558931351, 0.24893219769001007, 0.03566699102520943, 0.0606413409113884, 0.10109768062829971, -0.0364210344851017, -0.06978926807641983, -0.08106104284524918, 0.14863260090351105, 0.011350073851644993, 0.2429199367761612, 0.00046421450679190457, -0.2681153118610382, -0.1564517766237259, 0.16031914949417114, 0.03165303170681, 0.08729063719511032, 0.03666296601295471, 0.07561029493808746, -0.2580472528934479, -0.037672851234674454, -0.15362656116485596, -0.13747160136699677, 0.22984370589256287, 0.04285484552383423, -0.038661662489175797, 0.1421436220407486, -0.032565321773290634, -0.336928129196167, 0.15491023659706116, -0.04947398602962494, 0.30612713098526, -0.05092561990022659, 0.04662434384226799, 0.20083563029766083, -0.27297621965408325, -0.11359386146068573, -0.35038846731185913, 0.07656970620155334, -0.09251227229833603, -0.02716691605746746, 0.12033470720052719, -0.26355525851249695, -0.40362200140953064, -0.1555989682674408, 0.052260663360357285, 0.03535402938723564, -0.2167130410671234, 0.02351144142448902, -0.01519625261425972, -0.01056976243853569, -0.013655981980264187, -0.04757419973611832, -0.0356304831802845, -0.1900053173303604, 0.13594338297843933, -0.43487781286239624, 0.2748795747756958, -0.256844699382782, -0.450694739818573, 0.18591903150081635, 0.031053615733981133, -0.1314258873462677, -0.09171047806739807, 0.14476415514945984, 0.1608893871307373, 0.07364560663700104, 0.16286078095436096, -0.018612772226333618, -0.06068692356348038, 0.10599542409181595, -0.2996409833431244, 0.10003340244293213, 0.1779380887746811, -0.1435306817293167, 0.17653660476207733, 0.17097264528274536, -0.18308387696743011, 0.08569228649139404, -0.3686490058898926, 0.15430791676044464, 0.1579003632068634, -0.015210842713713646, 0.11320239305496216, -0.14297105371952057, 0.09289886057376862, -0.17946414649486542, -0.37461748719215393, -0.10064367204904556, 0.03459664806723595, 0.23079703748226166, 0.053091906011104584, -0.006928589660674334, 0.27731361985206604, -0.33229002356529236, -0.08249980211257935, 0.07235777378082275, -0.0028520820196717978, -0.2143179476261139, -0.1342536211013794, 0.14603540301322937, -0.01827901042997837, -0.06145626679062843, 0.055908069014549255, 0.20157010853290558, 0.2615981101989746, 0.10024970769882202, 0.24901165068149567, 0.008427182212471962, -0.006246120668947697, -0.04383534938097, 0.165542870759964, 0.21052736043930054, 0.29005861282348633, 0.19484248757362366, -0.5343812108039856, 0.055647026747465134, 0.14736133813858032, -0.12002464383840561, -0.05077683925628662, -0.0015694360481575131, 0.10490813851356506, -0.04223340377211571, 0.03294730186462402, -0.19690151512622833, -0.08113577961921692, 0.2057286649942398, 0.04362506419420242, -0.1900697946548462, -0.19265450537204742, -0.005493335425853729, -0.007654097862541676, 0.05236721783876419, -0.21327219903469086, -0.010556782595813274, 0.27987900376319885, -0.08930663019418716, 0.05878129228949547, -0.1412777602672577, 0.22019223868846893, 0.09381053596735, -0.1990584433078766, 0.1555280238389969, 0.10903073847293854, -0.15879100561141968, -0.06790424138307571, -0.027230221778154373, 0.040649525821208954, -0.1398734748363495, -0.1353389322757721, 0.19147025048732758, 0.12572123110294342, -0.05285162478685379, -0.20691004395484924, -0.06503672897815704, -0.01180809736251831, 0.0699227824807167, 0.04422939196228981, 0.15216216444969177, 0.0331517830491066, -0.15206018090248108, -0.30645355582237244, -0.5067728757858276, 0.12970982491970062, 0.26106563210487366, -0.06060637906193733, 0.16884225606918335, 0.07814321666955948, -0.1329462230205536, 0.04936755448579788, 0.027858518064022064, -0.0562676340341568, 0.05228656902909279, 0.15946802496910095, 0.13786296546459198, 0.016946516931056976, -0.09988393634557724, 0.10313877463340759, -0.128513365983963, -0.054028477519750595, 0.10341458022594452, 0.06792983412742615, -0.18674391508102417, 0.14078566431999207, -0.05514252930879593, -0.10188577324151993, -0.19718985259532928, 0.5698931813240051, 0.2722892761230469, -0.13908088207244873, 0.02224741317331791, 0.25238361954689026, -0.1474289894104004, -0.10313918441534042, -0.007566062733530998, -0.02577013149857521, -0.0591888390481472, 0.10076680779457092, -0.04693806916475296, -0.19324138760566711, -0.10941585153341293, -0.12306369841098785, -0.07033737748861313, -0.03406868502497673, -0.07927203178405762, 0.0222718995064497, 0.07776016741991043, 0.06789509952068329, 0.09954948723316193, -0.29582318663597107, -0.08427820354700089, 0.07087741792201996, 0.07856359332799911, -0.14586466550827026, -0.10642249137163162, 0.19058164954185486, -0.19783498346805573, -0.1405414640903473, 0.2091432809829712, -0.09062769263982773, -0.1912418156862259, -0.013023434206843376, -0.1573997586965561, 0.1426488757133484, 0.05491331219673157, 0.2827526032924652, 0.12006302177906036, -0.18491846323013306, -0.10948725789785385, -0.15645194053649902, -0.061491575092077255, -0.1308877319097519, 0.21477320790290833, -0.06455770134925842, -0.11858084797859192, 0.1773601472377777, -0.19933566451072693, 0.07351678609848022, -0.015520503744482994, -0.07481711357831955, -0.042305443435907364, -0.15960513055324554, 0.015995429828763008, 0.3830079138278961, -0.2521921694278717, -0.18393351137638092, 0.20344723761081696, -0.08727581053972244, 0.044463079422712326, -0.04233044385910034, -0.044048141688108444, -0.10709311068058014, 0.11863681674003601, 0.21636095643043518, 0.10868042707443237, -0.13503843545913696, 0.01960228569805622, -0.10412957519292831, -0.2626104950904846, 0.10718110203742981, 0.2849298119544983, 0.01876058802008629, 0.030020125210285187, 0.2386099398136139, -0.05639215558767319, 0.13832980394363403, 0.029710743576288223, -0.1791389435529709, -0.16723759472370148, 0.18874873220920563, 0.015064000152051449, -0.10143949091434479, -0.12258340418338776, -0.028250975534319878, 0.02279623970389366, -0.11299493163824081, 0.09735287725925446, -0.2244303673505783, -0.05756739526987076, -0.12062118202447891, -0.082551971077919, -0.10874466598033905, 0.03588494285941124, -0.30004939436912537, 0.08026229590177536, 0.0303877554833889, -0.05859345197677612, -0.003499794052913785, 0.07352767139673233, 0.005407142918556929, -0.007835335098206997, -0.17200012505054474, -0.0063742781057953835, 0.14112339913845062, -0.16555555164813995, 0.05092940852046013, 0.06645739078521729, 0.0366809144616127, 0.3519701063632965, 0.21608512103557587, -0.04830550774931908, -0.17133104801177979, -0.018471360206604004, 0.1521952748298645, -0.06751645356416702, 0.13479262590408325, 0.1538185328245163, -0.5223544836044312, -0.2957257330417633, -0.1602274477481842, 0.0751880630850792, -0.1799587458372116, 0.01136583648622036, 0.01393882092088461, -0.22711990773677826, 0.1385175585746765, 0.020910434424877167, -0.19512878358364105, -0.10254409909248352, -0.23633714020252228, 0.10098881274461746, -0.052481237798929214, 0.10010949522256851, -0.019899709150195122, -0.06917371600866318, 0.3104095160961151, 0.006098191719502211, -0.41159242391586304, -0.174057736992836, -0.2030438631772995, 0.39828482270240784, -0.36227917671203613, 0.05757387727499008, -0.3302265405654907, -0.4712270200252533, 0.10621670633554459, 0.33192428946495056, 0.17906029522418976, 0.15390010178089142, -0.27866747975349426, 0.2845999300479889, -0.05428691208362579, -0.24943137168884277, -0.43924301862716675, -0.32360222935676575, 0.14393030107021332, 0.21379433572292328, -0.042862195521593094, -0.20974498987197876, -0.2572866976261139, 0.3236829936504364, 0.1513751745223999, -0.11045312136411667, -0.36914244294166565, 0.25785917043685913, -0.2665312886238098, 0.01837555132806301, -0.04049525409936905, -0.36489346623420715, 0.20201462507247925, 0.12743067741394043, -0.3342520296573639, 0.11902904510498047, 0.34055978059768677, -0.4244406521320343, 0.392864853143692, 0.2631809115409851, 0.2809102237224579, 0.29827022552490234, -0.43387237191200256, 0.2738278806209564, -0.065135158598423, -0.3263123035430908, 0.0941559299826622, -0.23612286150455475, -0.12287793308496475, 0.05979667231440544, -0.007135910447686911, 0.42363306879997253, -0.13514511287212372, -0.2484554946422577, -0.4927113354206085, -0.16634289920330048, 0.15370924770832062, 0.2568475306034088, 0.041895728558301926, 0.013089961372315884, -0.10235197097063065, 0.17221570014953613, -0.0658569484949112, -0.22198790311813354, 0.11527588963508606, -0.11361490190029144, 0.07850158959627151, 0.24062830209732056, -0.1272733062505722, -0.16642950475215912, -0.13905660808086395, -0.09986138343811035, 0.16215814650058746, 0.13734914362430573, 0.029121164232492447, 0.49903956055641174, -0.2684580683708191, -0.13537383079528809, -0.17305278778076172, -0.11329136043787003, 0.12744463980197906, 0.09021112322807312, -0.3122379183769226, 0.09024833142757416, 0.037932563573122025, -0.1308804303407669, 0.14943595230579376, 0.39009419083595276, 0.1600465476512909, 0.0802655816078186, -0.15625444054603577, 0.3280980885028839, 0.12490198761224747, -0.09371665120124817, -0.3529011011123657, -0.2658383250236511, -0.30369314551353455, -0.04099445790052414, 0.20910747349262238, 0.14561426639556885, -0.7253333926200867, -0.4239208996295929, 0.09440011531114578, -0.17906400561332703, -0.1700461506843567, -0.10573112964630127, 0.17302893102169037, 0.09237293899059296, -0.01635710336267948, -0.0057610380463302135, 0.05068409442901611, -0.28519293665885925, -0.3310597836971283, -0.12366344034671783, -0.31345123052597046, 0.005182455759495497, -0.19433917105197906, -0.19888655841350555, -0.14044882357120514, -0.16204918920993805, 0.1356077492237091, 0.17316004633903503, -0.07846102863550186, 0.2228909283876419, -0.12963905930519104, 0.018570518121123314, 0.0732128769159317, -0.06497526168823242, 0.07751008868217468, -0.023426048457622528, -0.06169768422842026, -0.12031944841146469, -0.054720763117074966, 0.03436783328652382, -0.17882362008094788, 0.09490891546010971, -0.11764051020145416, 0.02318625897169113, -0.1834907829761505, 0.20949378609657288, 0.05501313507556915, -0.11164813488721848, -0.047731347382068634, -0.07355420291423798, -0.053883884102106094, 0.08742295950651169, -0.022190481424331665, 0.14884807169437408, -0.1863078624010086, -0.31678977608680725, 0.2532635033130646, 0.1412029266357422, -0.09480210393667221, 0.06394127011299133, 0.041470129042863846, -0.05653487145900726, 0.14237043261528015, -0.11962835490703583, 0.14747148752212524, 0.016416536644101143, 0.010495667345821857, -0.27989625930786133, -0.1260855346918106, -0.3209913969039917, 0.27162057161331177, 0.15262337028980255, 0.0977325513958931, -0.03290156275033951, -0.07188291847705841, 0.11777807027101517, 0.19895923137664795, -0.009968798607587814, 0.04543187841773033, -0.28119781613349915, 0.1521172672510147, 0.1973249316215515, -0.28934064507484436, 0.033764325082302094, 0.1618639975786209, -0.22953703999519348, -0.08428240567445755, 0.28891292214393616, -0.28640812635421753, -0.027512315660715103, -0.21210069954395294, 0.43071267008781433, -0.03257545083761215, -0.15095825493335724, -0.08470063656568527, 0.09177345782518387, 0.08145277947187424, -0.10537002235651016, -0.054358579218387604, -0.06063925847411156, 0.06567418575286865, 0.2830975353717804, -0.11334735155105591, 0.04227878153324127, 0.026299869641661644, -0.24097490310668945, -0.009179433807730675, 0.1716914176940918, 0.24227970838546753, 0.044622503221035004, -0.1521712988615036, 0.05291173607110977, -0.044205524027347565, -0.16533535718917847, -0.07279522716999054, 0.2837252914905548, 0.14291365444660187, 0.1945103257894516, -0.06023809686303139, -0.136186420917511, -0.3033228814601898, -0.17241576313972473, -0.18718935549259186, -0.06912855058908463, 0.11896359920501709, 0.30768078565597534, -0.3595937490463257, -0.03250107169151306, -0.031609129160642624, -0.02377895638346672, -0.1774953156709671, 0.18603582680225372, -0.0497858002781868, -0.0020723880734294653, 0.10765980184078217, -0.17016561329364777, -0.2021576464176178, 0.17905335128307343, -0.04567831754684448, -0.31574973464012146, -0.10986471176147461, 0.06592817604541779, -0.05401512607932091, -0.2366822361946106, -0.048505913466215134, -0.01297714188694954, 0.1413288116455078, 0.15780673921108246, -0.06604501605033875, -0.30169737339019775, 0.20894746482372284, -0.1787119060754776, -0.14431630074977875, 0.00044712048838846385, 0.13156366348266602, -0.046715524047613144, 0.1466434746980667, 0.14994032680988312, 0.07980570942163467, -0.009899657219648361, -0.009932384826242924, 0.023614753037691116, 0.12264581769704819, 0.35897788405418396, -0.28874003887176514, 0.11260960251092911, -0.20716418325901031, -0.10170427709817886, 0.009779693558812141, -0.039444450289011, 0.10720029473304749, -0.038120634853839874, -0.28701597452163696, -0.17758210003376007, 0.13032101094722748, 0.39461764693260193, 0.005594218615442514, -0.014418893493711948, 0.1568330079317093, 0.08781765401363373, -0.046697963029146194, 0.2851807773113251, -0.1023482009768486, -0.0998406782746315, 0.3990931212902069, 0.1944442242383957, -0.046278491616249084, -0.10781853646039963, -0.022492796182632446, 0.18926896154880524, -0.029661918058991432, 0.13764549791812897, -0.02783084847033024, -0.04870454594492912, -0.03495486453175545, 0.5281639695167542, -0.42882707715034485, -0.06838978826999664, 0.18765485286712646, -0.0012983822962269187, 0.04905968904495239, 0.029169287532567978, -0.21974420547485352, 0.18110716342926025, -0.3699265122413635, 0.3275490701198578, 0.08429375290870667, -0.2380336970090866, 0.20203125476837158, -0.15215666592121124, 0.3700033724308014, -0.5988237857818604, 0.06876687705516815, -0.18956449627876282, 0.3920535147190094, -0.1532561480998993, -0.11168917268514633, 0.05458970367908478, -0.05539324879646301, 0.6770695447921753, -0.651272177696228, 0.10299307852983475, 0.07973849773406982, -0.07506533712148666, -0.1562158614397049, 0.03287098929286003, -0.07131408900022507, 0.0329165905714035, 0.11457470059394836, -0.14931568503379822, -0.0059994058683514595, -0.18129050731658936, 0.2583070695400238, -0.20778129994869232, -0.8130561709403992, 0.7239835262298584, -0.03737100958824158, -0.1527068316936493, 0.12736839056015015, 0.10888884961605072, 0.16666767001152039, 0.03292566165328026, 0.16845595836639404, 0.08177131414413452, 0.012003932148218155, -0.06188400089740753, 0.25939926505088806, 0.41201120615005493, 0.05762453004717827, -0.1227816790342331, -0.175516277551651, 0.05527966469526291, -0.04162626713514328, -0.18493466079235077, -0.3901205062866211, 0.12093870341777802, 0.06904330849647522, -0.26909467577934265, -0.03933897241950035, 0.07700148224830627, -0.29896461963653564, -0.029353341087698936, -0.025415070354938507, 0.13410528004169464, -0.01733194850385189, -0.15880630910396576, 0.053777869790792465, 0.016022277995944023, -0.05124254152178764, 0.13647693395614624, 0.08350607007741928, 0.16742752492427826, -0.15131688117980957, -0.1014610007405281, -0.01607631705701351, -0.0898660346865654, -0.053583670407533646, -0.06597578525543213, 0.001763195381499827, -0.08737467229366302, -0.13365605473518372, 0.05663052201271057, -0.022135872393846512, -0.08057749271392822, 0.02145976759493351, 0.06749199330806732, 0.07665961235761642, -0.23036453127861023, 0.2634374499320984, 0.028223196044564247, -0.1414223611354828, -0.2261131852865219, -0.09303635358810425, 0.43879809975624084, 0.31041935086250305, 0.5723450779914856, 0.227870911359787, -0.39643529057502747, 0.10910813510417938, 0.21690744161605835, 0.2424905002117157, 0.11289601773023605, -0.18243463337421417, 0.356650710105896, -0.07635357230901718, -0.22892309725284576, -0.12159313261508942, -0.002857621293514967, 0.15593641996383667, 0.25495803356170654, -0.08338291198015213, 0.015793390572071075, -0.16474542021751404, 0.1443982720375061, 0.13300174474716187, -0.3553105294704437, -0.4091438949108124, 0.292243093252182, 0.008115831762552261, 0.11618336290121078, 0.22486534714698792, -0.40672698616981506, 0.17189761996269226, 0.2415643334388733, -0.388616144657135, 0.20593677461147308, 0.04766301065683365, -0.1717505306005478, 0.34802746772766113, 0.04993297904729843, 0.4717899262905121, 0.14199315011501312, -0.3014691174030304, 0.19675512611865997, -0.1008632630109787, -0.04637915641069412, 0.1592259705066681, 0.04215477779507637, 0.1726863831281662, -0.024929229170084, 0.008366883732378483, 0.2738528549671173, -0.001244289567694068, -0.01673176698386669, 0.011934852227568626, 0.13113251328468323, 0.06091669201850891, -0.050137992948293686, -0.21203306317329407, -0.0901293158531189, -0.19265346229076385, 0.08182978630065918, -0.19583949446678162, -0.6540951132774353, 0.8552417159080505, 0.3049277365207672, -0.5408395528793335, -0.07249157130718231, -0.12901414930820465, 0.14874325692653656, 0.5636021494865417, -0.7364883422851562, 0.943244993686676, 0.8979707956314087, -0.11505458503961563, -0.43046092987060547, 0.34162458777427673, -0.4981587827205658, -0.014892597682774067, 0.017732111737132072, 0.003542376449331641, -0.2229764461517334, 0.08722694218158722, 0.13279911875724792, 0.10943502932786942, -0.10867194831371307, -0.03715735673904419, 0.21209685504436493, 0.43118488788604736, -0.003118986962363124, -0.34449082612991333, 0.3758526146411896, -0.2580814063549042, -0.2828431725502014, 0.10897409170866013, -0.21663954854011536, -0.19276681542396545, 0.13971929252147675, 0.3148306608200073, 0.1617535799741745, 0.037004537880420685, -0.6715708374977112, -0.5921773910522461, -0.028249140828847885, -0.1385641247034073, -0.29877230525016785, 0.09790251404047012, 0.3689277470111847, 0.033399797976017, -0.36552610993385315, 0.33037376403808594, -0.4362420439720154, -0.08620237559080124, -0.17758426070213318, 0.3564482629299164, -0.23674915730953217, -0.0943601131439209, 0.01956324651837349, 0.1328638792037964, 0.015523397363722324, -0.6898426413536072, 0.1493666172027588, 0.873507559299469, -0.27014657855033875, 0.3007044792175293, 0.09489145874977112, 0.12877866625785828, 0.1509171575307846, 0.17848433554172516, -0.03986780717968941, -0.40680357813835144, 0.20578494668006897, -0.23474104702472687, 0.3332318365573883, 0.18479982018470764, -0.06280583888292313, 0.14275628328323364, 0.09144845604896545, -0.05174632743000984, 0.13791444897651672, 0.13052596151828766, 0.05605284869670868, -0.06952031701803207, 0.025065025314688683, 0.305626779794693, -0.025570156052708626, 0.34243541955947876, -0.18422093987464905, -0.024471521377563477, -0.15987622737884521, 0.037386178970336914, -0.11158009618520737, -0.04653129726648331, -0.13743463158607483, -0.3462179899215698, -0.040509991347789764, 0.37426823377609253, -0.3087659478187561, -0.27486199140548706, 0.21825003623962402, 0.021681590005755424, -0.07216037064790726, -0.14919357001781464, -0.3172357976436615, 0.3658239543437958, 0.05639777332544327, -0.19555112719535828, 0.02549736388027668, -0.049238722771406174, 0.2894076406955719, -0.050375089049339294, 0.532535970211029, 0.49423545598983765, -0.004715761169791222, -0.2825893759727478, 0.2910091280937195, -0.21073579788208008, 0.013684560544788837, 0.09214548021554947, -0.12648634612560272, 0.05706412345170975, 0.5655549764633179, -0.0001238745462615043, 0.18287676572799683, 0.26179301738739014, -0.3008105456829071, 0.07282981276512146, 0.8935166597366333, 0.1575636863708496, 0.22202464938163757, 0.21293112635612488, 0.028362644836306572, -0.33523330092430115, 0.08514975011348724, 0.26649710536003113, -0.1510305553674698, -0.1780587136745453, -0.16431599855422974, 0.09178393334150314, 0.08873623609542847, -0.1626819670200348, 0.33593714237213135, 0.16851361095905304, -0.08584782481193542, 0.1801665872335434, -0.1458669751882553, -0.2985434830188751, 0.2050297111272812, -0.1573667675256729, -0.043148815631866455, -0.08537773787975311, 0.10094822198152542, 0.008480587974190712, -0.022486118599772453, -0.3318203091621399, 0.24739272892475128, 0.20632247626781464, 0.4327051639556885, -0.3099469840526581, -0.21880728006362915, 0.055489517748355865, 0.010929298587143421, 0.19324465095996857, -0.1571795791387558, -0.3447956144809723, 0.2873373031616211, 0.013239952735602856, 0.2911161780357361, -0.16341935098171234, -0.04093446955084801, 0.145877406001091, -0.17899943888187408, -0.08702509105205536, -0.17074881494045258, -0.03298232704401016, 0.3978503942489624, -0.12305141240358353, -0.06732432544231415, 0.44658932089805603, -0.2177983671426773, -0.15413931012153625, -0.4925055205821991, 0.3845592439174652, -0.4646415114402771, 0.26072055101394653, 0.6168031692504883, 0.6072969436645508, 0.20743320882320404, -0.6483656167984009, 0.24303296208381653, 0.2255161851644516, -0.2203187495470047, 0.4449269473552704, 1.1213644742965698, -0.13187168538570404, -0.0035629337653517723, -0.07895737141370773, 0.2021852731704712, 0.13609343767166138, 0.388022243976593, 0.08780497312545776, 0.0691273882985115, -0.28015920519828796, -0.3921925127506256, -0.08747246861457825, -0.1588904857635498, -0.2520362138748169, -0.34748971462249756, -0.10170484334230423, -0.02189471386373043, -0.3778904378414154, -0.2964908480644226, -0.018110793083906174, -0.03006693534553051, 0.011189669370651245, 0.20253001153469086, -0.16609010100364685, -0.16418494284152985, 0.09718068689107895, -0.3384818136692047, 0.16325214505195618, -0.25895729660987854, -0.2447783648967743, 0.21062743663787842, -0.054913945496082306, -0.055531155318021774, -0.23153826594352722, 0.22729961574077606, -0.18350142240524292, -0.17184844613075256, -0.15861141681671143, -0.13543842732906342, 0.34606242179870605, -0.6139073371887207, -0.25343579053878784, 0.13692930340766907, 0.09001611918210983, -0.4975723922252655, -0.13176029920578003, 0.39010804891586304, -0.033092573285102844, -0.5629572868347168, -0.2383354902267456, 0.11723630130290985, -0.21498748660087585, 0.1967441290616989, -0.24485157430171967, -0.012361280620098114, 0.05145004764199257, -0.2107158750295639, 0.3652050495147705, 0.13013021647930145, 0.07377605885267258, 0.1461939811706543, 0.07112020254135132, 0.09158270061016083, 0.0338977575302124, -0.18576455116271973, -0.062210116535425186, 0.0008752532303333282, -0.14553391933441162, 0.007827254943549633, -0.004167500883340836, -0.11732295155525208, -0.05250873044133186, -0.36700528860092163, -0.32246875762939453, 0.14090532064437866, 0.4001433849334717, -0.11229739338159561, -0.0932854413986206, -0.13906434178352356, 0.19871841371059418, -0.14520706236362457, 0.056767966598272324, 0.10690951347351074, 0.3171752989292145, -0.06514069437980652, 0.08712811022996902, 0.2795261740684509, 0.11427335441112518, 0.11024877429008484, -0.22330915927886963, -0.16142944991588593, 0.18913112580776215, 0.045368742197752, 0.03093729168176651, 0.13064052164554596, 0.03472414240241051, 0.15114426612854004, 0.1427331566810608, -0.15154984593391418, -0.035501882433891296, -0.22090621292591095, 0.09573953598737717, -0.01064723264425993, 0.10223371535539627, 0.1680704802274704, -0.09656187146902084, -0.19835688173770905, 0.11186324805021286, 0.15580564737319946, 0.07126179337501526, -0.237904891371727, -0.17340677976608276, 0.20377278327941895, -0.08101832866668701, 0.04669652879238129, 0.04773283377289772, -0.06759084761142731, 0.004674721043556929, 0.04315415024757385, 0.012123649008572102, 0.1036323606967926, -0.07214505970478058, -0.042694177478551865, 0.08360753953456879, -0.07058578729629517, 0.12437080591917038, 0.04532123729586601, -0.04715805873274803, 0.182596355676651, 0.05892438068985939, -0.052103862166404724, -0.04123183712363243, 0.0015458306297659874, -0.23472021520137787, 0.08468544483184814, 0.06362602114677429, -0.051419176161289215, -0.17990292608737946, 0.08823751658201218, -0.053289756178855896, -0.23800189793109894, -0.06333878636360168, 0.10598519444465637, -0.09976841509342194, -0.0655614361166954, 0.1634199619293213, 0.20616766810417175, -0.24498488008975983, 0.2047337144613266, -0.31924211978912354, 0.022469032555818558, -0.25056082010269165, -0.21421949565410614, -0.027721596881747246, -0.29041892290115356, 0.07802747189998627, 0.32715079188346863, 0.052346307784318924, 0.05991891026496887, 0.003948979079723358, 0.2556777894496918, -0.00873819924890995, -0.14123816788196564, 0.05464300513267517, 0.2749457359313965, 0.08370484411716461, -0.07024665921926498, 0.2608821988105774, -0.1276545375585556, -0.1510438174009323, 0.2290015071630478, 0.03345216438174248, 0.12997305393218994, 0.03257370740175247, 0.2834599018096924, -0.33263614773750305, 0.05969630926847458, -0.06915964186191559, -0.05935109406709671, -0.05030716210603714, 0.026328833773732185, -0.1540071815252304, -0.023591946810483932, 0.23274767398834229, -0.33499664068222046, 0.14304299652576447, -0.27840685844421387, 0.10524258017539978, 0.35150787234306335, 0.06436260044574738, 0.10727759450674057, 0.09969735890626907, -0.2708268463611603, -0.12490718811750412, -0.20461852848529816, 0.12443362921476364, 0.22002574801445007, -0.27308258414268494, -0.08980181068181992, -0.3420974016189575, -0.04930121451616287, 0.06557004153728485, -0.006680551450699568, 0.1641397923231125, -0.11151815205812454, 0.1535884290933609, -0.048508912324905396, 0.04778972268104553, -0.22879284620285034, -0.24502494931221008, 0.113248310983181, -0.03695691004395485, 0.03519576042890549, -0.07168640196323395, 0.2057959884405136, -0.12912368774414062, 0.29476699233055115, 0.005653625354170799, 0.03122633323073387, -0.05124812200665474, 0.18142001330852509, -0.014801157638430595, 0.018703404814004898, -0.20506098866462708, 0.2697523236274719, -0.07042323797941208, 0.003288607345893979, 0.025022875517606735, -0.15700365602970123, 0.044988058507442474, 0.0735265240073204, -0.10364871472120285, 0.1039934903383255, -0.3188163638114929, 0.09253578633069992, 0.2628036141395569, 0.037030190229415894, 0.18930287659168243, -0.09967054426670074, -0.07068987935781479, 0.12422988563776016, 0.268555223941803, 0.188856840133667, 0.2285534143447876, -0.10220885276794434, 0.04155551642179489, 0.32316407561302185, 0.283291757106781, 0.4045003056526184, 0.0549149289727211, -0.1082875207066536, 0.16563542187213898, -0.13360942900180817, 0.28128618001937866, 0.12471982836723328, 0.09655189514160156, 0.09912696480751038, -0.14724455773830414, -0.04048217087984085, 0.09812074899673462, 0.6024361252784729, -0.8521443009376526, 0.004687803331762552, -0.06932549178600311, 0.12243087589740753, 0.04074011743068695, -0.24135515093803406, -0.15517501533031464, -0.5394577980041504, -0.09983517974615097, -0.1021675318479538, 0.4159364402294159, 0.743861973285675, -0.2172137051820755, 0.035151105374097824, 0.2937018573284149, 0.1433744579553604, -0.0615542009472847, 0.2622886896133423, 0.005918729584664106, 0.4257213771343231, -0.15690971910953522, 0.23344194889068604, 0.15945881605148315, 0.08462365716695786, -0.4647339880466461, 0.11792684346437454, -0.08630400896072388, 0.08416734635829926, 0.1540200412273407, -0.08122240006923676, -0.1592644453048706, 0.2671886086463928, 0.14876069128513336, 0.08279359340667725, 0.07230722159147263, 0.1812049299478531, 0.026074862107634544, 0.12392808496952057, 0.010847033932805061, -0.053167298436164856, 0.18389533460140228, -0.10091664642095566, -0.019002044573426247, -0.09018050134181976, 0.12038710713386536, 0.22733572125434875, 0.08655282855033875, -0.1988370716571808, -0.13663525879383087, -0.16682085394859314, -0.3937740921974182, -0.5934855937957764, 0.08338632434606552, 0.3693115711212158, -0.006688546389341354, -0.284280389547348, -0.17157889902591705, -0.14678244292736053, 0.26228082180023193, 0.2605951130390167, 0.07464275509119034, -0.0989684984087944, -0.0037737342063337564, -0.15768595039844513, -0.10027246177196503, 0.14289727807044983, -0.09797237068414688, 0.5145189166069031, 0.3866058886051178, 0.20703358948230743, 0.1002902239561081, 0.015705062076449394, -0.05197584629058838, 0.08160540461540222, -0.0928838774561882, 0.18420033156871796, -0.06060098111629486, -0.016733447089791298, 0.059516385197639465, 0.017630090937018394, -0.04261473938822746, -0.2537473142147064, -0.061108581721782684, 0.171549454331398, 0.40964475274086, 0.06537047773599625, 0.08277745544910431, -0.22073359787464142, 0.03185857832431793, -0.10349438339471817, -0.04037182778120041, -0.3302876055240631, -0.12055378407239914, 0.10486200451850891, -0.02348129265010357, 0.0513378381729126, -0.21589061617851257, -0.10989353060722351, -0.12464912980794907, -0.06621342897415161, -0.07722073048353195, 0.011596529744565487, -0.13532264530658722, 0.058460742235183716, 0.05033431574702263, -0.2743493318557739, -0.02455323562026024, -0.1370801329612732, 0.16631636023521423, 0.17435643076896667, -0.05951545760035515, -0.001497540739364922, 0.13582110404968262, 0.027835244312882423, -0.25467926263809204, 0.1222391277551651, 0.12122395634651184, -0.06443287432193756, 0.011446085758507252, 0.25772058963775635, -0.06055598706007004, -0.10481637716293335, 0.017893070355057716, 0.1257098913192749, 0.15723758935928345, 0.04887348413467407, -0.15047720074653625, -0.00274680950678885, 0.025592464953660965, -0.2309025526046753, 0.4055077135562897, 0.3374817669391632, -0.19075141847133636, -0.16741983592510223, -0.1456415355205536, -0.11074995249509811, 0.036857619881629944, 0.06500684469938278, -0.002578277373686433, -0.03392535075545311, -0.10691537708044052, 0.08661699295043945, -0.33723482489585876, 0.0938226506114006, -0.3758031725883484, 0.24236443638801575, 0.10547644644975662, 0.18188297748565674, 0.17285989224910736, 0.06253442913293839, 0.20404615998268127, -0.25646090507507324, 0.12119902670383453, 0.034363385289907455, 0.34651753306388855, -0.03956182301044464, -0.21546614170074463, -0.022084474563598633, -0.16200339794158936, -0.01165840495377779, 0.18089814484119415, 0.01283922791481018, 0.015026826411485672, 0.42759090662002563, -0.001084760995581746, 0.006355795543640852, -0.02840549685060978, 0.15563498437404633, 0.5982713103294373, 0.10167619585990906, -0.0969933420419693, -0.3223058879375458, 0.06449641287326813, 0.03899439051747322, -0.13735219836235046, -0.14714248478412628, -0.11912386864423752, 0.18148338794708252, -0.15912313759326935, -0.4237946569919586, -0.22193850576877594, -0.4157624840736389, 0.05604791268706322, 0.17457157373428345, 0.013293568976223469, 0.19738717377185822, -0.16337671875953674, 0.27946901321411133, -0.02771228738129139, -0.24874092638492584, 0.03263726085424423, -0.15321409702301025, 0.14697527885437012, 0.0005783461383543909, 0.1264210045337677, -0.11048219352960587, -0.2139589488506317, 0.052841439843177795, 0.1154031902551651, -0.21805673837661743, -0.1576104313135147, 0.20221155881881714, -0.08900779485702515, -0.11219940334558487, -0.3642406761646271, -0.2748875319957733, -0.09540841728448868, 0.2796124219894409, -0.11052477359771729, -0.0392172634601593, 0.2366478443145752, -0.1161470040678978, -0.056202538311481476, -0.04743479564785957, -0.015671398490667343, -0.02044951543211937, -0.08690382540225983, 0.23799297213554382, 0.053834207355976105, -0.12581560015678406, -0.24436603486537933, 0.24190394580364227, 0.24033084511756897, 0.6870424151420593, 0.2801551818847656, 0.1553758829832077, -0.06469515711069107, -0.4003902077674866, 0.1206955537199974, 0.22869983315467834, -0.16093315184116364, -0.259361207485199, -0.34234416484832764, 0.17217659950256348, 0.22521066665649414, -0.2906592786312103, 0.21589972078800201, 0.18606062233448029, 0.24101504683494568, -0.0835537239909172, -0.026928957551717758, -0.24098016321659088, 0.06900349259376526, 0.04705783724784851, 0.23458245396614075, 0.046690769493579865, -0.32020387053489685, 0.3866923153400421, 0.14788617193698883, -0.17106443643569946, -0.34168657660484314, -0.7837225198745728, -0.07842057943344116, 0.430774986743927, -0.06866959482431412, -0.3437895178794861, 0.417393296957016, -0.040898196399211884, -0.24975597858428955, 0.38183724880218506, 1.085741639137268, 0.1508248895406723, -0.160326287150383, 0.4125202000141144, 0.07370464503765106, -0.18799448013305664, 0.08580231666564941, 0.3557373881340027, -0.24380633234977722, -0.05123322457075119, 0.298851877450943, 0.540392279624939, 0.11989105492830276, 0.10791289061307907, 0.12096629291772842, 0.07782761007547379, -0.24880363047122955, 0.38052207231521606, -0.014715712517499924, -0.3675055503845215, -0.21493643522262573, -0.051484107971191406, 0.383659690618515, -0.33792784810066223, -0.02921394072473049, 0.19645214080810547, 0.1086367666721344, -0.19786445796489716, -0.5234561562538147, -0.33002233505249023, 0.09754063934087753, 0.33912187814712524, 0.35437238216400146, 0.22438150644302368, -0.203007772564888, 0.10767865180969238, 0.12218818068504333, -0.1817164272069931, -0.13994836807250977, -0.022186093032360077, -0.5123670101165771, 0.24218925833702087, -0.008731666021049023, -0.39258453249931335, 0.33469438552856445, 0.024236178025603294, -0.28240978717803955, 0.11665896326303482, 0.3093796670436859, 0.31050291657447815, -0.18746168911457062, 0.21161982417106628, 0.1182924285531044, -0.13746319711208344, -0.13550211489200592, 0.5698352456092834, 0.3255264461040497, -0.213108628988266, 0.1118900328874588, 0.07818702608346939, -0.13496033847332, 0.14758415520191193, -0.3564106225967407, 0.28182491660118103, 0.1210116520524025, -0.05165010318160057, 0.19378402829170227, -0.08751886337995529, -0.032460059970617294, -0.30681899189949036, -0.0635666698217392, 0.2269868552684784, -0.14138133823871613, -0.06287138164043427, -0.007291633635759354, -0.09378167986869812, -0.5565916895866394, -0.01815306581556797, -0.11805819720029831, 0.030923159793019295, 0.04698828607797623, -0.028760870918631554, 0.1418391317129135, -0.11154578626155853, 0.13525919616222382, 0.025433046743273735, -0.11903084069490433, 0.6769454479217529, -0.10956069082021713, -0.25305116176605225, 0.14810095727443695, -0.110845647752285, -0.02114015631377697, -0.007900943979620934, 0.12453819811344147, 0.6278054714202881, -0.5854648351669312, 0.29475003480911255, 0.5211034417152405, -0.14376574754714966, 0.2618478536605835, 0.1856158971786499, -0.1611517071723938, -0.020551344379782677, -0.20774422585964203, -0.15062826871871948, 0.10800987482070923, 0.10269927978515625, 0.14110839366912842, -0.3276834487915039, -0.06257473677396774, 0.08668024092912674, -0.02689109742641449, 0.08047688007354736, 0.0417206697165966, -0.2243107259273529, -0.27745702862739563, -0.2533630132675171, 0.24039842188358307, -0.12373875081539154, -0.13922317326068878, 0.20542608201503754, 0.07170586287975311, -0.10891273617744446, -0.04537026584148407, -0.22167786955833435, -0.13267996907234192, 0.17484834790229797, 0.13795000314712524, 0.10505398362874985, -0.10375827550888062, 0.019014308229088783, 0.13606008887290955, 0.020939873531460762, 0.16156230866909027, -0.019231172278523445, 0.05781906470656395, 0.2600932717323303, 0.02834130823612213, -0.22608844935894012, 0.22160936892032623, 0.16961348056793213, -0.38625863194465637, 0.2943180203437805, -0.0006589007680304348, 0.2136984020471573, -0.28566503524780273, -0.13084934651851654, 0.2678019404411316, -0.016532285138964653, -0.17464865744113922, 0.28538405895233154, 0.08760925382375717, 0.10850507766008377, -0.0962800607085228, -0.12972794473171234, -0.08031977713108063, 0.16553141176700592, 0.20644065737724304, 0.0013502342626452446, 0.04398377239704132, -0.31583690643310547, 0.024906499311327934, -0.02523842640221119, 0.02364448271691799, 0.054796863347291946, -0.1988542079925537, 0.26583901047706604, -0.11075631529092789, -0.33258476853370667, 0.059651050716638565, 0.03533679246902466, -0.16814671456813812, 0.2225797474384308, -0.12170464545488358, -0.10965575277805328, -0.29822543263435364, 0.2764870822429657, -0.10624481737613678, -0.21276423335075378, -0.023876765742897987, 0.1817978471517563, 0.06186429783701897, 0.17783088982105255, -0.1040058359503746, -0.24444587528705597, 0.08310133963823318, 0.2905770242214203, -0.04632385075092316, 0.10991240292787552, 0.1590099036693573, 0.011073654517531395, 0.21540309488773346, 0.017993267625570297, 0.03112086094915867, 0.06371808052062988, -0.22509057819843292, 0.25124096870422363, 0.05503222346305847, -0.13307297229766846, 0.2068963348865509, 0.03671657666563988, -0.274657666683197, -0.19234779477119446, 0.09083942323923111, -0.21364526450634003, -0.1770075261592865, 0.049193743616342545, -0.07705751061439514, -0.17903529107570648, 0.027623623609542847, 0.40864306688308716, 0.25569745898246765, -0.03669494017958641, -0.07333174347877502, 0.2963988184928894, 0.052894916385412216, -0.09550126641988754, -0.10936716943979263, 0.02275480329990387, 0.3039720058441162, 0.03698410093784332, 0.08839593827724457, 0.15898331999778748, -0.286114364862442, -0.09056787937879562, 0.4506496787071228, -0.16493988037109375, -0.12989585101604462, 0.13958480954170227, 0.11995471268892288, -0.06030219793319702, 0.16944178938865662, -0.14315031468868256, -0.044107772409915924, 0.35511893033981323, -0.21684187650680542, -0.077121302485466, 0.19488286972045898, -0.15364883840084076, 0.09038891643285751, 0.4866699278354645, 0.11023987829685211, -0.036918941885232925, 0.37838292121887207, 0.2981804609298706, 0.1416211724281311, -0.26965978741645813, 0.12762312591075897, 0.09815827012062073, 0.05547383800148964, -0.17948664724826813, -0.08469511568546295, 0.16754160821437836, 0.1328960359096527, -0.04579213634133339, -0.02137632668018341, -0.1912761777639389, -0.0759701132774353, 0.23357948660850525, 0.07948514819145203, -0.050412826240062714, -0.1655229777097702, 0.24311012029647827, -0.07906034588813782, -0.2043430358171463, 0.09002729505300522, 0.07265171408653259, -0.004754388239234686, -0.06529685109853745, 0.08590913563966751, 0.01848042756319046, -0.21937331557273865, -0.023603033274412155, 0.22971615195274353, -0.21926730871200562, 0.025828933343291283, 0.10185962170362473, 0.003670979058369994, -0.09588722884654999, -0.17224270105361938, -0.03241943567991257, -0.1390642523765564, 0.04231161251664162, -0.2550974488258362, -0.012913980521261692, 0.11529622226953506, -0.16256491839885712, 0.10717149078845978, -0.03238534927368164, -0.20018792152404785, -0.005696216132491827, -0.2061229646205902, 0.07708518952131271, 0.17796507477760315, -0.09801144897937775, -0.11734741926193237, 0.12679532170295715, 0.08379439264535904, -0.14439493417739868, 0.07715404778718948, 0.1016087532043457, -0.10147769004106522, -0.1777542382478714, -0.06038708612322807, 0.13404041528701782, -0.014445159584283829, 0.10918183624744415, -0.040748052299022675, 0.12737739086151123, 0.029690921306610107, -0.09553075581789017, -0.03397294133901596, 0.11314329504966736, -0.0013423000928014517, -0.13006043434143066, 0.33567848801612854, 0.12592723965644836, 0.09909287095069885, 0.04285048693418503, 0.023807305842638016, -0.06015538051724434, -0.14471353590488434, -0.03965818136930466, -0.03721156716346741, 0.2696504294872284, -0.3991139233112335, -0.1904706507921219, -0.27565091848373413, 0.13188283145427704, -0.0009735986823216081, -0.03651875630021095, -0.02996249869465828, -0.017689965665340424, 0.07433710247278214, -0.29938623309135437, -0.20084808766841888, -0.012103386223316193, 0.15721257030963898, -0.014234756119549274, 0.2897387146949768, -0.09420119971036911, 0.06948726624250412, 0.06547073274850845, 0.08180049806833267, -0.15176327526569366, 0.15487465262413025, 0.16377483308315277, 0.124021977186203, 0.12699560821056366, 0.0691390410065651, -0.1823626607656479, 0.06643471866846085, 0.13298605382442474, 0.015915028750896454, -0.10673896968364716, 0.30463454127311707, 0.07379259169101715, 0.02261270210146904, 0.22615458071231842, 0.5626512169837952, 0.3956834673881531, 0.5422728061676025, -1.1656773090362549, -0.690272867679596, -0.029821857810020447, 0.06564290821552277, 0.08110381662845612, 0.5489947199821472, 0.31081658601760864, -1.0958808660507202, 0.2050371766090393, -0.07584580779075623, -0.7733370661735535, 0.13850924372673035, -0.12634195387363434, -0.20833900570869446, -0.15843944251537323, 0.27814552187919617, -0.07723163068294525, -0.16355502605438232, 0.22432531416416168, -0.3580807149410248, -0.6823360323905945, -0.32991835474967957, 0.16964231431484222, -0.2250813990831375, 0.3827701807022095, -0.29807621240615845, -0.19599832594394684, -0.29689088463783264, 0.31542155146598816, 0.26909175515174866, 0.09597349911928177, 0.0483652725815773, -0.2031884789466858, 0.07240349054336548, -0.37333282828330994, 0.4300291836261749, 0.44898536801338196, -0.08175322413444519, -0.017327778041362762, 0.09516649693250656, -0.033774323761463165, 0.42120903730392456, 0.6043586134910583, 0.5628419518470764, 0.06853916496038437, 0.28430476784706116, 0.29498156905174255, 0.007791094481945038, -0.027491465210914612, -0.005296293646097183, -0.4186965227127075, 0.05624883249402046, 0.38651740550994873, 0.3902546167373657, -0.2334742695093155, 0.15640640258789062, -0.39550644159317017, 0.1735219657421112, -0.07768623530864716, 0.15040111541748047, 0.164359912276268, -0.11369029432535172, 0.08958616107702255, -0.2038102149963379, 0.19343945384025574, 0.2904703617095947, 0.19446250796318054, 0.4015457332134247, 0.32422518730163574, -0.0894692987203598, 0.040826812386512756, 0.025803713127970695, -0.09310418367385864, 0.41251757740974426, 0.2338295876979828, 0.003953414969146252, -0.5349391102790833, 0.147310271859169, 0.02204548940062523, -0.05099887400865555, -0.027260173112154007, 0.08264785259962082, 0.015058377757668495, -0.05465758964419365, -0.34358638525009155, -0.05060582607984543, 0.596595048904419, 0.11948930472135544, 0.24330569803714752, -0.44230785965919495, -0.1689738929271698, -0.13579246401786804, -0.10740288347005844, -0.27111688256263733, -0.0701073631644249, 0.01015038788318634, 0.08607767522335052, -0.07109486311674118, 0.2834293842315674, -0.21387380361557007, -0.31069672107696533, 0.16691619157791138, 0.3514091372489929, -0.03718390315771103, 0.3998306393623352, -0.4373152554035187, -0.14388126134872437, -0.37764453887939453, 0.18755610287189484, -0.23671001195907593, -0.5318973064422607, 0.0064175925217568874, -0.21565790474414825, -0.10633623600006104, -0.21456722915172577, 0.17773564159870148, -0.11047223210334778, 0.10745897889137268, -0.6070385575294495, -0.1143028661608696, 0.25223153829574585, -0.18157406151294708, -0.2521193325519562, 0.023974645882844925, -0.05733506381511688, -0.1431044638156891, 0.02346579171717167, -0.32083019614219666, 0.08931369334459305, 0.3445994257926941, -0.048287052661180496, 0.10071101039648056, 0.1572253406047821, -0.0413292720913887, 0.11957627534866333, 0.15256425738334656, 0.10761093348264694, -0.18401889503002167, -0.06935176253318787, -0.030442481860518456, -0.05212267115712166, 0.03827087581157684, -0.4204849600791931, -0.06112533062696457, 0.4098407030105591, -0.033367376774549484, 0.2678366005420685, -0.3998849093914032, 0.05484485626220703, -0.25505635142326355, -0.3662145435810089, 0.025728730484843254, -0.17618122696876526, 0.24857860803604126, 0.34448471665382385, 0.16513404250144958, 0.14101596176624298, 0.18191537261009216, 0.4715920090675354, 0.036267299205064774, 0.20056012272834778, -0.010173119604587555, -0.11881562322378159, -0.4698568284511566, 0.6492490172386169, -0.2579079270362854, -0.4833841025829315, 0.04789735749363899, -0.6407413482666016, 0.7392100095748901, -0.0073691923171281815, 0.47387319803237915, -0.401800274848938, 0.09071506559848785, 0.04801144078373909, -0.028393566608428955, -0.13643407821655273, -0.07267509400844574, -0.1317434310913086, 0.11816155165433884, -0.02837451547384262, 0.5832228660583496, 0.0199653971940279, -0.12572364509105682, -0.031869858503341675, -0.14530058205127716, -0.041947219520807266, 0.21853727102279663, 0.033775925636291504, -0.18309476971626282, 0.10350330919027328, -0.23645779490470886, -0.27390947937965393, 0.1562245488166809, 0.0024753210600465536, 0.0592777356505394, 0.11639578640460968, -0.39172109961509705, -0.19697579741477966, 0.08217215538024902, 0.11237884312868118, -0.18952861428260803, 0.40027856826782227, -0.1052774116396904, -0.2884337604045868, -0.059321995824575424, 0.018713057041168213, 0.3608287274837494, 0.20855341851711273, -0.020303230732679367, 0.017721470445394516, 0.018551141023635864, -0.2582157254219055, 0.11528448760509491, -0.24205920100212097, -0.2651408612728119, -0.0030222951900213957, -0.3586631417274475, 0.004228715319186449, 0.10433610528707504, -0.23186185956001282, -0.012668636627495289, -0.23020704090595245, 0.10161334276199341, 0.2977693974971771, 0.021904217079281807, 0.1161358654499054, -0.08324982970952988, -0.05279796943068504, -0.03938182815909386, 0.4304782450199127, 0.34933093190193176, 0.12061342597007751, -0.42581766843795776, -0.2775569558143616, -0.194748654961586, 0.11719129979610443, 0.5861268639564514, -0.0788012444972992, -0.009157433174550533, 0.21659648418426514, -0.08278381079435349, -0.3833615779876709, 0.08195049315690994, 0.41785186529159546, -0.3114481270313263, 0.24881942570209503, -0.1462341547012329, 0.09233352541923523, 0.3821902573108673, 0.22992964088916779, 0.34066352248191833, 0.04495804011821747, -0.07149434089660645, 0.002271530916914344, 0.009315680712461472, -0.10540183633565903, -0.4065934717655182, 0.06502855569124222, 0.26576000452041626, -0.08946974575519562, -0.32222235202789307, -0.3126702606678009, 0.023715879768133163, -0.10819695144891739, -0.25221413373947144, -0.15556049346923828, -0.12762631475925446, 0.1837734580039978, -0.17926239967346191, 0.13029880821704865, 0.12701530754566193, -0.20900143682956696, 0.18744245171546936, 0.12028080970048904, 0.10242252796888351, 0.012205114588141441, -0.40577232837677, 0.16117453575134277, 0.08174542337656021, 0.12311449646949768, 0.00411632377654314, -0.18718309700489044, -0.15987195074558258, 0.14046737551689148, 0.2902265787124634, -0.3180319666862488, -0.006677767727524042, -0.519426703453064, 0.019055237993597984, -0.1621251106262207, 0.11142433434724808, 0.37449386715888977, -0.2084442526102066, -0.26002293825149536, 0.23125843703746796, 0.1634218841791153, 0.06253320723772049, -0.21726924180984497, -0.10498206317424774, 0.35998499393463135, -0.09181753545999527, 0.04809793457388878, -0.20412911474704742, 0.6131340265274048, 0.17624914646148682, 0.4020090699195862, 0.1330074667930603, -0.19430002570152283, -0.1711570918560028, 0.23349253833293915, 0.13119834661483765, -0.013352418318390846, 0.08266007900238037, -0.02850179746747017, -0.10047447681427002, 0.4080994129180908, 0.134193554520607, -0.29076868295669556, -0.008569363504648209, -0.18066318333148956, -0.03746747225522995, 0.18491250276565552, 0.10385698080062866, 0.03286319226026535, -0.19571703672409058, 0.2097519338130951, -0.0516095906496048, -0.05311761051416397, -0.05830296874046326, 0.09722909331321716, 0.04223949462175369, -0.15409527719020844, -0.14573471248149872, -0.3847125172615051, 0.07086335867643356, 0.16593989729881287, -0.04952690377831459, -0.08019295334815979, -0.06316686421632767, 0.3948519229888916, 0.24557183682918549, -0.23739944398403168, 0.1713225096464157, 0.03767896071076393, 0.08593855798244476, -0.39974045753479004, -0.08809620141983032, 0.11736426502466202, -0.18925967812538147, -0.13331598043441772, -0.08075611293315887, 0.5801548361778259, 0.08301055431365967, 0.024596577510237694, -0.08535952866077423, -0.06556788086891174, -0.15134528279304504, 0.25170785188674927, 0.005452586337924004, 0.10824130475521088, 0.47283005714416504, 0.11380244791507721, -0.04398604854941368, 0.32054078578948975, -0.03802162781357765, -0.295815646648407, -0.017965713515877724, 0.09608844667673111, -0.0802866593003273, -0.0005212521064095199, 0.1269078105688095, -0.25750240683555603, -0.34904512763023376, 0.06365495920181274, 0.4923040568828583, -0.07992218434810638, -0.13127250969409943, 0.0298074372112751, -0.1591065227985382, -0.17945758998394012, -0.12279552966356277, -0.2644873559474945, -0.109768807888031, 0.09949443489313126, 0.402590811252594, 0.018984170630574226, 0.19075874984264374, 0.2125849425792694, 0.44266751408576965, -0.2525578737258911, 0.19041968882083893, 0.13038596510887146, -0.08662073314189911, -0.1481255292892456, -0.45128071308135986, 0.0700894296169281, -0.02266978845000267, -0.509516179561615, -0.07658188790082932, 0.0026602381840348244, 0.03364584222435951, 0.023411579430103302, 0.10418124496936798, -0.4037405252456665, -0.008790602907538414, 0.051538802683353424, 0.07238214462995529, 0.038550809025764465, -0.057248685508966446, 0.7211328744888306, 0.0451960414648056, 0.3470917344093323, 0.3248944580554962, -0.21718503534793854, 0.21112771332263947, 0.11282619088888168, -0.18990670144557953, -0.11802349239587784, 0.0676100105047226, -0.08906347304582596, 0.09423898905515671, -0.2428969442844391, 0.06424026191234589, 0.24869167804718018, -0.2457948625087738, 0.15020115673542023, -0.06007985770702362, -0.011617159470915794, -0.022585738450288773, -0.05839919671416283, -0.1908039152622223, -0.005831921473145485, 0.21905778348445892, 0.012188495136797428, 0.3038124144077301, 0.16455616056919098, 0.02027738094329834, 0.05155055597424507, -0.15968462824821472, 0.378726065158844, 0.05843343958258629, 0.030192362144589424, -0.3164105713367462, -0.023470640182495117, -0.03445514664053917, -0.32570281624794006, 0.07862936705350876, -0.012345576658844948, 0.16838407516479492, 0.2617870569229126, 0.07442470639944077, -0.2555854022502899, 0.03527896851301193, 0.04845358058810234, 0.5472314357757568, -0.04922591522336006, 0.029657240957021713, 0.4714038074016571, -0.030962875112891197, 0.13447056710720062, -0.14599235355854034, -0.14027032256126404, -0.11878832429647446, 0.24489668011665344, -0.05587858706712723, -0.0058257561177015305, 0.10785103589296341, -0.03920551389455795, 0.03612339124083519, -0.35212990641593933, 0.08595380932092667, 0.12731391191482544, 0.05241464823484421, 0.10740009695291519, 0.11085975170135498, -0.0006702544051222503, -0.15026187896728516, -0.0729278028011322, 0.08616456389427185, 0.24060417711734772, 0.35396847128868103, 0.18886183202266693, 0.040464065968990326, 0.2727739214897156, 0.1846126765012741, -0.12765531241893768, 0.20750626921653748, 0.1393282115459442, 0.04689314588904381, -0.16342845559120178, 0.01402190513908863, 0.08842208236455917, -0.0476251021027565, -0.16032375395298004, 0.09847444295883179, 0.3405090868473053, 0.2071269154548645, 0.10893068462610245, -0.035570982843637466, -0.10365140438079834, 0.08320770412683487, 0.37127894163131714, 0.36308515071868896, 0.04573466628789902, 0.11424532532691956, 0.3611575663089752, 0.0484454520046711, 0.29403331875801086, -0.8595437407493591, 0.01537930779159069, 0.08565705269575119, -0.12798678874969482, -0.24872654676437378, 0.12226279824972153, -0.04018164426088333, 0.014641528017818928, 0.19947686791419983, 0.09133113920688629, -0.010989140719175339, 0.12684684991836548, 0.24829059839248657, 0.04240691661834717, -0.004525129217654467, 0.18235379457473755, -0.2693794369697571, -0.3323415517807007, -0.21372951567173004, 0.29216429591178894, 0.11675112694501877, 0.11754197627305984, 0.2070877104997635, 0.23102451860904694, 0.16524896025657654, -0.02284335158765316, 0.21918432414531708, -0.15049470961093903, -0.12067533284425735, -0.3728772699832916, -0.07061529904603958, -0.158734992146492, -0.4115804433822632, 0.05631975829601288, -0.028555214405059814, -0.039238594472408295, 0.1347540318965912, 0.05090037360787392, -0.06903200596570969, 0.052786149084568024, 0.06877116858959198, 0.20486211776733398, -0.004852126352488995, -0.021997997537255287, 0.501796305179596, -8.746093226363882e-05, 0.1888808310031891, 0.08935908228158951, 0.12499397248029709, -0.1504523754119873, 0.373652845621109, -0.0008432277827523649, 0.03191589564085007, 0.050777360796928406, -0.1321483850479126, -0.0037742776330560446, -0.18130284547805786, -0.16689926385879517, 0.21692650020122528, -0.0730559229850769, -0.09135609120130539, 0.11637130379676819, 0.0231484342366457, 0.12361467629671097, 0.07059912383556366, 0.28979402780532837, 0.18402326107025146, -0.26672235131263733, -0.5554479956626892, -0.06802794337272644, 0.05115477740764618, -0.02459939941763878, -0.18775597214698792, -0.2849845886230469, -0.178745299577713, 0.12064571678638458, 0.07823384553194046, 0.08416035771369934, -0.11075332760810852, 0.26536211371421814, 0.3716886341571808, 0.0664578229188919, 0.026862239465117455, 0.8988380432128906, 0.06736402958631516, 0.028556598350405693, -0.06250859797000885, -0.12813998758792877, -0.3250889480113983, -0.03130052983760834, 0.13663698732852936, 0.017191635444760323, -0.043407339602708817, 0.025605063885450363, -0.23102150857448578, 0.6741933226585388, -0.07585341483354568, -0.11177226155996323, -0.3568604588508606, 0.006756346207112074, 0.02086077630519867, 0.12439166009426117, 0.13762246072292328, -0.0001681097346590832, 0.25349870324134827, 0.27572688460350037, -0.022708207368850708, -0.3240263760089874, 0.08484532684087753, -0.020377174019813538, 0.1210668534040451, -0.08198244124650955, 0.18175813555717468, 0.06741020828485489, 0.0015779146924614906, 