{"version": "0.5.4", "metadata": {"date": {"year": 2025, "month": 11, "day": 30, "hour": 12, "minute": 41, "second": 32}, "loudness": -37.1003303527832, "gain": 0.8528213323756185, "name": null, "modeled_by": null, "gear_type": null, "gear_make": null, "gear_model": null, "tone_type": null, "input_level_dbu": null, "output_level_dbu": null, "training": {"settings": {"ignore_checks": false}, "data": {"latency": {"manual": null, "calibration": {"algorithm_version": 1, "delays": [3], "safety_factor": 1, "recommended": 2, "warnings": {"matches_lookahead": false, "disagreement_too_high": false, "not_detected": false}}}, "checks": {"version": 3, "passed": true}}, "validation_esr": 0.02385024282147424}}, "architecture": "WaveNet", "config": {"layers": [{"input_size": 1, "condition_size": 1, "head_size": 8, "channels": 16, "kernel_size": 3, "dilations": [1, 2, 4, 8, 16, 32, 64, 128, 256, 512], "activation": "Tanh", "gated": false, "head_bias": false}, {"input_size": 16, "condition_size": 1, "head_size": 1, "channels": 8, "kernel_size": 3, "dilations": [1, 2, 4, 8, 16, 32, 64, 128, 256, 512], "activation": "Tanh", "gated": false, "head_bias": true}], "head": null, "head_scale": 0.02}, "weights": [0.000511233985889703, 0.5038672685623169, -0.7515308856964111, -0.8031469583511353, -0.44612428545951843, 0.3671773374080658, 0.002659429330378771, 0.9224274158477783, -0.22287854552268982, 0.32491564750671387, -0.22519323229789734, -0.2177450954914093, -1.0306228399276733, -0.7073899507522583, -0.51092129945755, 0.32036617398262024, 0.07805376499891281, -0.013641227036714554, -0.13220776617527008, -0.09054548293352127, 0.09633585810661316, 0.2375897616147995, -0.0014126013265922666, 0.07085539400577545, -0.1494089663028717, 0.04076739773154259, 0.0868823453783989, -0.25858986377716064, -0.06125103309750557, -0.07588538527488708, -0.17107856273651123, 0.10106194764375687, -0.04282226413488388, 0.04971201717853546, -0.11534608900547028, -0.2618492543697357, -0.13464228808879852, 0.09555128216743469, 0.1058172732591629, 0.19553691148757935, 0.029484925791621208, -0.13506284356117249, -0.06833279132843018, -0.15635107457637787, -0.04859335348010063, 0.03423847258090973, 0.11606519669294357, 0.03136496618390083, -0.1743471771478653, 0.02042899839580059, 0.04185979813337326, 0.03575518727302551, 0.08538663387298584, -0.02250676602125168, -0.028869299218058586, -0.05760841444134712, -0.016326576471328735, -0.23376387357711792, -0.07000891119241714, -0.11418943852186203, -0.05109603330492973, 0.05364075303077698, -0.014060473069548607, 0.1400637924671173, 0.06361851841211319, -0.027835672721266747, -0.13846606016159058, -0.2586677670478821, -0.00039114750688895583, 0.24402719736099243, 0.19146230816841125, 0.03750404715538025, -0.03490305319428444, 0.424634724855423, 0.21796779334545135, 0.02741195634007454, 0.3248912990093231, -0.03787243738770485, -0.09009231626987457, -0.37501242756843567, -0.2232407182455063, 0.23960979282855988, 0.08293633162975311, -0.18099519610404968, -0.125356063246727, -0.330561101436615, -0.11815357208251953, 0.031671833246946335, 0.32088616490364075, -0.0015612418064847589, -0.07870186865329742, -0.20488090813159943, 0.013049955479800701, 0.16410933434963226, 0.11878864467144012, -0.003308766521513462, -0.028185473755002022, 0.2975231409072876, -0.03004997782409191, -0.19375500082969666, 0.4421502351760864, 0.19234874844551086, -0.15901164710521698, 0.2606510519981384, -0.0445718877017498, -0.09863832592964172, 0.18661271035671234, -0.02047177217900753, -0.10848022252321243, -0.3023379445075989, -0.10146409273147583, 0.3187417685985565, -0.030433690175414085, 0.018684813752770424, 0.07880294322967529, -0.18663164973258972, 0.1533714234828949, -0.00026037273346446455, 0.08597659319639206, -0.15788736939430237, 0.055806197226047516, 0.07327406108379364, -0.2636462450027466, 0.07106702029705048, -0.07050991803407669, -0.2731642723083496, -0.023747824132442474, -0.14455953240394592, 0.14076165854930878, -0.13287387788295746, 0.01568911224603653, -0.05857327952980995, -0.11297665536403656, -0.07640240341424942, 0.29857775568962097, -0.015907607972621918, 0.08562151342630386, -0.2005413919687271, 0.06433620303869247, 0.023149508982896805, 0.3294329047203064, 0.07362671196460724, 0.20489932596683502, -0.2027626782655716, -0.12014029920101166, 0.0031964099034667015, -0.08778731524944305, 0.014380721375346184, -0.0053639039397239685, -0.30604931712150574, -0.13555210828781128, -0.055114924907684326, -0.22422753274440765, 0.08162839710712433, 0.14779210090637207, -0.33094683289527893, 0.09892623126506805, -0.23611877858638763, 0.1290556937456131, -0.17786549031734467, -0.04915456473827362, 0.020597422495484352, -0.18054848909378052, -0.1878005415201187, -0.131431445479393, -0.012483838945627213, -0.0038865862879902124, 0.1622089296579361, -0.10672895610332489, 0.055352695286273956, 0.2366088181734085, -0.03872989863157272, 0.1894950568675995, 0.15728232264518738, -0.11975923925638199, 0.036876700818538666, -0.12464514374732971, -0.06929676979780197, 0.10776404291391373, -0.0829213559627533, -0.05027830973267555, -0.09417661279439926, -0.00912688858807087, 0.01772625744342804, 0.11668507009744644, 0.15825578570365906, -0.054543908685445786, -0.08519591391086578, -0.22967258095741272, 0.08030892163515091, 0.16241909563541412, 0.20937517285346985, -0.09856050461530685, 0.056524608284235, 0.0021756289061158895, -0.07962930202484131, -0.019075332209467888, 0.16202108561992645, -0.0624404139816761, 0.05789700523018837, 0.11812710762023926, 0.11232426017522812, -0.048696137964725494, 0.011177321895956993, -0.06828561425209045, 0.05283121392130852, -0.1171814501285553, 0.228840634226799, 0.025806095451116562, 0.13425149023532867, -0.10855501145124435, -0.05199582874774933, -0.17069463431835175, -0.03652007877826691, 0.0223403237760067, 0.2042596936225891, -0.09103630483150482, -0.04982898756861687, 0.30741289258003235, -0.10358083993196487, 0.010298464447259903, 0.326923668384552, 0.0533008836209774, -0.013269106857478619, -0.31453633308410645, 0.07399315387010574, -0.11222649365663528, 0.08290287107229233, -0.1487060934305191, -0.04481084272265434, -0.1898859143257141, 0.09932439774274826, 0.029236409813165665, 0.3176051080226898, 0.053312819451093674, -0.11102093756198883, -0.12636174261569977, -0.089060477912426, -0.04478338733315468, 0.2295709252357483, 0.046399760991334915, 0.12323486059904099, 0.13479453325271606, -0.008096377365291119, 0.09904656559228897, 0.05268142744898796, 0.12361526489257812, -0.09629084914922714, 0.19241464138031006, -0.009810146875679493, -0.05549845099449158, 0.20548169314861298, 0.1292290985584259, -0.03365177661180496, -0.2644749581813812, 0.05982165038585663, -0.06538164615631104, 0.02645159885287285, -0.05040377750992775, -0.065851129591465, -0.014949582517147064, 0.13456875085830688, 0.04486486688256264, 0.04258481040596962, -0.007678181864321232, -0.08013772964477539, -0.10838787257671356, -0.014154457487165928, 0.08960141241550446, -0.026312915608286858, -0.1171640008687973, -0.049265071749687195, -0.06955362111330032, 0.07496777176856995, -0.0017648320645093918, -0.14677171409130096, 0.1473395824432373, -0.06471359729766846, 0.05289245769381523, 0.10020343214273453, -0.0020226945634931326, -0.1623784303665161, -0.13744141161441803, 0.13695554435253143, 0.0968398004770279, 0.16055242717266083, -0.06559036672115326, -0.03540463745594025, -0.07741149514913559, -0.021524578332901, -0.15302599966526031, 0.011779038235545158, 0.014527056366205215, -0.07341829687356949, -0.09272289276123047, -0.11744735389947891, 0.02786688506603241, -0.1646309345960617, 0.033358000218868256, -0.11606775224208832, -0.12102589756250381, 0.0147146200761199, -0.05213920399546623, -0.019769083708524704, 0.07663404196500778, -0.19157566130161285, 0.11468687653541565, 0.03886812925338745, 0.2249641716480255, -0.08412514626979828, -0.09552747756242752, -0.19048652052879333, 0.10450322180986404, -0.03128119930624962, -0.11639506369829178, 0.15635167062282562, -0.0508744940161705, -0.16566210985183716, 0.1286950707435608, -0.020676393061876297, 0.18105347454547882, -0.05499059334397316, -0.07643529772758484, -0.048944566398859024, 0.20287896692752838, 0.10471991449594498, 0.25710850954055786, -0.03739436715841293, 0.10645941644906998, -0.2382928431034088, -0.024145377799868584, -0.1510324627161026, 0.3157211244106293, 0.014615761116147041, -0.07087333500385284, -0.1133011132478714, 0.1761527806520462, 0.1764965057373047, -0.03663800656795502, 0.18722482025623322, -0.010117358528077602, -0.22338739037513733, 0.17428849637508392, 0.10467814654111862, -0.25935178995132446, 0.18773256242275238, 0.09653543680906296, -0.0903349295258522, -0.026364875957369804, -0.03214951604604721, 0.08941128104925156, -0.07983355969190598, -0.08082427829504013, 0.09292781352996826, 0.04139207676053047, 0.2767547070980072, 0.027715234085917473, 0.09957382082939148, -0.31551557779312134, -0.041848741471767426, -0.1275685429573059, -0.3611586391925812, -0.1936032772064209, 0.08335593342781067, -0.13169611990451813, 0.0623851977288723, 0.09481508284807205, 0.07180781662464142, -0.023802706971764565, -0.005727403797209263, -0.17358316481113434, 0.1491132378578186, -0.11049533635377884, 0.14711126685142517, -0.05968915671110153, -0.05007307231426239, -0.06614577025175095, 0.04598354175686836, 0.10611975938081741, 0.31333640217781067, 0.20770429074764252, -0.021078836172819138, -0.12793706357479095, 0.05178624391555786, 0.03182998299598694, -0.045409586280584335, 0.00681544141843915, 0.08071480691432953, -0.26996517181396484, -0.010940371081233025, -0.016805216670036316, -0.24784056842327118, -0.16079364717006683, -0.10988904535770416, -0.3186296820640564, 0.020525481551885605, 0.08022519201040268, 0.1913725584745407, -0.03931155800819397, 0.0656498372554779, 0.06053311377763748, -0.11048708111047745, 0.01874808967113495, 0.18400445580482483, 0.22253796458244324, -0.16139951348304749, 0.08968770503997803, -0.050095170736312866, -0.013990232720971107, 0.029150651767849922, -0.24681533873081207, 0.024267541244626045, 0.07334593683481216, -0.154206320643425, -0.04798658937215805, -0.0034919120371341705, 0.1262454092502594, -0.09010462462902069, -0.03219287842512131, 0.01511317864060402, 0.12117303907871246, -0.04097271338105202, 0.17291371524333954, 0.02520083822309971, 0.030508140102028847, -0.30113208293914795, 0.06618586927652359, -0.055870626121759415, 0.10761937499046326, -0.0141689982265234, -0.14796921610832214, -0.11078160256147385, 0.1754346787929535, -0.032281987369060516, -0.254941463470459, 0.009562709368765354, -0.019292932003736496, -0.276590496301651, 0.11388494074344635, -0.18055981397628784, -0.30383074283599854, -0.09556207805871964, -0.0741526335477829, -0.0635102167725563, -0.08584834635257721, 0.1397377848625183, 0.11977604776620865, -0.16600866615772247, -0.023363033309578896, -0.2110806256532669, 0.26464569568634033, 0.30313795804977417, 0.2769549489021301, 0.011631292290985584, -0.3184133470058441, -0.00628364784643054, 0.05276056006550789, -0.16179406642913818, -0.24966458976268768, 0.012474991381168365, -0.36747509241104126, -0.18747924268245697, 0.09051186591386795, 0.10650541633367538, 0.18321120738983154, 0.008580890484154224, 0.007462447974830866, -0.156503826379776, 0.09423040598630905, 0.18471871316432953, 0.19815365970134735, 0.09316301345825195, -0.126161590218544, -0.162195086479187, 0.14690881967544556, 0.07610468566417694, 0.016464076936244965, -0.006955465767532587, -0.2817685008049011, -0.06296906620264053, -0.03951729089021683, -0.27507099509239197, -0.24687804281711578, 0.14458027482032776, -0.24512352049350739, -0.024443430826067924, 0.13766911625862122, -0.1437125951051712, -0.12915131449699402, 0.0055177477188408375, -0.25351688265800476, -0.11423899233341217, 0.12498369812965393, 0.14575780928134918, 0.2643650770187378, -0.24400712549686432, -0.05428088828921318, -0.06108245626091957, -0.0111148152500391, -0.008363067172467709, -0.23886926472187042, 0.17692962288856506, 0.2042803317308426, 0.1846700757741928, 0.05638066306710243, 0.06560186296701431, 0.15097860991954803, -0.010568326339125633, 0.09606119990348816, 0.1483933925628662, -0.11650646477937698, -0.05296006053686142, -0.14366541802883148, 0.02731771022081375, 0.13150766491889954, 0.09850399196147919, -0.214211568236351, -0.12896256148815155, -0.023316483944654465, 0.05257202312350273, 0.19702549278736115, 0.06990416347980499, -0.04860100895166397, -0.2498658448457718, -0.19076572358608246, 0.011000139638781548, 0.2596955895423889, 0.057832542806863785, -0.07842256128787994, 0.06093386560678482, 0.23578132688999176, 0.05897463485598564, 0.03371332585811615, -0.009491821750998497, -0.17584110796451569, 0.1377977877855301, 0.06627890467643738, -0.16336970031261444, 0.08552214503288269, 0.12836655974388123, -0.14590422809123993, -0.18431223928928375, -0.19476626813411713, 0.08169743418693542, -0.03066464699804783, 0.25535959005355835, -0.008807609789073467, 0.16340337693691254, -0.22201770544052124, -0.0032435620669275522, -0.30165794491767883, 0.028647372499108315, 0.29114606976509094, -0.25530341267585754, 0.19855348765850067, 0.13714265823364258, -0.19602061808109283, 0.12783537805080414, 0.22507041692733765, 0.16745305061340332, -0.3097085952758789, -0.21956191956996918, -0.08606565743684769, 0.1804937720298767, -0.031189141795039177, 0.30433738231658936, -0.2046041041612625, -0.17753194272518158, -0.04399896413087845, 0.23853379487991333, 0.23159456253051758, 0.24151873588562012, -0.21233892440795898, -0.219263955950737, -0.16536550223827362, 0.2858908772468567, 0.07793864607810974, -0.2865942716598511, 0.22397615015506744, 0.2695898711681366, -0.20785894989967346, 0.05285007879137993, 0.021733028814196587, -0.12872841954231262, 0.15975189208984375, 0.07156810909509659, -0.13686127960681915, 0.22046928107738495, 0.2509692311286926, 0.28027260303497314, -0.1688249409198761, -0.2202489823102951, -0.143185093998909, 0.14884859323501587, 0.008641802705824375, 0.06002669036388397, -0.13386109471321106, 0.24649347364902496, 0.13874201476573944, 0.1336916834115982, -0.23684436082839966, -0.051292773336172104, -0.09500238299369812, 0.018363818526268005, -0.05519399791955948, -0.05714496597647667, -0.03965838626027107, -0.07490893453359604, -0.0789671540260315, 0.10316959023475647, -0.016969669610261917, -0.09242795407772064, 0.03403288125991821, -0.06733844429254532, 0.048448674380779266, 0.24294018745422363, 0.08857934921979904, 0.03282636031508446, 0.007169823162257671, 0.010076249949634075, -0.07913532108068466, 0.24992208182811737, 0.03907741978764534, -0.13076551258563995, -0.1432831585407257, -0.09064983576536179, 0.13673971593379974, -0.12934599816799164, -0.12866683304309845, -0.0059474315494298935, -0.027524510398507118, 0.041363075375556946, 0.05042847618460655, -0.10232609510421753, 0.06025364249944687, -0.029763411730527878, -0.17186611890792847, -0.1735113114118576, -0.11810296773910522, 0.22532309591770172, -0.06381765753030777, 0.11747785657644272, 0.029737818986177444, -0.012339143082499504, -0.23209361732006073, 0.20597080886363983, -0.066765695810318, 0.25381141901016235, -0.17847202718257904, -0.013077957555651665, 0.21757729351520538, -0.12759995460510254, 0.14139188826084137, 0.03744221106171608, -0.19500602781772614, -0.08311193436384201, -0.11646675318479538, 0.21129655838012695, 0.001098528620786965, 0.14462152123451233, -0.057235099375247955, -0.04956662654876709, -0.03461294248700142, -0.04468924552202225, 0.037342071533203125, 0.28177574276924133, -0.11496825516223907, 0.08534886687994003, -0.1909225583076477, 0.19359351694583893, -0.12108971923589706, 0.12068701535463333, -0.09315667301416397, 0.061782415956258774, 0.1910683810710907, 0.03294427692890167, -0.001609342871233821, 0.1353449821472168, 0.033515673130750656, -0.01932332292199135, 0.26808837056159973, -0.161770761013031, 0.0004300645086914301, 0.1282079517841339, -0.008578382432460785, 0.06268053501844406, -0.17835207283496857, 0.07057926058769226, 0.05178854614496231, 0.004317202605307102, 0.15834927558898926, 0.07162774354219437, 0.15517829358577728, 0.04859652742743492, -0.15040339529514313, -0.19516967236995697, 0.17813196778297424, -0.27404600381851196, -0.028928052634000778, 0.10466490685939789, -0.22796730697155, -0.009514744393527508, -0.03680546209216118, 0.1889631450176239, -0.029881376773118973, -0.11364075541496277, -0.025082755833864212, 0.0875215083360672, 0.03830347955226898, 0.2581251859664917, 0.044671863317489624, -0.14870871603488922, -0.2753872275352478, -0.1949537843465805, 0.2665819823741913, 0.1233501061797142, 0.07574917376041412, -0.06447941064834595, -0.05103490129113197, 0.05424540489912033, 0.20804047584533691, -0.25412842631340027, -0.08105241507291794, 0.014300153590738773, -0.24888157844543457, -0.02985556051135063, 0.21479493379592896, -0.27899542450904846, 0.022270936518907547, 0.0073054153472185135, -0.18798531591892242, 0.05609949678182602, 0.055600203573703766, 0.1682577133178711, -0.05804881826043129, -0.11007580906152725, 0.0033458226826041937, -0.19296200573444366, 0.1396881341934204, -0.05677555128931999, 0.0910516232252121, -0.021137146279215813, 0.06766223907470703, -0.247090682387352, 0.08576203882694244, 0.07684726268053055, -0.11362911015748978, -0.051828086376190186, -0.05919118970632553, -0.24914368987083435, -0.08420613408088684, 0.03280327469110489, 0.3103913962841034, 0.0867970734834671, 0.005114395171403885, -0.03576171025633812, 0.04593484848737717, 0.15422184765338898, 0.15063710510730743, -0.1192060261964798, 0.0028923877980560064, -0.10276740044355392, -0.07005801051855087, 0.1655062735080719, 0.2561684250831604, -0.14019016921520233, -0.06169828400015831, -0.07681958377361298, -0.08024276047945023, -0.06840452551841736, -0.14387401938438416, -0.08481696993112564, 0.03180047869682312, -0.1367548704147339, 0.1078951507806778, -0.13523294031620026, -0.06623446941375732, -0.0648496150970459, 0.10544443130493164, -0.3420562446117401, -0.1013001948595047, 0.11756761372089386, 0.1647292673587799, -0.1387982815504074, -0.08320251852273941, -0.28399792313575745, -0.10281585901975632, -0.16595683991909027, 0.025443973019719124, 0.1450919359922409, 0.003390645142644644, 0.03540303558111191, 0.06975530833005905, 0.20087069272994995, -0.04317043721675873, 0.018883703276515007, -0.023581258952617645, 0.011326117441058159, -0.02298535779118538, 0.014492036774754524, 0.5773317217826843, -0.34955668449401855, 0.8083436489105225, -0.7388874292373657, -0.03598244860768318, 0.9729263782501221, 0.9547658562660217, -0.5373642444610596, 0.15240369737148285, 0.08898171037435532, -0.414473295211792, -0.499281108379364, 0.38811567425727844, -0.6437649130821228, 0.10290417075157166, 0.4319164454936981, -0.015234862454235554, 0.33497944474220276, 0.07602016627788544, 0.1881580948829651, 0.2626189887523651, -0.10825945436954498, 0.11806880682706833, -0.11992122232913971, -0.07206563651561737, -0.14808949828147888, 0.02843771129846573, -0.16607262194156647, 0.12233460694551468, -0.017882928252220154, 0.09901047497987747, 0.015195189043879509, -0.12152710556983948, -0.1705036461353302, -0.33536481857299805, 0.07517878711223602, 0.18876424431800842, -0.11384990066289902, -0.16565655171871185, 0.008792884647846222, -0.07041531056165695, 0.18564051389694214, 0.014526248909533024, 0.208213672041893, 0.009306889027357101, 0.02684587426483631, -0.011443382129073143, 0.08450131118297577, 0.0871196761727333, 0.18682710826396942, -0.03909982368350029, 0.21504944562911987, -0.029489770531654358, -0.19535112380981445, 0.00954787153750658, -0.3433844745159149, -0.075902059674263, -0.23420050740242004, 0.1927051842212677, -0.2945219874382019, 0.20880025625228882, 0.2942471504211426, -0.08223983645439148, -0.028350288048386574, 0.15813830494880676, -0.2532951831817627, -0.16742545366287231, -0.23308153450489044, 0.060147475451231, 0.17266282439231873, -0.05488002300262451, -0.008301826193928719, -0.18324366211891174, 0.14187876880168915, -0.07215053588151932, 0.05534055829048157, 0.1563549041748047, 0.23506176471710205, -0.2610709071159363, -0.08633521944284439, -0.25744935870170593, -0.4376589357852936, -0.30121931433677673, 0.11786625534296036, 0.18428201973438263, 0.15298934280872345, 0.10385483503341675, -0.09749571979045868, 0.10873270779848099, 0.3997667729854584, -0.23098182678222656, 0.3453446328639984, -0.13658665120601654, 0.14152830839157104, -0.06781318783760071, 0.053327545523643494, -0.15972000360488892, -0.15921874344348907, 0.18915601074695587, -0.03822856768965721, 0.06675564497709274, 0.3750852644443512, 0.37865781784057617, 0.20083220303058624, 0.28909996151924133, 0.09264218807220459, -0.26471808552742004, -0.10920397937297821, 0.017763840034604073, -0.2504090666770935, 0.2760915160179138, 0.16417717933654785, 0.10594699531793594, 0.1696413904428482, 0.25748783349990845, 0.2081037163734436, -0.25196847319602966, -0.354749858379364, 0.10807714611291885, 0.04758039116859436, 0.040167950093746185, -0.33704495429992676, -0.22513185441493988, 0.13286292552947998, 0.22757145762443542, -0.21414311230182648, 0.24373428523540497, -0.140201598405838, 0.29201045632362366, 0.019256269559264183, 0.43656426668167114, -0.2609059512615204, -0.363200843334198, 0.27882471680641174, 0.385641872882843, 0.1754615306854248, 0.20146074891090393, -0.13282495737075806, 0.11829797923564911, -0.1886368989944458, 0.16152295470237732, -0.24796611070632935, 0.06175814941525459, 0.1711682826280594, -0.2878381609916687, 0.18975909054279327, -0.5335962176322937, 0.028419045731425285, 0.5493195652961731, -0.3715657889842987, -0.5231961607933044, -0.4178350269794464, -0.4778057634830475, -0.5402084589004517, 0.33982139825820923, 0.21042996644973755, -0.04779757559299469, 0.17984479665756226, -0.32086804509162903, -0.302510142326355, -0.09659335017204285, -0.11493641138076782, 0.2832474410533905, -0.3384828567504883, -0.3565545976161957, 0.15709549188613892, 0.27083951234817505, -0.04397439584136009, 0.09477575868368149, 0.3177197575569153, 0.04158928617835045, 0.06476160138845444, 0.205222949385643, 0.15029872953891754, -0.03238264471292496, 0.0726107805967331, 0.24492087960243225, 0.3034989833831787, -0.2234332114458084, 0.18172819912433624, -0.03168616071343422, -0.22455984354019165, 0.03355780243873596, -0.0846390351653099, -0.003672408638522029, -0.21538826823234558, -0.1466911882162094, -0.21790552139282227, 0.06384354829788208, 0.1430356800556183, -0.061162516474723816, 0.23688840866088867, -0.04559624567627907, -0.025125961750745773, 0.008437762968242168, 0.05816013365983963, 0.2925730347633362, -0.17458920180797577, -0.23583972454071045, -0.16495591402053833, -0.09155910462141037, -0.2955840229988098, 0.03319096937775612, -0.13973921537399292, -0.1112799271941185, 0.2168506681919098, -0.3563220202922821, -0.2890682518482208, 0.09789421409368515, -0.004099020268768072, 0.05464866757392883, 0.04453330487012863, 0.08410830795764923, -0.196622833609581, -0.06583423912525177, 0.08992261439561844, 0.19244086742401123, -0.05837975814938545, -0.08825430274009705, -0.004764544777572155, 0.2960224151611328, -0.12012467533349991, -0.1957211047410965, 0.14395008981227875, 0.05342469736933708, -0.15089751780033112, -0.15165400505065918, 0.1494188904762268, -0.04910768195986748, 0.07318924367427826, 0.1321261078119278, 0.024289140477776527, -0.0673929825425148, -0.11480354517698288, 0.038056910037994385, 0.004763220436871052, -0.042669907212257385, -0.000972454494331032, -0.22131463885307312, 0.15271559357643127, -0.22003056108951569, 0.29852184653282166, -0.13351590931415558, -0.09466566890478134, 0.23916439712047577, -0.027216440066695213, 0.03506774082779884, -0.04402845352888107, -0.2579739987850189, 0.07677209377288818, 0.08716090023517609, -0.13117600977420807, 0.04776305705308914, 0.22296366095542908, -0.3600025177001953, -0.07571262121200562, 0.4134838879108429, 0.0050598992966115475, 0.3488197922706604, -0.18571336567401886, -0.210133895277977, 0.3856768012046814, 0.20270121097564697, 0.36320215463638306, 0.024864068254828453, -0.05473530665040016, -0.1208861693739891, -0.637170672416687, 0.25886914134025574, -0.005691146478056908, 0.0895928144454956, 0.15097959339618683, 0.20841333270072937, -0.1260414719581604, 0.18707506358623505, -0.15682871639728546, -0.23180201649665833, -0.08833488076925278, 0.19713574647903442, -0.06495606899261475, 0.12760508060455322, -0.16000287234783173, 0.14104628562927246, 0.0860239565372467, 0.02397063374519348, 0.033063121140003204, 0.08161863684654236, -0.009321450255811214, 0.018633363768458366, -0.005168441217392683, 0.05071668326854706, 0.07521528005599976, 0.0033515740651637316, 0.05912110209465027, -0.14287203550338745, -0.05609508976340294, 0.003435223363339901, -0.22003433108329773, -0.025855015963315964, -0.06895993649959564, -0.2282303422689438, -0.10564742982387543, -0.007279178127646446, 0.3231680989265442, -0.05191373825073242, -0.05237722769379616, -0.11876571178436279, -0.1809244304895401, 0.015848306939005852, 0.17691129446029663, -0.06791196018457413, -0.24774406850337982, -0.13721013069152832, 0.10031788796186447, -0.0037131658755242825, -0.08915027230978012, -0.020148098468780518, -0.14314226806163788, -0.18947751820087433, 0.0013696730602532625, 0.16521266102790833, -0.252246230840683, -0.09227830916643143, 0.12732504308223724, -0.18905241787433624, 0.03271867334842682, -0.01433485560119152, -0.1224091574549675, 0.08438094705343246, -0.08120255917310715, -0.21512898802757263, 0.10327120125293732, 0.091703861951828, 0.19742168486118317, -0.10253559798002243, -0.13997533917427063, -0.046793218702077866, -0.14354591071605682, 0.20962564647197723, -0.2367989420890808, -0.05576787889003754, 0.27007848024368286, -0.14264735579490662, -0.17101585865020752, 0.2654482126235962, -0.10676880925893784, 0.08119311183691025, 0.18491967022418976, -0.11136545985937119, -0.07032466679811478, 0.42414894700050354, 0.014887732453644276, 0.03661953657865524, -0.361141562461853, 0.08181720972061157, 0.09769538789987564, -0.08166031539440155, 0.2858920395374298, 0.06257802248001099, -0.35327768325805664, -0.1950962394475937, -0.15091952681541443, 0.24956341087818146, 0.18002942204475403, 0.16132009029388428, -0.30129796266555786, -0.07831945270299911, -0.10808436572551727, 0.20722348988056183, -0.13002586364746094, -0.20966710150241852, 0.4208454489707947, -0.18760190904140472, -0.03948575630784035, 0.291267991065979, -0.040576085448265076, 0.020882053300738335, 0.17538782954216003, -0.14156945049762726, -0.21652746200561523, 0.1970394402742386, 0.10529335588216782, 0.21949976682662964, -0.42133891582489014, -0.17509745061397552, -0.10105662792921066, 0.0460892952978611, 0.28921130299568176, 0.10745014250278473, -0.07173427194356918, -0.14474225044250488, 0.05321308597922325, 0.07823091745376587, 0.21731485426425934, -0.005259362049400806, -0.021214863285422325, 0.2432459145784378, -0.07064884155988693, 0.10277441889047623, 0.07771356403827667, 0.10019757598638535, 0.022612785920500755, 0.1320943683385849, -0.06995828449726105, -0.10634704679250717, -0.06141388416290283, -0.10970423370599747, 0.04393358528614044, -0.05354626849293709, -0.11888126283884048, 0.058285556733608246, -0.019986655563116074, 0.10133513808250427, -0.17318087816238403, -0.20738203823566437, -0.0460420623421669, 0.18860770761966705, 0.019465342164039612, -0.09387325495481491, 0.22026832401752472, 0.13726243376731873, 0.06380016356706619, 0.03296228498220444, -0.017886187881231308, -0.024761952459812164, 0.12388403713703156, -0.18317610025405884, 0.06371986865997314, 0.15025372803211212, -0.10112281888723373, 0.09535340219736099, 0.08956510573625565, -0.15550297498703003, -0.216628760099411, -0.010107707232236862, -0.025419289246201515, -0.019868599250912666, 0.13063082098960876, 0.15608495473861694, -0.10784198343753815, -0.0849047601222992, 0.22376956045627594, 0.11260377615690231, -0.0013380504678934813, 0.16985121369361877, -0.03771424666047096, 0.1010177955031395, -0.32620230317115784, 0.11612820625305176, -0.005217770114541054, -0.024983907118439674, 0.18259134888648987, 0.044411610811948776, -0.37126466631889343, 0.09515933692455292, 0.0753982812166214, 0.17386987805366516, -0.24832232296466827, -0.00920107401907444, 0.0787014439702034, -0.049565576016902924, 0.012616543099284172, 0.21350939571857452, -0.20188549160957336, -0.07608145475387573, 0.15437664091587067, 0.021731065586209297, 0.08682321757078171, 0.1950720101594925, 0.08885985612869263, -0.02714267559349537, 0.15010231733322144, -0.17705737054347992, -0.07381487637758255, 0.05138123407959938, -0.11684117466211319, 0.10837481170892715, -0.04431735724210739, 0.16429156064987183, 0.10694680362939835, -0.17490240931510925, -0.06864408403635025, 0.018697181716561317, 0.1085873693227768, 0.025317171588540077, -0.01148352213203907, -0.06552809476852417, 0.08514949679374695, 0.034077078104019165, -0.17005421221256256, -0.04055608808994293, 0.03302101045846939, -0.07859095185995102, -0.1970667690038681, -0.21188348531723022, -0.09806135296821594, 0.16077129542827606, -0.11573062092065811, 0.23470070958137512, 0.08638423681259155, 0.15507954359054565, 0.025976600125432014, 0.21438641846179962, 0.09121549129486084, 0.06501271575689316, -0.046223659068346024, 0.01336941309273243, -0.060502976179122925, -0.061411671340465546, -0.03283658251166344, 0.13453219830989838, -0.06717763841152191, 0.04393863305449486, -0.16336992383003235, -0.09078601002693176, 0.12798309326171875, -0.16445159912109375, -0.1803336888551712, 0.1758141666650772, -0.026056870818138123, -0.07144059985876083, 0.05745437741279602, -0.0327744297683239, -0.15214399993419647, -0.028916481882333755, 0.11595419049263, 0.048193395137786865, -0.12236886471509933, -0.25723010301589966, -0.1487903892993927, 0.14041668176651, -0.09654301404953003, 0.1534399837255478, 0.1561441272497177, -0.3608182370662689, -0.1582588255405426, 0.17268536984920502, -0.07100164145231247, 0.06338873505592346, 0.15241946280002594, -0.18215039372444153, 0.026813270524144173, 0.021199233829975128, 0.4459291994571686, 0.01744062267243862, -0.29393309354782104, 0.18402241170406342, -0.040494874119758606, -0.1457914113998413, 0.39928051829338074, -0.05879991501569748, -0.14910495281219482, -0.15632317960262299, 0.050854817032814026, 0.254122257232666, 0.3481069803237915, 0.01237342320382595, -0.19597846269607544, -0.23918838798999786, -0.018217742443084717, 0.3240226209163666, -0.13178321719169617, -0.15701355040073395, 0.36034369468688965, -0.1582595556974411, 0.09735789895057678, 0.2394072562456131, -0.17978914082050323, -0.13634830713272095, 0.18839822709560394, -0.3839072287082672, 0.015250620432198048, 0.06677794456481934, 0.22263780236244202, 0.06217648833990097, -0.16209600865840912, 0.2256452441215515, -0.07850184291601181, 0.13572250306606293, 0.04075692966580391, -0.10252095758914948, -0.021807756274938583, 0.13911943137645721, -0.19791536033153534, 0.21119900047779083, 0.0026694098487496376, -0.22517935931682587, -0.05707505717873573, -0.2892678380012512, -0.14241881668567657, -0.15480497479438782, 0.05417206510901451, 0.43290385603904724, 0.014601539820432663, 0.2175348848104477, 0.3364717662334442, 0.1706882268190384, -0.11553800851106644, 0.37250375747680664, -0.08416806161403656, 0.2055167704820633, -0.4278995990753174, 0.017906488850712776, -0.12362512946128845, 0.22391042113304138, -0.15270644426345825, 0.23702146112918854, -0.20055539906024933, 0.16820065677165985, 0.20729893445968628, -0.2620465159416199, 0.174089252948761, 0.14103476703166962, 0.04334433376789093, 0.13179588317871094, 0.016587574034929276, -0.0236512403935194, -0.10554022341966629, 0.018271423876285553, -0.2725588381290436, 0.05461660400032997, -0.17903004586696625, 0.1718374490737915, -0.12684668600559235, -0.03499917313456535, 0.1054239496588707, 0.08336999267339706, -0.011521701700985432, -0.13207343220710754, -0.012262790463864803, 0.041247155517339706, 0.10620937496423721, 0.08383490890264511, -0.245203897356987, -0.29430434107780457, -0.21071530878543854, -0.24084044992923737, -0.4537132680416107, -0.24450907111167908, 0.03797731548547745, -0.17693904042243958, 0.08130933344364166, 0.3482052981853485, 0.19132477045059204, 0.29111388325691223, -0.02637605555355549, -0.06424218416213989, 0.09048298746347427, 0.0500619076192379, -0.07674801349639893, 0.045054841786623, 0.0886823832988739, 0.10395806282758713, -0.021107232198119164, 0.2464788407087326, 0.01790948584675789, -0.0847400575876236, 0.002513924380764365, 0.04313397407531738, -0.07972003519535065, 0.02408611960709095, -0.05713376775383949, -0.10583659261465073, -0.1085769385099411, -0.08348929136991501, -0.18267562985420227, 0.1262737512588501, 0.0684797465801239, 0.020340243354439735, -0.11815914511680603, 0.07177264988422394, 0.04733993858098984, 0.11626612395048141, 0.18470226228237152, 0.03159415349364281, -0.021696602925658226, -0.20080819725990295, -0.12115329504013062, -0.002752692438662052, 0.01819443516433239, 0.1264476180076599, 0.06740093976259232, -0.10954391211271286, -0.18753141164779663, 0.15270918607711792, -0.053855087608098984, -0.1110917180776596, 0.008747819811105728, 0.1347334086894989, -0.009296230040490627, 0.07758896052837372, 0.05219544470310211, 0.031759027391672134, -0.07309437543153763, -0.036205388605594635, 0.0867147147655487, -0.11992643028497696, -0.16693130135536194, 0.16420944035053253, 0.015519004315137863, 0.11147435009479523, -0.1581268459558487, -0.028509395197033882, -0.038783520460128784, -0.003381997114047408, -0.1267823874950409, -0.04768448695540428, 0.16824980080127716, -0.04689355939626694, 0.10857829451560974, 0.04233817383646965, -0.04202352091670036, -0.09183710068464279, -0.11266405135393143, -0.13530637323856354, -0.15494705736637115, 0.002149148378521204, -0.03542367368936539, -0.05508667230606079, -0.10290063172578812, 0.09862417727708817, -0.004559436812996864, -0.10182371735572815, -0.06670711934566498, 0.04112941771745682, 0.06831668317317963, -0.06858014315366745, -0.028984658420085907, -0.004806442651897669, 0.07516641914844513, 0.18414416909217834, 0.012390263378620148, 0.31784772872924805, 0.16309557855129242, 0.08928182721138, -0.18970932066440582, -0.009692593477666378, 0.09435351938009262, -0.05690938979387283, -0.03035477176308632, 0.0990866869688034, -0.19619493186473846, 0.04801730066537857, 0.15721279382705688, 0.03576851263642311, 0.08211742341518402, -0.05716488137841225, -0.14932025969028473, -0.047958239912986755, 0.0966997817158699, -0.07223924994468689, -0.09894667565822601, 0.012920605950057507, 0.10192336142063141, -0.059743355959653854, -0.04810384288430214, -0.05681484565138817, -0.08728643506765366, -0.10871466249227524, -0.0763452872633934, 0.03888309746980667, -0.017525549978017807, 0.016318336129188538, -0.16060417890548706, 0.05299544706940651, -0.07397887855768204, 0.030607134103775024, -0.06378217786550522, -0.10631812363862991, -0.03192537650465965, -0.21488267183303833, -0.14762233197689056, 0.05839312821626663, -0.061140529811382294, 0.06247695907950401, 0.021580513566732407, 0.12343939393758774, -0.11667046695947647, 0.013376221992075443, 0.08824900537729263, -0.060070112347602844, -0.013135325163602829, -0.10491341352462769, -0.21917763352394104, 0.03453667461872101, 0.03892569988965988, -0.07156361639499664, 0.05307462438941002, 0.07244518399238586, -0.1407575160264969, 0.15039502084255219, 0.15542510151863098, 0.006218824535608292, -0.05480422452092171, 0.08372337371110916, -0.04035931080579758, -0.09455926716327667, -0.007182322442531586, 0.25090348720550537, -0.07032815366983414, -0.1512523889541626, 0.16826410591602325, 0.02363963983952999, -0.13266681134700775, 0.06424997001886368, -0.02961014397442341, 0.02151607908308506, 0.010443410836160183, -0.11539460718631744, -0.0240422822535038, 0.08261308073997498, -0.019293565303087234, -0.07003829628229141, -0.034336552023887634, -0.10268939286470413, 0.027880894020199776, 0.0432732030749321, -0.018903523683547974, -0.023490624502301216, 0.0785018727183342, -0.03677074611186981, -0.13317249715328217, -0.18526896834373474, 0.11497622728347778, 0.16343289613723755, 0.04670931026339531, 0.02034132182598114, -0.021092673763632774, 0.08862482011318207, -0.028275882825255394, -0.20557987689971924, 0.09030471742153168, 0.2024179846048355, -0.06063767522573471, -0.15537528693675995, -0.1107131764292717, 0.06352657079696655, 0.18873761594295502, 0.19590148329734802, -0.011415672488510609, 0.0766303762793541, -0.15078315138816833, 0.022482434287667274, -0.13579586148262024, 0.10584375262260437, -0.09774396568536758, -0.11224041134119034, 0.04301384836435318, 0.06135382875800133, -0.17117051780223846, 0.0005443259724415839, 0.11424864828586578, -0.09841712564229965, -0.06876055151224136, 0.12546081840991974, 0.11695300787687302, 0.034134384244680405, -0.009554972872138023, 0.010942771099507809, -0.007652114611119032, -0.05829797312617302, -0.13896021246910095, -0.020431112498044968, -0.027539873495697975, -0.007507369387894869, 0.08073459565639496, -0.07959908992052078, 0.10727546364068985, 0.09519152343273163, 0.009820994921028614, 0.1331937462091446, 0.11032631248235703, -0.03651687130331993, -0.029458248987793922, -0.025216322392225266, -0.1185702458024025, 0.10930225998163223, -0.11042162030935287, -0.21880082786083221, -0.14613646268844604, -0.18472649157047272, 0.12275063991546631, 0.053028497844934464, 0.05120163783431053, 0.1766396164894104, -0.1237335354089737, -0.09064232558012009, 0.08619293570518494, -0.10117317736148834, 0.07980415970087051, 0.06723280251026154, -0.03936334699392319, 0.042177412658929825, -0.0862203985452652, 0.1786634773015976, 0.16768458485603333, 0.058160584419965744, 0.1249706819653511, -0.12426385283470154, -0.09264317899942398, 0.0036471113562583923, -0.1687782257795334, 0.015014395117759705, -0.029180537909269333, -0.06424390524625778, -0.16898924112319946, 0.11640921980142593, -0.06849101930856705, -0.028896590694785118, 0.09865521639585495, 0.18886639177799225, 0.08690207451581955, -0.10424911975860596, -0.15772730112075806, 0.04945027083158493, 0.10946107655763626, 0.152798593044281, 0.06718063354492188, 0.023172395303845406, -0.21809497475624084, 0.0548941008746624, 0.05703214928507805, 0.0634998083114624, 0.10243617743253708, 0.10681898146867752, 0.12608131766319275, 0.22127728164196014, 0.013876461423933506, 0.16401077806949615, -0.22642968595027924, -0.22188864648342133, -0.04745829850435257, -0.057226989418268204, 0.11490125209093094, 0.10908963531255722, -0.1107078492641449, 0.039024196565151215, -0.12537933886051178, 0.1564711481332779, 0.08292508870363235, -0.055483028292655945, 0.12626336514949799, -0.08193865418434143, -0.10543370991945267, 0.009835228323936462, -0.0004511364968493581, -0.019454622641205788, 0.016181644052267075, -0.0925733670592308, -0.06083390489220619, 0.014935786835849285, 0.115682452917099, 0.096128448843956, -0.06465789675712585, -0.03597710654139519, -0.11302598565816879, -0.08173763751983643, -0.05980738624930382, -0.04450758919119835, 0.055644262582063675, -0.07889056950807571, -0.15060222148895264, -0.10454991459846497, -0.024406898766756058, 0.16795268654823303, -0.10306096822023392, -0.0714026540517807, -0.07438618689775467, 0.04665088281035423, -0.07565917074680328, -0.005314658395946026, 0.020066721364855766, -0.08603305369615555, 0.27032187581062317, 0.020891694352030754, 0.2526884377002716, 0.15325812995433807, -0.07576029002666473, 0.006659521255642176, 0.2880324721336365, 0.2655446529388428, 0.18716758489608765, 0.11449486017227173, -0.12243641912937164, 0.08477377146482468, -0.2956945300102234, -0.01682533137500286, -0.0850762128829956, -0.008931579068303108, 0.09252231568098068, -0.14982035756111145, -0.11815281212329865, 0.1235857754945755, 0.09788835793733597, -0.23126906156539917, 0.03650651127099991, -0.03351091593503952, 0.09066471457481384, 0.15822982788085938, -0.13148507475852966, -0.05026450380682945, -0.022181106731295586, -0.1100388765335083, -0.12066398561000824, -0.08180257678031921, 0.2243780642747879, 0.011210289783775806, -0.020638851448893547, -0.11915867775678635, 0.04017723724246025, -0.17192867398262024, 0.12139558047056198, 0.14651206135749817, -0.013144394382834435, -0.05148033797740936, -0.00891332421451807, 0.03248080983757973, 0.23839053511619568, 0.2650592625141144, 0.03699962794780731, 0.13071207702159882, 0.21592804789543152, 0.10322070866823196, 0.07452359795570374, -0.05507246404886246, -0.10948541015386581, -0.2572908401489258, -0.11335499584674835, -0.2989473342895508, 0.1173759326338768, -0.15740983188152313, -0.2251899540424347, -0.1150723248720169, -0.038943879306316376, 0.026228971779346466, -0.08790246397256851, 0.13110092282295227, 0.20541037619113922, -0.11961948871612549, 0.016195282340049744, -0.02317330613732338, -0.023602094501256943, -0.018682848662137985, 0.09149458259344101, -0.11601094156503677, -0.08239150792360306, 0.09454058855772018, 0.023277737200260162, 0.1408131718635559, -0.08072637766599655, 0.013758421875536442, -0.07082638889551163, 0.05046830698847771, 0.04859136417508125, 0.10573340207338333, 0.13432493805885315, 0.12154271453619003, -0.011791362427175045, -0.04380875453352928, 0.10909989476203918, -0.10482428222894669, 0.06723713874816895, 0.1130223274230957, 0.11197793483734131, -0.0084390789270401, -0.06116991490125656, -0.004888435825705528, 0.05717451125383377, 0.06947007775306702, 0.00041318967123515904, 0.016138162463903427, -0.12548795342445374, -0.3308585286140442, -0.27019262313842773, 0.3694027364253998, -0.6722121238708496, 0.1925135999917984, -0.8755915760993958, -0.1988113969564438, -0.1769077181816101, 1.0400819778442383, -1.0065748691558838, -0.6359548568725586, -0.8477011919021606, 0.18738414347171783, -0.8269915580749512, 0.11819057911634445, -0.923003613948822, -0.2356978803873062, 0.09566543251276016, -0.04971950873732567, 0.260221928358078, 0.09606222063302994, -0.025949720293283463, -0.2589991092681885, 0.07908707112073898, -0.153239443898201, 0.0692080482840538, 0.23531460762023926, 0.0681387409567833, 0.19658149778842926, -0.10595472157001495, -0.061972588300704956, -0.23038522899150848, 0.014674908481538296, -0.045780278742313385, -0.04568216949701309, 0.04682982712984085, -0.33173415064811707, 0.1856907457113266, -0.024363331496715546, -0.36169520020484924, 0.06428007036447525, -0.12844626605510712, 0.08468843996524811, 0.14595937728881836, -0.08990304917097092, 0.25756651163101196, 0.02891663834452629, 0.3110067546367645, 0.09996293485164642, -0.0881744772195816, 0.07387346774339676, -0.060193151235580444, 0.04646395146846771, 0.47163090109825134, -0.021068446338176727, -0.08776097744703293, 0.1709815263748169, -0.09238795191049576, -0.356045663356781, -0.1847485452890396, -0.10142473876476288, 0.24778462946414948, 0.01422465592622757, 0.11877929419279099, 0.20574140548706055, 0.21006757020950317, -0.25065359473228455, -0.4622446298599243, -0.31107908487319946, 0.15344282984733582, -0.18668827414512634, -0.1553543359041214, -0.10738451033830643, 0.0981491357088089, -0.013276258483529091, 0.03277541324496269, 0.1566343456506729, -0.06746978312730789, 0.060636088252067566, 0.143960639834404, 0.32616347074508667, 0.447968065738678, -0.20548443496227264, 0.06325187534093857, 0.1362989991903305, 0.34548524022102356, 0.11683353036642075, 0.05935409665107727, 0.07892710715532303, -0.034167107194662094, -0.07046155631542206, 0.22071683406829834, -0.09918053448200226, 0.21118173003196716, -0.2490071803331375, -0.00773428101092577, -0.245871901512146, -0.148641437292099, -0.12198376655578613, 0.007813351228833199, 0.1476396918296814, -0.3804672956466675, 0.05040948837995529, -0.12013796716928482, 0.2614429295063019, 0.09690752625465393, -0.1200687363743782, -0.06935913115739822, -0.17330774664878845, -0.04847675561904907, 0.18005762994289398, 0.11853501945734024, 0.2658768594264984, -0.08532223850488663, 0.08754704892635345, -0.6306538581848145, 0.03751303628087044, 0.7414764165878296, -0.5159614682197571, -0.05042484775185585, 0.10925299674272537, -0.0913374200463295, -0.21478740870952606, -0.036087118089199066, 0.05602174252271652, -0.1467103511095047, -0.27815598249435425, 0.16566947102546692, 0.21165509521961212, 0.12985976040363312, 0.04012763872742653, -0.09570956230163574, 0.14872151613235474, 0.09380891174077988, 0.04436396807432175, 0.03675592318177223, -0.009904631413519382, 0.08695473521947861, -0.3306067883968353, 0.0046931724064052105, -0.15392117202281952, 0.1728903353214264, 0.19158050417900085, 0.191966250538826, -0.09310457855463028, 0.0626765713095665, -0.39682450890541077, -0.0797913447022438, -0.36526814103126526, -0.19160985946655273, -0.2604622542858124, 0.1311740279197693, -0.22125917673110962, 0.14823009073734283, 0.39829346537590027, -0.16276532411575317, 0.17422384023666382, -0.2078355997800827, -0.09112802892923355, -0.01244229357689619, -0.18126070499420166, 0.10397844761610031, 0.013239515945315361, 0.16879765689373016, 0.17987021803855896, -0.18576180934906006, 0.2222156971693039, 0.015968983992934227, 0.044273246079683304, -0.01154956966638565, 0.1253322958946228, 0.29472440481185913, 0.17812108993530273, 0.20968781411647797, 0.07814379036426544, 0.01055475976318121, -0.09199470281600952, 0.009159831330180168, -0.07459574937820435, 0.15803830325603485, -0.0067334589548408985, 0.025642987340688705, -0.13716597855091095, 0.11663894355297089, 0.16309548914432526, 0.29270705580711365, -0.11027279496192932, 0.09060458838939667, 0.13984473049640656, -0.03725174069404602, -0.039709191769361496, -0.045632921159267426, -0.020291484892368317, 0.20874930918216705, -0.49153566360473633, -0.031115956604480743, -0.34706294536590576, -0.13534513115882874, -0.10287496447563171, 0.31132543087005615, -0.3963192403316498, 0.2838200032711029, 0.3795795142650604, -0.29571571946144104, 0.1976916342973709, -0.37759020924568176, -0.07877025753259659, -0.33427101373672485, -0.209565669298172, -0.3595132827758789, -0.09836207330226898, 0.16043080389499664, -0.1160416528582573, -0.18443261086940765, -0.2296108901500702, 0.02287796512246132, -0.1911342740058899, 0.060945507138967514, -0.23571288585662842, -0.18279677629470825, 0.2468501627445221, -0.2587132155895233, -0.07145997136831284, 0.036158353090286255, -0.07229239493608475, 0.04469864070415497, -0.38377970457077026, 0.3824734687805176, -0.39560288190841675, -0.11535472422838211, 0.0015414045192301273, 0.06256375461816788, -0.22580167651176453, 0.44836801290512085, 0.2944180965423584, -0.11386114358901978, 0.3379034101963043, -0.1019691452383995, -0.04845954477787018, -0.26836928725242615, 0.06142575666308403, 0.2871890962123871, 0.08691364526748657, 0.1099003404378891, -0.07368995994329453, 0.09153122454881668, 0.31223490834236145, -0.10694912821054459, 0.0467834435403347, 0.09526706486940384, -0.12896482646465302, 0.13519981503486633, -0.14061537384986877, 0.22256818413734436, 0.1481221616268158, 0.18295472860336304, 0.004071889910846949, -0.33742257952690125, -0.18484614789485931, 0.1732444018125534, -0.2917802929878235, -0.273465633392334, -0.2442808747291565, 0.18903671205043793, 0.03484008461236954, -0.11341828107833862, 0.24049438536167145, -0.15829473733901978, 0.05111420527100563, -0.18988510966300964, -0.2825931906700134, -0.2699073553085327, 0.010072611272335052, -0.05508378520607948, -0.01108640804886818, -0.04544790834188461, -0.10417529195547104, -0.018228165805339813, 0.08050201833248138, 0.09201394021511078, 0.16787894070148468, 0.022669564932584763, 0.03271991014480591, -0.07847356051206589, -0.010006660595536232, -0.15482132136821747, -0.10946986824274063, -0.05427248403429985, 0.001316278474405408, -0.07210814952850342, -0.06228482723236084, 0.07788578420877457, -0.08458324521780014, -0.03242247551679611, 0.07403876632452011, 0.01832977682352066, -0.002859093016013503, 0.15891090035438538, -0.15063752233982086, -0.0022672065533697605, 0.1428360491991043, -0.020389005541801453, -0.023517150431871414, 0.09710011631250381, 0.15123873949050903, 0.01769281178712845, 0.07103752344846725, -0.07103073596954346, 0.1444389671087265, -0.010265396907925606, 0.0766560435295105, -0.15917269885540009, -0.07980012893676758, 0.06402269750833511, 0.05454819276928902, -0.06035735830664635, 0.14255578815937042, -0.08016115427017212, -0.10092775523662567, 0.0512070395052433, -0.04326435178518295, -0.0495419055223465, -0.02183878794312477, 0.0986255556344986, 0.028168557211756706, -0.08151435852050781, 0.037339601665735245, -0.038026113063097, 0.04127707704901695, 0.02060890570282936, 0.1960946023464203, 0.2507052719593048, -0.09132181853055954, 0.11598744988441467, -0.17213527858257294, -0.03748498484492302, -0.02132197842001915, -0.057091135531663895, 0.21856403350830078, -0.04461106285452843, 0.08423079550266266, -0.22225426137447357, 0.12338224798440933, 0.21598801016807556, 0.11427657306194305, -0.0157078318297863, -0.2113998979330063, -0.10592277348041534, 0.10498101264238358, -0.15737181901931763, 0.022774942219257355, -0.10164406150579453, 0.03449808806180954, -0.14917200803756714, -0.03577590733766556, -0.15549053251743317, 0.11656849831342697, -0.13689328730106354, -0.03302896395325661, -0.05825289711356163, 0.13026970624923706, -0.041361596435308456, -0.10324083268642426, 0.05446261540055275, 0.1783199906349182, 0.000757883011829108, 0.1601584255695343, 0.07272087037563324, 0.148002028465271, 0.03423023223876953, -0.1252574622631073, 0.007305668201297522, -0.001964153489097953, 0.0011490379692986608, 0.003591426182538271, 0.06867043673992157, -0.10705021023750305, 0.07892186939716339, -0.01883341744542122, 0.13888706266880035, -0.18535926938056946, -0.0026305257342755795, -0.045787911862134933, 0.2408907264471054, 0.1233474388718605, -0.040228452533483505, -0.18942540884017944, 0.0701047033071518, 0.012818420305848122, -0.03189763054251671, 0.21928547322750092, 0.12493392825126648, 0.23050004243850708, -0.13756629824638367, 0.02105122245848179, 0.00949662085622549, -0.04163306951522827, -0.04412690922617912, 0.09115365892648697, -0.013087292201817036, -0.04687798395752907, 0.03452245146036148, 0.032722774893045425, 0.18571114540100098, 0.1418227106332779, -0.11996573954820633, 0.046940162777900696, 0.13440734148025513, 0.13706369698047638, 0.05794104188680649, -0.07397285848855972, -0.08814457803964615, -0.04642444849014282, -0.07725034654140472, -0.01926305517554283, 0.12214556336402893, -0.11342261731624603, 0.03725774958729744, 0.0649116039276123, -0.08371414989233017, 0.14086191356182098, 0.025987200438976288, -0.029575491324067116, 0.03127577155828476, 0.02502683363854885, -0.06963145732879639, 0.08918976783752441, -0.08932505548000336, 0.0004918225458823144, -0.10580196976661682, -0.046661075204610825, -0.02551898919045925, 0.00042777188355103135, -0.14878098666667938, -0.08231484889984131, -0.12349211424589157, 0.15997816622257233, 0.07926801592111588, 0.11036450415849686, 0.19636912643909454, -0.0026130422484129667, 0.1411048173904419, 0.024182861670851707, -0.15444371104240417, 0.07702677696943283, 0.07845445722341537, -0.10924774408340454, -0.1268722414970398, -0.12142369896173477, 0.11350486427545547, 0.047484248876571655, 0.10197295993566513, 0.06379152834415436, -0.09259773045778275, 0.053808316588401794, 0.20846036076545715, 0.13394935429096222, 0.05239265039563179, -0.032043591141700745, -0.20094138383865356, -0.10460338741540909, -0.07097083330154419, 0.1205388531088829, 0.026061391457915306, -0.16526441276073456, 0.24957768619060516, -0.05593499168753624, -0.20065443217754364, 0.08573715388774872, -0.10601964592933655, -0.11135800182819366, 0.24420219659805298, -0.058532845228910446, -0.08392880856990814, 0.022576995193958282, 0.03374123200774193, 0.1260429322719574, -0.1536847949028015, -0.12902624905109406, 0.12684179842472076, -0.03707050904631615, -0.20126239955425262, 0.1917346864938736, -0.03580954670906067, 0.09974468499422073, 0.06709606945514679, 0.03684254363179207, 0.0380946584045887, 0.15449751913547516, 0.018539804965257645, 0.1019633486866951, 0.07184509187936783, -0.0874655544757843, -0.08045057207345963, 0.2414732426404953, 0.13817767798900604, 0.22612078487873077, -0.2230619341135025, -0.1499217003583908, -0.23577311635017395, 0.19202126562595367, 0.011426355689764023, -0.056499186903238297, -0.1641966700553894, -0.08929093182086945, -0.2355671226978302, 0.30931156873703003, 0.17902885377407074, 0.2567601203918457, -0.16143359243869781, -0.2412068396806717, -0.19532309472560883, 0.28461214900016785, -0.07125477492809296, -0.035182345658540726, 0.10419988632202148, -0.1368291676044464, -0.00860678218305111, 0.11949528753757477, -0.22220900654792786, -0.28919076919555664, 0.33664608001708984, -0.03972378373146057, 0.017971640452742577, 0.49528107047080994, 0.258999228477478, -0.21552978456020355, -0.30798447132110596, 0.10287455469369888, -0.08149003237485886, -0.2662516236305237, 0.17193388938903809, 0.06306988000869751, 0.049506448209285736, 0.05761026591062546, 0.012276019901037216, -0.04011037200689316, 0.009309368208050728, -0.09298930317163467, 0.07782687246799469, 0.08461572229862213, 0.026368333026766777, -0.0770045816898346, -0.2331826239824295, -0.14643560349941254, 0.10178714990615845, -0.03238477557897568, 0.2031089961528778, 0.006755136419087648, -0.13593561947345734, -0.10842017829418182, 0.17257311940193176, 0.1365768015384674, 0.003307341830804944, -0.21403029561042786, -0.15128806233406067, -0.03760085254907608, 0.10194817930459976, 0.13388663530349731, 0.0709458440542221, -0.12211339920759201, 0.06614776700735092, 0.10392408818006516, -0.026979556307196617, 0.13555409014225006, -0.07072225213050842, -0.12807755172252655, 0.046621162444353104, 0.07353822886943817, -0.0831950381398201, 0.24450266361236572, 0.16911524534225464, 0.00862902496010065, -0.04132208228111267, -0.20950165390968323, 0.03915957361459732, -0.2302439957857132, -0.10140997916460037, 0.25394997000694275, 0.06512092053890228, -0.09613750874996185, -0.2641957104206085, 0.04788858816027641, -0.017091216519474983, -0.193133145570755, -0.06567837297916412, 0.17065031826496124, 0.08992932736873627, -0.012446312233805656, -0.007010204717516899, -0.059975363314151764, 0.007819520309567451, 0.04960107430815697, -0.03032739646732807, 0.18323378264904022, 0.10423707962036133, -0.33045074343681335, 0.18837541341781616, 0.03256332129240036, -0.25554347038269043, -0.2143658697605133, 0.003066148143261671, 0.23784033954143524, 0.016891881823539734, 0.1031390056014061, -0.19048337638378143, -0.3189488649368286, 0.005560809746384621, 0.10048837959766388, -0.1514018028974533, -0.037756312638521194, 0.17963364720344543, -0.1934385597705841, -0.08743450045585632, 0.2324322611093521, -0.17954407632350922, -0.13233211636543274, 0.21877537667751312, -0.2535095810890198, 0.03715316206216812, 0.0541808195412159, 0.17487093806266785, -0.2312665432691574, 0.19254590570926666, 0.16394178569316864, 0.08515546470880508, -0.30511853098869324, 0.015854772180318832, 0.10944075137376785, 0.1297716349363327, 0.01239781267940998, 0.25282013416290283, 0.11515134572982788, -0.07541292160749435, 0.03432080149650574, 0.03820469230413437, -0.09183865040540695, 0.14757469296455383, -0.06360563635826111, -0.07247317582368851, -0.016901541501283646, 0.0776400938630104, -0.15756340324878693, 0.10685043036937714, 0.21911399066448212, -0.18086320161819458, 0.020962359383702278, 0.07417922466993332, 0.08882679790258408, 0.13762778043746948, -0.21754828095436096, -0.19525964558124542, -0.03773830085992813, -0.03615250810980797, 0.27411434054374695, -0.005187631119042635, -0.12421350926160812, 0.053539544343948364, 0.05778306722640991, -0.261038213968277, 0.08027134835720062, 0.06473632901906967, 0.03144623339176178, 0.03298526257276535, 0.003970277961343527, -0.12753471732139587, 0.1612689197063446, 0.21399667859077454, 0.0035912988241761923, -0.17418408393859863, -0.26191070675849915, -0.044028181582689285, -0.37300604581832886, 0.12310173362493515, 0.1414605677127838, 0.4879089295864105, -0.3268789052963257, 0.07263711839914322, 0.1747082620859146, -0.17674048244953156, -0.14027877151966095, -0.12454894185066223, 0.121474988758564, 0.016674932092428207, 0.07134030014276505, -0.36332088708877563, -0.09319750964641571, 0.038650188595056534, -0.023562965914607048, 0.02821623720228672, 0.4967028498649597, -0.09191172569990158, -0.12548336386680603, 0.2289508730173111, -0.19620822370052338, 0.01918255165219307, -0.1376078873872757, 0.039464619010686874, 0.026732495054602623, 0.199026957154274, -0.13486674427986145, 0.14300157129764557, -0.05969613790512085, 0.20257799327373505, 0.009737617336213589, -0.18110480904579163, 0.25350162386894226, -0.02337254397571087, -0.34484443068504333, 0.46725207567214966, 0.03568020090460777, -0.2159997820854187, 0.27683740854263306, 0.22551502287387848, 0.34976139664649963, -0.6041212677955627, -0.1412305235862732, -0.439378559589386, 0.6561217308044434, -0.18709547817707062, -0.24508434534072876, -0.06781407445669174, 0.028391435742378235, 0.10259029269218445, 0.12844476103782654, 0.016813548281788826, -0.05952467396855354, -0.031975895166397095, 0.17198236286640167, -0.10088574141263962, -0.023796120658516884, -0.03909235820174217, -0.08020474761724472, -0.0867106094956398, -0.009809601120650768, 0.019173573702573776, -0.0033487221226096153, -0.20685017108917236, -0.09259412437677383, -0.08387535810470581, -0.2872665524482727, 0.1235133707523346, -0.16775983572006226, -0.24920561909675598, -0.15653769671916962, -0.14580106735229492, 0.24847333133220673, 0.2426789551973343, -0.0661403015255928, -0.12574590742588043, -0.136667400598526, -0.02983098290860653, 0.12219569832086563, -0.22017298638820648, 0.14073342084884644, 0.04823151230812073, -0.11547259241342545, 0.01511716190725565, 0.05069439485669136, -0.2530694603919983, -0.18690252304077148, 0.16741310060024261, -0.1460021436214447, 0.05351243168115616, -0.0009051368688233197, 0.25918102264404297, 0.08572347462177277, -0.12349388748407364, -0.15024760365486145, 0.04632189869880676, 0.002455440117046237, 0.05716412514448166, 0.07931353151798248, 0.2282063513994217, -0.08156061172485352, 0.021421343088150024, 0.02845246158540249, 0.007931583561003208, 0.0897442102432251, 0.09081456810235977, 0.1514366865158081, -0.12752680480480194, 0.07505353540182114, 0.16298723220825195, 0.0036944120656698942, 0.01470294687896967, 0.24893808364868164, 0.15392817556858063, -0.16816283762454987, 0.16929574310779572, 0.013735095039010048, -0.0350351445376873, -0.11369864642620087, 0.214942067861557, 0.03863716125488281, 0.022485248744487762, -0.138223797082901, 0.12894561886787415, -0.021153386682271957, 0.11726649105548859, 0.07503735274076462, -0.07922491431236267, -0.01271192915737629, 0.10278817266225815, 0.04903760552406311, 0.09831342846155167, -0.03375556319952011, 0.049834538251161575, 0.006141959689557552, -0.0007187328301370144, -0.26704639196395874, 0.041048984974622726, -0.08452197164297104, 0.17761006951332092, -0.054281435906887054, -0.16158230602741241, -0.3295966386795044, -0.019964003935456276, 0.32347413897514343, 0.28235942125320435, -0.0912572368979454, -0.05448642745614052, 0.06086178496479988, 0.13352856040000916, 0.06321825832128525, -0.2661554217338562, 0.1255742460489273, 0.008008323609828949, 0.24610385298728943, -0.040171146392822266, -0.08257509022951126, -0.04937240481376648, -0.2782433331012726, 0.020466310903429985, 0.22790591418743134, 0.3852795958518982, -0.27346542477607727, 0.30271729826927185, -0.15049175918102264, -0.198798269033432, -0.34766829013824463, 0.18472708761692047, -0.030487777665257454, 0.0873878002166748, -0.28342846035957336, -0.14112533628940582, -0.29036393761634827, -0.013109695166349411, 0.060545098036527634, -0.14826257526874542, 0.08186784386634827, 0.20036636292934418, -0.24153177440166473, 0.1375875025987625, 0.07782766968011856, -0.4018310308456421, 0.017570488154888153, 0.2770024836063385, 0.2942814528942108, -0.22910195589065552, 0.1292150616645813, -0.6098787188529968, -0.06011096388101578, -0.33298400044441223, -0.09570340067148209, -0.0883650928735733, 0.2532317340373993, 0.11559633165597916, -0.0517672635614872, -0.19828535616397858, -0.1230141893029213, -0.28333568572998047, -0.08174480497837067, 0.005177151877433062, -0.2533913254737854, 0.0006176939350552857, 0.15450096130371094, -0.0012668999843299389, 0.09628923237323761, 0.026158427819609642, 0.1343235820531845, -0.1033511608839035, -0.04146968200802803, 0.044225480407476425, -0.003625181270763278, 0.1279335618019104, 0.00873598549515009, -0.12029922753572464, 0.014478260651230812, -0.28898289799690247, 0.17391642928123474, -0.07087736576795578, 0.27033695578575134, -0.10605175793170929, 0.012120358645915985, 0.11412598937749863, 0.0583103708922863, 0.035172875970602036, -0.17867055535316467, 0.1750200092792511, -0.08468782156705856, -0.02119089849293232, -0.039742354303598404, 0.09226416796445847, -0.0023192099761217833, 0.13418592512607574, -0.16976913809776306, -0.050900284200906754, -0.22985851764678955, 0.17330093681812286, 0.09823785722255707, 0.1370825618505478, -0.06709418445825577, 0.04180530458688736, -0.05856826901435852, 0.05734487250447273, -0.04336775094270706, 0.017378009855747223, -0.08332249522209167, 0.08384566009044647, -0.1994914710521698, -0.23358771204948425, 0.0462539978325367, 0.13889279961585999, -0.1569512039422989, 0.112556591629982, 0.06066708639264107, 0.2131625860929489, -0.08297254890203476, 0.02672039344906807, -0.09701606631278992, 0.03512917831540108, -0.16718319058418274, 0.12493858486413956, -0.02101905457675457, -0.07021760940551758, -0.1742541640996933, 0.10515336692333221, -0.04373069852590561, 0.22208620607852936, -0.22929830849170685, 0.23127177357673645, -0.06902921199798584, 0.06633508950471878, -0.17362935841083527, -0.20110583305358887, 0.15118704736232758, 0.03701859712600708, -0.0815228596329689, 0.1521490514278412, -0.02772415243089199, -0.008954650722444057, 0.21202951669692993, -0.05304821953177452, -0.30167216062545776, -0.02970547415316105, -0.040444422513246536, 0.1314842253923416, -0.030613265931606293, -0.07397628575563431, 0.13535743951797485, 0.030141692608594894, 0.14514558017253876, 0.005519990809261799, 0.12315050512552261, -0.08008096367120743, -0.012224942445755005, 0.19032834470272064, 0.06501805782318115, -0.02519521489739418, -0.0402192585170269, 0.1069440171122551, -0.008519408293068409, 0.010360692627727985, -0.11393662542104721, 0.059946458786726, -0.13932417333126068, -0.250121533870697, -0.030858444049954414, 0.253609836101532, 0.05059787258505821, 0.019236087799072266, 0.09761149436235428, 0.003453512443229556, 0.03527182713150978, -0.19506466388702393, 0.09165909141302109, 0.0955236405134201, 0.09310223162174225, 0.011326885782182217, -0.034052133560180664, -0.0424940399825573, 0.024830494076013565, -0.04808356985449791, -0.0006059271399863064, -0.03952223062515259, -0.05910780280828476, -0.2794798016548157, -0.06126096099615097, 0.04659973084926605, -0.3453938961029053, 0.0607084222137928, -0.1208968237042427, 0.21750114858150482, -0.08978058397769928, 0.09634998440742493, -0.13151444494724274, 0.08958728611469269, -0.2545205056667328, -0.10267294198274612, 0.2968069314956665, -0.015695303678512573, 0.17386563122272491, 0.018785551190376282, -0.29281190037727356, 0.16514325141906738, 0.21251694858074188, -0.25397640466690063, 0.07834921032190323, 0.23775701224803925, -0.16257639229297638, 0.3340275287628174, -0.07511191070079803, 0.3238641917705536, -0.04015189781785011, -0.32234734296798706, 0.01452057994902134, 0.23780739307403564, -0.007883673533797264, 0.20503555238246918, 0.06472253054380417, -0.17130114138126373, -0.20082174241542816, -0.08777974545955658, 0.25752171874046326, 0.11254782974720001, 0.01804281957447529, -0.2920093536376953, -0.23941989243030548, -0.19983218610286713, 0.3351001441478729, -0.36103373765945435, 0.023434726521372795, 0.37848931550979614, -0.34884533286094666, 0.04653262719511986, 0.08496640622615814, -0.22694680094718933, -0.002170585561543703, 0.22860975563526154, -0.016166264191269875, 0.15487439930438995, 0.16858066618442535, 0.19201891124248505, -0.4634859263896942, 0.16460226476192474, 0.018324129283428192, 0.034033890813589096, 0.017397785559296608, -0.03560533747076988, -0.0011908212909474969, 0.019704114645719528, -0.03761236369609833, -0.04729262366890907, 0.03528405353426933, 0.0013848264934495091, -0.00886105839163065, 0.011860661208629608, -0.01836130954325199, -0.005455911159515381, 0.009716424159705639, 0.0012422576546669006, -0.1256822794675827, -0.7488446235656738, 0.7256649136543274, 0.23096342384815216, -0.5337820053100586, 0.018649859353899956, -0.14239129424095154, -0.14660267531871796, 0.6142833232879639, -0.781478226184845, 1.067456603050232, 0.8811658024787903, 0.12539273500442505, -0.2453027218580246, 0.264673113822937, -0.7229896783828735, 0.24049486219882965, -0.272907018661499, -0.011330769397318363, -0.21745407581329346, -0.13588395714759827, 0.11364372074604034, 0.19534629583358765, 0.07921198010444641, 0.20655882358551025, 0.2097778171300888, 0.49048709869384766, 0.2978316843509674, -0.24917173385620117, 0.3737649917602539, -0.04093701019883156, -0.11947055906057358, 0.3657259941101074, 0.00902384240180254, -0.09717175364494324, 0.03513634577393532, 0.07730057835578918, 0.03958480432629585, 0.08255516737699509, -0.39485394954681396, -0.07567600160837173, 0.11044404655694962, -0.006179285701364279, -0.47084903717041016, 0.0031588503625243902, 0.12560206651687622, 0.15924672782421112, -0.15480747818946838, -0.05737273022532463, -0.029584690928459167, -0.04478153958916664, -0.2983836531639099, 0.6155689358711243, -0.33536428213119507, 0.31469300389289856, -0.45096850395202637, 0.0632094293832779, 0.2907578945159912, -0.19513362646102905, 0.0815691202878952, 0.29781991243362427, -0.34837695956230164, 0.0165375005453825, 0.5743083953857422, 0.11181683838367462, -0.08673378825187683, 0.16959573328495026, 0.028045399114489555, 0.013609240762889385, 0.11705486476421356, -0.47742611169815063, 0.3767598271369934, 0.20105765759944916, -0.1942676156759262, -0.12524054944515228, 0.015519288368523121, 0.06502047926187515, 0.06950650364160538, 0.06865816563367844, -0.167066752910614, 0.18036015331745148, 0.014840250834822655, 0.01055495161563158, -0.3836245834827423, 0.3179638087749481, -0.23130416870117188, -0.01149984821677208, -0.5055789351463318, 0.19798783957958221, 0.20148633420467377, 0.03678599372506142, 0.23906680941581726, 0.09562019258737564, -0.18429377675056458, -0.02578348107635975, 0.011228901334106922, -0.3257981538772583, -0.07110074162483215, 0.12753304839134216, 0.10524355620145798, -0.2754925489425659, 0.1421729028224945, 0.042343489825725555, 0.33500921726226807, -0.2136857807636261, -0.36004453897476196, -0.1524900496006012, -0.010327713564038277, -0.01821710541844368, 0.019556093961000443, 0.11208441108465195, -0.1362868994474411, 0.11262470483779907, 0.12266837060451508, -0.13304826617240906, -0.07312651723623276, 0.3734580874443054, -0.21085003018379211, 0.27257686853408813, -0.1688830405473709, -0.30232277512550354, 0.2356107383966446, 0.14617887139320374, -0.21589305996894836, 0.37054622173309326, 0.08213499188423157, 0.12016317993402481, 0.3923121690750122, 0.29644685983657837, 0.21025218069553375, -0.3031463623046875, -0.13405565917491913, 0.137346088886261, -0.13284273445606232, 0.22159817814826965, -0.15598689019680023, 0.04288176819682121, 0.13590306043624878, 0.2270062267780304, 0.18114185333251953, 0.0014217387652024627, 0.1338786482810974, 0.13061797618865967, 0.002178107388317585, -0.24719132483005524, 0.176756352186203, 0.26637589931488037, 0.1744195967912674, 0.4185415506362915, 0.05657915398478508, -0.12591581046581268, 0.215506911277771, -0.10230566561222076, 0.1560181826353073, -0.37711647152900696, 0.11114278435707092, -0.24676606059074402, -0.20403672754764557, 0.014754097908735275, 0.37581485509872437, 0.32646748423576355, -0.012654009275138378, -0.4414118826389313, 0.07129386812448502, 0.04786345735192299, 0.09611552953720093, -0.20774154365062714, -0.3413754105567932, -0.13488070666790009, 0.04671149700880051, 0.1827467828989029, -0.1017838716506958, 0.09642340987920761, 0.1510072946548462, 0.2494780570268631, -0.19672514498233795, 0.2809452414512634, -0.1830935925245285, -0.031447552144527435, -0.2900029122829437, 0.35764452815055847, -0.31187745928764343, 0.47392815351486206, -0.05654513090848923, 0.28125736117362976, 0.2935069799423218, -0.11772958189249039, 0.15293990075588226, -8.994761446956545e-05, -0.11487788707017899, 0.13450904190540314, 0.6133013367652893, -0.0008592256926931441, 0.13087035715579987, 0.011958575807511806, 0.2094941884279251, -0.07438664138317108, 0.18915687501430511, 0.29069867730140686, 0.19110114872455597, -0.09795906394720078, -0.06129412353038788, -0.06178147718310356, 0.0862095057964325, -0.2565123438835144, -0.2861327826976776, -0.04330916702747345, 0.13446125388145447, -0.2870922088623047, -0.1588434875011444, -0.16791124641895294, -0.11857645213603973, 0.23525957763195038, -0.04551038518548012, 0.32738012075424194, -0.10189919173717499, -0.3833222985267639, 0.4425260126590729, -0.10704673826694489, 0.32910823822021484, 0.05986721068620682, 0.22056567668914795, 0.15872634947299957, 0.8010962605476379, -0.20358353853225708, 0.020641382783651352, 0.0330420657992363, -0.024813920259475708, 0.13914482295513153, -0.09803477674722672, 0.3859482705593109, 0.03639181703329086, -0.03534054756164551, 0.06707429140806198, 0.06215060502290726, 0.05844786763191223, -0.14289328455924988, 0.13406461477279663, -0.15140239894390106, 0.4728423058986664, -0.036531705409288406, 0.13635659217834473, -0.12159617990255356, -0.25737249851226807, -0.11303891241550446, -0.2323383241891861, 0.09494984149932861, -0.34467536211013794, 0.39637354016304016, 0.16103331744670868, 0.1866765320301056, 0.4556107521057129, -0.03866034746170044, 0.2414819896221161, -0.10623850673437119, -0.18253926932811737, -0.29042384028434753, -0.20372679829597473, 0.07787337154150009, -0.1933935135602951, -0.6378219127655029, -0.08002147823572159, 0.2302495390176773, -0.11196193844079971, 0.5283770561218262, 0.25940263271331787, 0.3382720649242401, 0.7467696666717529, -0.38311973214149475, 0.2474106252193451, -0.2335665374994278, 0.6060097813606262, 0.04372801259160042, -0.029934950172901154, -0.007090707775205374, 0.054943669587373734, -0.04274838790297508, 0.054608944803476334, 0.0436820387840271, -0.004208228550851345, -0.08398394286632538, -0.051302578300237656, 0.017854424193501472, 0.09584783017635345, 0.07221585512161255, 0.09165692329406738, -0.008483726531267166, -0.016380812972784042, 0.08567734062671661, -0.03212821111083031, -0.40308263897895813, -0.2681412398815155, -0.19910086691379547, 0.46532532572746277, -0.06161189451813698, -0.14221921563148499, 0.06842894107103348, 0.23959322273731232, 0.25502267479896545, 0.10477785021066666, -0.020949579775333405, -0.21455222368240356, 0.14396604895591736, -0.22485977411270142, 0.08812613785266876, 0.15071506798267365, -0.21649695932865143, -0.23340420424938202, 0.14421573281288147, -0.5104955434799194, -0.06804013252258301, 0.20318318903446198, 0.39848315715789795, -0.07476794719696045, -0.35939091444015503, -0.23574542999267578, 0.024289056658744812, 0.1948186308145523, -0.26190322637557983, -0.3416287302970886, -0.2894950807094574, 0.4313100278377533, 0.0003601864736992866, -0.34328746795654297, -0.09282413125038147, 0.06191566586494446, -0.3766859769821167, 0.09309055656194687, -0.1711757630109787, -0.596459150314331, -0.25396546721458435, -0.19835709035396576, 0.10886403173208237, -0.15294675529003143, -0.03319741412997246, -0.7071002125740051, 0.121184803545475, 0.17218589782714844, -0.050407301634550095, 0.0526108518242836, -0.15602979063987732, -0.02856159396469593, 0.027948344126343727, -0.15119105577468872, 0.11707033962011337, -0.08351518958806992, 0.17260605096817017, -0.08232409507036209, -0.023649053648114204, -0.10185613483190536, 0.10693242400884628, -0.08381059020757675, -0.1776224970817566, 0.09506677091121674, -0.18819685280323029, 0.04668464884161949, 0.03520479053258896, -0.14609701931476593, -0.11036413908004761, 0.09987299889326096, 0.2068912833929062, 0.119792141020298, -0.2694111764431, -0.1483132541179657, 0.0921436995267868, 0.23312492668628693, -0.027662837877869606, -0.03361990675330162, 0.13419070839881897, 0.29087409377098083, -0.0024484884925186634, -0.3410097658634186, -0.019524740055203438, 0.001989011885598302, 0.026959076523780823, 0.012220321223139763, 0.10050695389509201, -0.1841099113225937, 0.10555678606033325, 0.022637134417891502, 0.03577443212270737, -0.017270822077989578, 0.10950445383787155, 0.2534933090209961, -0.10379458963871002, 0.0455281026661396, 0.011771016754209995, 0.14001941680908203, -0.013615677133202553, -0.21225246787071228, -0.11856826394796371, -0.05689787492156029, 0.022361520677804947, -0.16931048035621643, 0.10752883553504944, -0.05624857544898987, 0.11318197101354599, -0.09690247476100922, -0.06984803080558777, -0.05593256652355194, -0.19382639229297638, 0.10398166626691818, 0.13942407071590424, 0.14667361974716187, -0.16878342628479004, 0.05726189538836479, -0.06610744446516037, 0.0006142555503174663, -0.11595068126916885, 0.1291501522064209, 0.07378225773572922, 0.16993272304534912, -0.09983495622873306, 0.06211264804005623, 0.041775792837142944, 0.10275077819824219, -0.164374440908432, -0.15000352263450623, -0.05224686861038208, 0.007516085635870695, 0.033793408423662186, 0.04526404291391373, 0.008796311914920807, -0.11159957200288773, -0.013285094872117043, -0.02046482264995575, -0.022417237982153893, -0.13758796453475952, -0.1391652226448059, -0.016684815287590027, -0.017611997202038765, 0.1404298096895218, 0.127263143658638, 0.43601733446121216, -0.2279120832681656, -0.09209764748811722, -0.2222602814435959, 0.21457280218601227, 0.11738995462656021, -0.07729371637105942, -0.22582271695137024, 0.035492848604917526, 0.15851157903671265, -0.0732700452208519, 0.06268928200006485, 0.1344340741634369, -0.06323473155498505, -0.20931322872638702, -0.09500294178724289, 0.2888907194137573, 0.06707919389009476, -0.08943431079387665, 0.02967158891260624, -0.023382654413580894, -0.039139870554208755, 0.21347539126873016, 0.20255541801452637, -0.00831547100096941, -0.41340357065200806, -0.2248985767364502, -0.10939393192529678, 0.24614916741847992, 0.09175177663564682, 0.1739739179611206, -0.4129457473754883, 0.16403833031654358, 0.24567484855651855, -0.0753079205751419, 0.038404300808906555, 0.24219466745853424, -0.21181795001029968, 0.16501875221729279, 0.22712303698062897, -0.28441065549850464, -0.05943499505519867, 0.07751157134771347, -0.10663217306137085, 0.00229058344848454, 0.4493134617805481, -0.22272661328315735, -0.009122079238295555, 0.09324894100427628, -0.16390042006969452, 0.0986640602350235, -0.08674485236406326, 0.049619078636169434, -0.10958829522132874, 0.2279980480670929, -0.05438290908932686, -0.008582103997468948, -0.1085209921002388, 0.006536272820085287, 0.09209112077951431, -0.09080852568149567, -0.06459923088550568, 0.023688705638051033, 0.14509785175323486, 0.18760085105895996, -0.1134147197008133, -0.05659123882651329, 0.002423209836706519, 0.0949333906173706, 0.02302384190261364, -0.07045628875494003, -0.10142950713634491, 0.26866814494132996, -0.03126189857721329, -0.06097910553216934, -0.10202862322330475, 0.05602944269776344, 0.054250214248895645, 0.4710642099380493, -0.050343107432127, -0.08593253791332245, -0.012049894779920578, -0.037212174385786057, -0.13953827321529388, 0.21644605696201324, -0.024262256920337677, -0.16313767433166504, 0.06578493118286133, -0.04807768389582634, -0.10695848613977432, 0.020851945504546165, -0.07806146889925003, 0.09433948248624802, 0.191975936293602, -0.18464164435863495, -0.0769064724445343, 0.19052840769290924, -0.10771701484918594, 0.10903225839138031, -0.14930632710456848, -0.02998027764260769, 0.2465505450963974, 0.32034799456596375, 0.17492270469665527, -0.3244527578353882, -0.06985826790332794, -0.21417470276355743, 0.22973714768886566, -0.08674563467502594, -0.0043916660360991955, -0.20215155184268951, -0.21662986278533936, 0.009833715856075287, 0.07516907155513763, 0.1250353753566742, 0.02957361564040184, 0.09659881889820099, -0.018776167184114456, -0.06627006083726883, -0.20544719696044922, 0.29631534218788147, -0.06352049857378006, 0.055668629705905914, -0.051237765699625015, 0.006689013447612524, 0.36322861909866333, 0.43516406416893005, -0.031078286468982697, -0.04593328759074211, 0.0556124709546566, 0.08874017000198364, 0.036000970751047134, 0.21681195497512817, -0.1364734023809433, -0.020952874794602394, 0.2986447215080261, -0.09606941044330597, 0.28237390518188477, 0.17230097949504852, -0.013755708932876587, 0.3123253881931305, 0.9677985906600952, 0.03940010443329811, 0.04509653151035309, 0.08889476209878922, -0.11299014091491699, 0.04412692412734032, -0.03692895546555519, -0.14995944499969482, 0.04442044720053673, 0.14894717931747437, -0.09007507562637329, -0.10185851901769638, -0.012526650913059711, -0.02888612635433674, -0.016369925811886787, 0.060786180198192596, -0.12292459607124329, -0.04517641291022301, -0.08275162428617477, 0.11365547776222229, -0.0455486960709095, -0.07347937673330307, -0.2695429027080536, 0.2811102867126465, -0.0405087023973465, -0.1781155914068222, -0.17443054914474487, 0.14551939070224762, 0.11445972323417664, 0.09113464504480362, 0.005271341186016798, -0.06496801227331161, 0.1855429708957672, 0.0529446117579937, -0.15149836242198944, -0.14286285638809204, -0.08995071798563004, 0.08550328016281128, 0.11311781406402588, -0.038436271250247955, -0.044354602694511414, -0.22273747622966766, 0.049733761698007584, -0.07252981513738632, 0.0006948246154934168, 0.17132000625133514, -0.02072395198047161, -0.03427910432219505, -0.27756500244140625, -0.23509614169597626, -0.04964914917945862, 0.026748862117528915, -0.2554260194301605, -0.1546224057674408, -0.0694068968296051, 0.4178885817527771, -0.39886295795440674, -0.6736050844192505, 0.20206421613693237, 0.16145625710487366, 0.0951162576675415, -0.34253013134002686, -0.4044650197029114, -0.18590746819972992, -0.45834946632385254, -0.10155923664569855, 0.24769118428230286, 0.03838833421468735, -0.38594457507133484, -0.5718271732330322, 0.2305823713541031, -0.2880880534648895, 0.06316816806793213, 0.11429630219936371, 0.2693386375904083, -0.1840410679578781, -0.18752899765968323, -0.1938578188419342, 0.07274501025676727, 0.21269720792770386, -0.43476617336273193, -0.4858458340167999, -0.03771369159221649, 0.22602488100528717, -0.11766375601291656, -0.07019467651844025, 0.06882759183645248, -0.13121344149112701, 0.19914938509464264, 0.05389463156461716, -0.26981985569000244, -0.088105209171772, -0.1884327232837677, -0.1850263625383377, -0.7707352042198181, -0.1926756352186203, 0.015424776822328568, -0.30172404646873474, -0.09656992554664612, 0.12449224293231964, 0.039184119552373886, 0.04990236461162567, -0.19931934773921967, 0.12617912888526917, -0.13519205152988434, -0.30257514119148254, -0.6614274382591248, 0.10950081795454025, 0.06834571808576584, -0.1508687287569046, -0.18070870637893677, -0.1060573160648346, -0.037253789603710175, -0.19839656352996826, 0.19216449558734894, 0.29382792115211487, -0.281728059053421, -0.2908422350883484, -0.40033605694770813, -0.2765495777130127, -0.1767822951078415, 0.0203058123588562, 0.19990383088588715, 0.03697504475712776, -0.38563063740730286, -0.009860089980065823, 0.10188129544258118, 0.17063738405704498, -0.10352563858032227, -0.2675640881061554, -0.5406851172447205, 0.37686625123023987, 0.1128445640206337, -0.3456204831600189, 0.05844166874885559, -0.018780602142214775, -0.38332778215408325, -0.02593371830880642, 0.08741488307714462, -0.27668893337249756, -0.01060624048113823, -0.1372639685869217, 0.17201288044452667, -0.18380877375602722, -0.002918699523434043, 0.39047515392303467, -0.04460453242063522, 0.10668013244867325, 0.016184460371732712, 0.0443047471344471, -0.09049146622419357, -0.05889710411429405, 0.06262778490781784, -0.07032103091478348, -0.05393986031413078, 0.11245643347501755, -0.06513841450214386, 0.054630815982818604, 0.07743312418460846, 0.061018288135528564, 0.10963359475135803, 0.08291184902191162, -0.07126203179359436, -0.12347310781478882, -0.08383075892925262, -0.09684614092111588, 0.0705767497420311, 0.034583598375320435, 0.004646062385290861, -0.06044718250632286, -0.08626728504896164, 0.0013994736364111304, 0.030880032107234, -0.02773113362491131, 0.05285908281803131, -0.07709025591611862, -0.12818670272827148, 0.11080490797758102, -0.14005906879901886, -0.1565062403678894, -0.12225561589002609, 0.0028959359042346478, 0.0398842915892601, -0.13556312024593353, -0.1143864169716835, -0.15641358494758606, 0.036077409982681274, -0.053518980741500854, 0.11725917458534241, 0.15765380859375, -0.16110455989837646, 0.22932934761047363, -0.04426514357328415, 0.0629560798406601, -0.03558465838432312, -0.019312677904963493, -0.13778191804885864, 0.14023041725158691, -0.09946689754724503, 0.19421741366386414, -0.17218680679798126, -0.16873547434806824, 0.1220543161034584, 0.0077367303892970085, 0.007476164493709803, -0.2520597577095032, -0.08287506550550461, -0.13152164220809937, -0.10201213508844376, 0.3769627511501312, 0.23955823481082916, 0.08590908348560333, 0.13562195003032684, 0.13915567100048065, -0.09229202568531036, 0.01704246737062931, -0.012846674770116806, -0.010752765461802483, -0.15167701244354248, 0.1357824057340622, 0.13882672786712646, 0.10004345327615738, 0.03637424111366272, 0.043882034718990326, -0.03474902734160423, 0.07499583810567856, 0.04840406775474548, -0.23521918058395386, 0.09364060312509537, -0.11104853451251984, 0.05537010729312897, -0.045808497816324234, 0.10852490365505219, -0.06884951889514923, 0.09390029311180115, 0.11809185892343521, 0.008250066079199314, -0.02388223633170128, 0.03231972083449364, 0.07307732105255127, 0.28094860911369324, 0.0015465521719306707, -0.06834519654512405, -0.19200699031352997, 0.018746646121144295, -0.14343588054180145, 0.20331880450248718, -0.1427667886018753, -0.08593946695327759, 0.13939659297466278, 0.1051516905426979, 0.2453126460313797, 0.031249212101101875, 0.15309186279773712, -0.17273560166358948, -0.08856178820133209, 0.07533714920282364, -0.07079534232616425, -0.2189096212387085, 0.05729532986879349, -0.12458676099777222, -0.015517685562372208, -0.18772900104522705, -0.12963642179965973, -0.059942420572042465, 0.16615110635757446, 0.08301910012960434, -0.1099923849105835, -0.1428205370903015, -0.2510943114757538, 0.16012653708457947, 0.18941205739974976, -0.14109276235103607, -0.2269972711801529, -0.06078990921378136, 0.334236204624176, -0.05376588925719261, -0.08159326761960983, 0.21406371891498566, 0.17383573949337006, -0.10345664620399475, 0.09896492958068848, -0.2213684320449829, -0.11876323074102402, -0.3424920439720154, -0.2326779067516327, -0.003021327080205083, -0.2987948954105377, -0.5458953380584717, 0.026928678154945374, -0.09514303505420685, 0.09963453561067581, -0.23758430778980255, -0.06767265498638153, 0.09162348508834839, -0.006211055442690849, 0.10597404837608337, -0.11583945155143738, -0.3295893967151642, -0.17098677158355713, -0.03578488528728485, -0.06600379943847656, 0.003975106868892908, 0.017098288983106613, -0.1573258936405182, 0.28775477409362793, -0.004997160751372576, 0.07413604855537415, -0.18921253085136414, -0.004526522941887379, -0.410288006067276, 0.028046205639839172, -0.06538596749305725, -0.0781397819519043, -0.12471331655979156, 0.1606578230857849, -0.16335614025592804, -0.053004659712314606, 0.14392726123332977, 0.03884090483188629, -0.18560978770256042, -0.023917658254504204, -0.46109697222709656, -0.1241343691945076, -0.002108185086399317, 0.1593456119298935, 0.12065527588129044, 0.058894407004117966, -0.17327991127967834, 0.029953129589557648, -0.009335755370557308, -0.0633741095662117, -0.14326973259449005, -0.07135256379842758, -0.06638388335704803, -0.0247730053961277, -0.1567310094833374, -0.4607090950012207, 0.12044455111026764, -0.03470626845955849, 0.06046523526310921, 0.10570841282606125, 0.055605340749025345, 0.058736443519592285, -0.061218056827783585, 0.11126771569252014, 0.15052136778831482, 0.143482968211174, -0.004350890871137381, -0.08278461545705795, 0.09663788229227066, -0.07439728826284409, 0.15432539582252502, -0.13057564198970795, 0.059006303548812866, 0.15399935841560364, -0.08538433909416199, -0.0026599320117384195, 0.08300430327653885, -0.15034733712673187, 0.023044485598802567, 0.013707862235605717, 0.13527187705039978, 0.04174734652042389, -0.037240199744701385, -0.16499759256839752, -0.13397851586341858, 0.1621609926223755, 0.14558832347393036, 0.00858641229569912, 0.21666499972343445, 0.18458160758018494, -0.02901686541736126, -0.17802658677101135, 0.004026154987514019, -0.04700326919555664, -0.10658375918865204, 0.04186197370290756, -0.014408336021006107, -0.010193551890552044, -0.004763892851769924, -0.12422830611467361, 0.16240966320037842, -0.08416849374771118, 0.1584353893995285, 0.08158814907073975, -0.17735637724399567, -0.21816685795783997, 0.023115376010537148, -0.2384030818939209, 0.07046346366405487, -0.1404780000448227, 0.01897400990128517, 0.16555151343345642, -0.05002182349562645, 0.07592304795980453, -0.1448461264371872, 0.3067236840724945, 0.014781908132135868, 0.029876863583922386, -0.20017306506633759, 0.15108929574489594, -0.05750055983662605, -0.0359761044383049, 0.1185043454170227, -0.08340828865766525, -0.009389773942530155, -0.06946536153554916, 0.03973320126533508, -0.10270299017429352, -0.0438983254134655, -0.014065862633287907, 0.25318992137908936, -0.17484599351882935, 0.23925527930259705, -0.03098878264427185, -0.046529192477464676, -0.10269881784915924, -0.14583973586559296, 0.05657853186130524, -0.21696287393569946, -0.0525888167321682, -0.18003617227077484, 0.09247928112745285, -0.05347399041056633, -0.06987587362527847, 0.10932645201683044, -0.03944066911935806, -0.17969033122062683, 0.09096695482730865, -0.25491130352020264, 0.15049128234386444, 0.0761546716094017, -0.20613715052604675, 0.0268718134611845, 0.23402036726474762, 0.15027248859405518, -0.2737232446670532, 0.08067628741264343, 0.14985352754592896, -0.10463996976613998, -0.08343127369880676, 0.03501981496810913, 0.11041721701622009, 0.061909496784210205, -0.012640612199902534, -0.0782165452837944, -0.0193179901689291, 0.10543777048587799, -0.14840839803218842, -0.12936532497406006, 0.11589545011520386, -0.050604190677404404, -0.02478901855647564, 0.00960096251219511, -0.2583962082862854, 0.09684329479932785, 0.04272177815437317, 0.26087644696235657, -0.05503730848431587, -0.17475876212120056, -0.2261083424091339, -0.04315323382616043, 0.2259347289800644, -0.15902583301067352, 0.08848182111978531, 0.02352069690823555, 0.2058972716331482, -0.08212894946336746, -0.24003680050373077, -0.03008740022778511, -0.024288566783070564, -0.05339805781841278, -0.08067052066326141, 0.01487116888165474, -0.07726096361875534, -0.07102581113576889, -0.07309246808290482, 0.0417228639125824, -0.06777937710285187, 0.07450570911169052, 0.14640699326992035, 0.01522491592913866, -0.00432001706212759, 0.08546919375658035, -0.06537995487451553, 0.10263217985630035, 0.0562015175819397, 0.01048948708921671, -0.01963753253221512, 0.03731568157672882, 0.09890976548194885, 0.01916024275124073, -0.05364131182432175, 0.010790625587105751, -0.024744270369410515, -0.012062866240739822, 0.009576060809195042, 0.40430590510368347, 0.38771167397499084, 0.5324550867080688, -0.9215643405914307, -0.5980579853057861, -0.0432250015437603, 0.15502163767814636, -0.037129536271095276, 0.36432167887687683, 0.22911588847637177, -1.066217064857483, 0.4389722943305969, -0.0034516993910074234, -0.6491620540618896, -0.10352806001901627, -0.17773887515068054, -0.3524158298969269, -0.59954434633255, 0.47353029251098633, -0.013229433447122574, 0.09393962472677231, 0.04947197064757347, 0.09202352166175842, -0.16269922256469727, -0.21457336843013763, 0.13302689790725708, 0.058776624500751495, 0.02104610949754715, 0.128816619515419, -0.2889431118965149, 0.06082473322749138, -0.22820308804512024, -0.07281999289989471, -0.515514075756073, 0.15079563856124878, 0.007859722711145878, 0.1460127979516983, -0.03943467140197754, 0.2728356122970581, -0.05932314693927765, -0.10849352926015854, -0.06675775349140167, -0.011850460432469845, 0.24712726473808289, 0.11161715537309647, -0.04361835867166519, 0.47167035937309265, -0.02525045908987522, -0.2681716978549957, 0.36149969696998596, -0.2633185386657715, -0.21039892733097076, -0.06800375878810883, -0.28923720121383667, -0.4430381953716278, 0.07831069827079773, -0.0804762989282608, -0.20200805366039276, -0.03533836454153061, -0.004580450709909201, 0.08380459249019623, 0.09445464611053467, 0.2959786355495453, 0.5658879280090332, -0.07731444388628006, 0.06224280968308449, -0.12985830008983612, 0.43369656801223755, 0.14558780193328857, 0.3724496364593506, 0.4864591956138611, -0.04992508515715599, -0.20772461593151093, -0.03607920929789543, -0.011937370523810387, -0.3284481167793274, 0.1205834373831749, 0.03230563923716545, -0.2490212321281433, -0.3339647054672241, 0.2298266440629959, 0.007787745445966721, -0.2652399241924286, -0.023774554952979088, -0.13414262235164642, -0.020557263866066933, 0.005068458151072264, -0.013750803656876087, 0.23955044150352478, 0.34722933173179626, 0.09353883564472198, -0.09618134051561356, -0.3973592221736908, -0.16569377481937408, 0.198081374168396, -0.14606991410255432, -0.06306358426809311, 0.4761349856853485, 0.1366860419511795, -0.06748697906732559, -0.10261088609695435, 0.20911936461925507, -0.21171271800994873, -0.1642170548439026, 0.3191273808479309, -0.1554199457168579, -0.328551709651947, 0.10742746293544769, -0.2201138436794281, 0.30780214071273804, -0.2533050775527954, 0.1444089561700821, -0.010166640393435955, -0.2519863247871399, -0.16936899721622467, 0.06285233050584793, -0.00425002770498395, -0.36263859272003174, 0.24080917239189148, 0.408779114484787, -0.39961928129196167, -0.030036576092243195, 0.13448722660541534, -0.12943586707115173, 0.008347966708242893, 0.07314788550138474, 0.049658648669719696, -0.42279332876205444, 0.17425063252449036, 0.05201837047934532, -0.2741803526878357, 0.2261282503604889, 0.19969438016414642, -0.11628658324480057, 0.21355555951595306, 0.2916145622730255, 0.26024988293647766, -0.012305604293942451, -0.059849608689546585, -0.01893608272075653, -0.05841723829507828, 0.14965547621250153, 0.21469171345233917, -0.3490876257419586, -0.28399986028671265, 0.02813063934445381, 0.10309188812971115, -0.01731700450181961, 0.09335588663816452, 0.23153972625732422, -0.17818349599838257, -0.2382151186466217, -0.3086811602115631, 0.0696810707449913, 0.20269142091274261, -0.34288573265075684, 0.15343952178955078, -0.019944677129387856, -0.06039360910654068, 0.04804170876741409, 0.2899436056613922, 0.2951947748661041, -0.14653049409389496, 0.09340500086545944, -0.05062561482191086, -0.08965475112199783, -0.5526350140571594, 0.40804821252822876, 0.25967931747436523, -0.275147408246994, 0.09412652999162674, -0.012033380568027496, 0.2128337174654007, -0.026700930669903755, 0.3918932378292084, 0.2546026110649109, -0.3331144452095032, -0.17615501582622528, -0.11724857240915298, -0.16236138343811035, -0.23237979412078857, -0.2374182939529419, 0.13751192390918732, -0.13620857894420624, 0.153152197599411, -0.04953150823712349, -0.049243099987506866, 0.06775146722793579, -0.04240570217370987, -0.03493795543909073, 0.0733879953622818, -0.3427877724170685, -0.1584697961807251, 0.006247993092983961, -0.02642921917140484, -0.1530454009771347, -0.1439736783504486, -0.4198541045188904, -0.013350478373467922, 0.06307731568813324, -0.15001066029071808, 0.06882141530513763, 0.3112209737300873, 0.3342837989330292, -0.05572771281003952, 0.05651640146970749, -0.27118226885795593, -0.11002809554338455, 0.003976000472903252, 0.22454525530338287, 0.14373598992824554, -0.09263075888156891, -0.11229249089956284, 0.022194594144821167, -0.026286503300070763, 0.15077638626098633, -0.12604722380638123, 0.34976983070373535, -0.1399628072977066, -0.46248674392700195, -0.3108581602573395, 0.06381579488515854, 0.04815002158284187, -0.281451016664505, -0.32531410455703735, -0.3945329189300537, 0.412826806306839, 0.1822458803653717, 0.2065442055463791, 0.19487762451171875, 0.26564517617225647, -0.06939446926116943, -0.08026973903179169, 0.3780750334262848, 0.31292131543159485, -0.11558670550584793, -0.0957971140742302, -0.46555712819099426, -0.029822567477822304, -0.21647776663303375, 0.01647353172302246, 0.20372937619686127, -0.0118363993242383, 0.05547352135181427, -0.20406095683574677, -0.1668681800365448, -0.005547662265598774, 0.1991642713546753, -0.33881229162216187, 0.2247219681739807, -0.20138686895370483, 0.056004222482442856, 0.07700388133525848, -0.08236042410135269, 0.149969682097435, 0.3600507080554962, -0.23187915980815887, 0.00122550199739635, -0.05250531807541847, -0.3765106499195099, -0.1869525909423828, -0.40391805768013, 0.2171633392572403, -0.018300147727131844, -0.19002597033977509, 0.0065123396925628185, -0.16856640577316284, -0.014603831805288792, 0.04470996558666229, -0.03528396040201187, -0.0840226486325264, -0.03294255584478378, -0.11735112220048904, -0.009479999542236328, 0.05027412995696068, -0.029036778956651688, -0.014068584889173508, -0.009474263526499271, 0.0056478711776435375, 0.04441709816455841, -0.11386024951934814, 0.07450982183218002, 0.04252348467707634, 0.023748088628053665, -0.03428757190704346, -0.1697453409433365, 0.028367970138788223, 0.007691134233027697, 0.15906526148319244, 0.03249412402510643, -0.034686002880334854, 0.08680552244186401, 0.29642969369888306, -0.39366820454597473, -0.21485021710395813, 0.12205284833908081, -0.10541471093893051, 0.008366485126316547, 0.26311060786247253, 0.2962897717952728, 0.10555370151996613, 0.3431086540222168, 0.06981424987316132, 0.1349889189004898, -0.5521037578582764, 0.2838568389415741, 0.10230547934770584, 0.2788652181625366, -0.06733836978673935, 0.18354231119155884, 0.08637009561061859, -0.23711569607257843, -0.09452115744352341, 0.047833748161792755, 0.2172539383172989, 0.04389762505888939, -0.22950027883052826, -0.1428365558385849, 0.1617031991481781, 0.1411365568637848, -0.2073807269334793, -0.055084239691495895, -0.11274382472038269, -0.25881361961364746, 0.07942337542772293, 0.06685061007738113, 0.2867307960987091, 0.02579329162836075, 0.06444375216960907, 0.15868104994297028, 0.014121485874056816, 0.1287931501865387, -0.04612300544977188, -0.0017542229034006596, -0.20010130107402802, -0.25412386655807495, -0.23510120809078217, -0.4134657680988312, 0.20269028842449188, -0.17376278340816498, -0.12966369092464447, -0.0008988410118035972, 0.24863392114639282, 0.18390607833862305, 0.07722806930541992, -0.17621108889579773, -0.2193489372730255, 0.10612229257822037, 0.169476717710495, 0.11756403744220734, 0.014177200384438038, 0.2250736653804779, -0.003939485643059015, 0.07248597592115402, -0.3631073832511902, 0.32779988646507263, 0.03885265067219734, -0.21334445476531982, 0.12396974861621857, -0.13400931656360626, 0.06262131035327911, -0.10707657039165497, 0.1532907634973526, 0.029551362618803978, 0.38531801104545593, -0.07820294052362442, 0.002257641637697816, -0.24176865816116333, 0.0665832981467247, -0.06009041517972946, -0.08493772894144058, -0.08437596261501312, 0.03377045318484306, -0.11368118971586227, 0.012239856645464897, -0.09202803671360016, -0.4137910306453705, 0.09216751903295517, 0.13365094363689423, 0.28836336731910706, -0.07934155315160751, -0.08160030841827393, -0.06137648969888687, -0.03283694386482239, 0.05728505924344063, 0.08460333943367004, 0.01640990935266018, 0.001556471805088222, 0.1454637199640274, 0.17333482205867767, 0.019052870571613312, -0.18771317601203918, 0.01774490252137184, -0.09968898445367813, 0.26067736744880676, -0.0499991849064827, -0.04357175529003143, -0.19684359431266785, -0.11730577796697617, -0.018260646611452103, 0.11145012825727463, 0.23463276028633118, 0.016532309353351593, -0.16265344619750977, 0.01869211345911026, -0.017068134620785713, -0.12212522327899933, -0.05591315031051636, 0.010028131306171417, -0.05683867260813713, -0.175094336271286, 0.14371301233768463, -0.22490108013153076, 0.06557731330394745, 0.05894913151860237, 0.12832210958003998, 0.03173382207751274, -0.09725337475538254, 0.0886051207780838, -0.14737685024738312, -0.036288198083639145, 0.00021476051188074052, -0.02386976219713688, 0.12798839807510376, 0.1048097088932991, 0.009127630852162838, 0.0408119298517704, -0.17647305130958557, 0.05386873334646225, 0.15268443524837494, -0.19524253904819489, 0.05389111116528511, 0.06445247679948807, 0.17803935706615448, 0.03817909583449364, 0.10105305910110474, -0.19451679289340973, -0.16203473508358002, -0.18195408582687378, 0.052473124116659164, -0.08539474010467529, 0.24356597661972046, 0.010055153630673885, 0.05175253748893738, 0.3926365375518799, 0.21224576234817505, 0.15408694744110107, -0.12530791759490967, -0.06006722152233124, 0.13250498473644257, 0.13407093286514282, -0.14072705805301666, 0.05979100242257118, 0.21045275032520294, -0.07299746572971344, -0.07809927314519882, -0.07026807963848114, 0.0690128430724144, 0.0496448315680027, -0.2281160056591034, -0.13316839933395386, 0.0015960794407874346, 0.02351047471165657, 0.25596463680267334, 0.03429020196199417, -0.21706454455852509, 0.11926532536745071, -0.029970979318022728, 0.07114683836698532, 0.2803373634815216, 0.022371260449290276, -0.002455953974276781, 0.2103353887796402, -0.18879787623882294, 0.17020508646965027, -0.08485022187232971, 0.09907533973455429, 0.032910026609897614, 0.24788320064544678, 0.07654689252376556, -0.24477805197238922, 0.23684009909629822, -0.18311834335327148, -0.01691698096692562, -0.0046142167411744595, -0.15176209807395935, 0.0971626564860344, 0.1661899834871292, 0.17512044310569763, -0.26730868220329285, 0.2404002696275711, 0.026990946382284164, 0.054952025413513184, -0.25249913334846497, 0.02687552198767662, 0.08054177463054657, -0.08032992482185364, 0.07236222177743912, 0.11149521917104721, -0.11764534562826157, -0.10603456199169159, 0.0916728749871254, -0.10119041055440903, -0.006939169485121965, -0.10372626036405563, 0.14266705513000488, 0.06642968207597733, 0.32390207052230835, -0.043716657906770706, 0.24353323876857758, -0.2208826094865799, 0.040041565895080566, -0.25334298610687256, 0.10488741099834442, 0.04240177199244499, -0.18949179351329803, -0.35169899463653564, 0.009971133433282375, 0.02821034938097, -0.14075903594493866, 0.18659965693950653, -0.116773322224617, 0.016564106568694115, -0.03880944103002548, -0.04781728237867355, -0.36641421914100647, 0.03212747722864151, -0.014390590600669384, -0.2239558845758438, 0.0027376124635338783, -0.15078231692314148, 0.05795694887638092, 0.21657848358154297, -0.10658573359251022, 0.026175476610660553, 0.004786520730704069, -0.3139376938343048, -0.09104160964488983, -0.12092147022485733, -0.08600759506225586, -0.24664394557476044, -0.015463417395949364, -0.12013185769319534, -0.02019874006509781, -0.3222923278808594, 0.36000439524650574, 0.180476114153862, 0.26551803946495056, -0.7115678191184998, -0.0626477375626564, 0.13475331664085388, -0.12341306358575821, -0.10224540531635284, -0.12905627489089966, 0.07140935212373734, -0.031377796083688736, 0.13731177151203156, -0.13683834671974182, -0.03183998912572861, 0.0738983079791069, -0.024456080049276352, -0.1942586451768875, 0.126315638422966, 0.09335107356309891, -0.06255076080560684, -0.13956955075263977, -0.2109241932630539, -0.24503369629383087, -0.09114857763051987, 0.034884318709373474, -0.19212399423122406, -0.005159043241292238, -0.453546404838562, 0.16201654076576233, 0.20789842307567596, -0.04801201447844505, -0.02822151593863964, 0.02646900899708271, 0.32962822914123535, 0.11150334030389786, 0.08005144447088242, -0.07485421746969223, 0.01430264487862587, -0.3390308618545532, 0.08854903280735016, -0.045005910098552704, -0.08940394222736359, 0.08338724076747894, 0.21987558901309967, 0.1499401181936264,